tree
version=v4
num_class=1
num_tree_per_iteration=1
label_index=0
max_feature_idx=88
objective=binary sigmoid:1
feature_names=team conf GP Min_per Ortg usg eFG TS_per ORB_per DRB_per AST_per TO_per FTM FTA FT_per twoPM twoPA twoP_per TPM TPA TP_per blk_per stl_per ftr yr porpag adjoe pfr year type Rec_Rank ast_tov rimmade rimmade_rimmiss midmade midmade_midmiss rim_ratio mid_ratio dunksmade dunksmiss_dunksmade dunks_ratio drtg adrtg dporpag stops bpm obpm dbpm gbpm mp ogbpm dgbpm oreb dreb treb ast stl blk pts height_inches height_numeric power_conf yr_numeric power_conference efficiency_score all_around_score versatile_guard stretch_big defensive_specialist pts_per_min reb_per_min ast_pts_ratio defensive_rating advanced_metric simple_efficiency true_shooting usage_efficiency minutes_impact offensive_load assist_turnover_ratio defensive_stats rebound_total all_around_score_v2 true_shooting_volume per_minute_impact year_numeric big_man_shooter playmaking_big has_recruit_rank
feature_infos=-1:179:178:153:308:107:252:309:60:100:29:53:158:269:287:28:105:222:262:335:352:9:51:132:319:25:31:36:37:48:112:216:234:279:2:22:89:114:127:228:257:272:291:24:215:331:18:63:90:101:119:131:165:172:197:232:271:302:315:326:343:58:92:152:163:166:205:230:242:246:261:338:34:95:121:160:184:238:240:247:268:296:298:300:314:321:322:332:334:353:4:5:10:46:175:185:188:204:211:251:284:293:301:340:345:350:44:50:52:55:83:94:133:144:148:164:189:200:206:209:210:225:249:273:286:312:330:333:341:13:26:30:32:47:54:66:79:81:82:97:98:103:104:129:130:143:214:224:236:244:248:253:254:256:290:305:324:328:339:42:77:87:102:109:111:141:161:171:181:213:259:264:267:274:288:304:346:354:11:35:43:45:56:57:62:64:67:93:108:157:159:162:182:220:223:260:275:306:320:325:327:344:68:74:96:118:128:145:146:187:217:237:258:280:14:41:69:85:86:88:110:116:139:149:169:170:190:191:218:241:255:278:281:310:0:1:3:7:8:16:49:125:137:147:155:180:194:201:212:227:231:276:307:311:313:15:21:38:40:59:71:99:120:123:126:138:151:168:183:186:207:221:235:266:303:336:347:348:20:33:61:70:73:78:150:177:195:208:219:283:289:75:134:140:173:233:277:297:317:323:342:65:176:192:299:337:113:115:136:142:270:282:285:349:19:106:117:156:167:193:199:202:229:265:292:318:39:263:6:80:196:198:226:239:243:245:294:91:124:203:12:17:72:122:329:76:135 -1:24:0:23:18:8:13:1:5:27:3:11:4:9:10:2:29:30:20:32:35:34:33:21:6:26:14:12:22:17:19:28:7:31:16:25 [1:41] [0:94.299999999999997] [0:407.30000000000001] [0:50] [0:150] [0:150] [0:1576.5999999999999] [0:1385] [0:100] [0:100] [0:236] [0:289] [0:1] [0:279] [0:442] [0:1] [0:118] [0:327] [0:1] [0:1072] [0:118.2] [0:600] none [-4.4356099999999996:7.0671400000000002] [-35.821199999999997:310.57999999999998] [0:720] [2009:2018] none [0.20000000000000001:100] [0:10] [0:213] [0:270] [0:124] [0:321] [0:1] [0:1] [0:99] [0:105] [0:1] [-1330.0599999999999:131.46100000000001] [-1292.02:142.78899999999999] [-0.85723800000000006:5.1764099999999997] [0.043486200000000003:280.45800000000003] [-88.479399999999998:685.31299999999999] [-68.542000000000002:161.995] [-25.9238:523.31899999999996] [-135.15199999999999:95.924499999999995] [0:50] [-106.262:78.811499999999995] [-46.596400000000003:66.877300000000005] [0:4.8888999999999996] [0:8.1999999999999993] [0:11.571400000000001] [0:8.6562000000000001] [0:4] [0:5.2580999999999998] [0:27.375] [18:138] [18:138] [0:1] none [0:1] [0:105.900000021] [0:11.435915000000001] none none [0:1] [0:578900] [0:2000000] [0:2000000] [0:6.5] [-88.479399999999998:685.31299999999999] [0:22.999977000023001] [0:150] [0:5640] [-659.62478999999996:967.31424000000004] [0:149.19999999999999] [0:10] [0:1190.2] [0:2961.5999999999999] [0:1541.7] [0:547.98784147061781] [-88.479399999999998:685.31299999999999] [2009:2018] none [0:1] [0:1]
tree_sizes=1905 3471 3436 3440 3442 3465 3416 3423 3416 3420 3403 3392 3420 3500 3443 3526 3467 3420 3460 3424 3441 3441 3445 3447 3465 3457 3462 3491 3477 3505 3480 3507 3494 3472 3489 3492 3476 3514 3510 3514 3497 3509 3506 3521 3524 3515 3538 3522 3550 3500 3536 3526 3498 3561 3523 3533 3535 3538 3543 3562 3515 3550 3542 3556 3566 3565 3580 3599 3565 3605 3539 3567 3576 3550 3546 3576 3596 3570 3583 3596 3584 3608 3588 3582 3613 3618 3622 3592 3610 3040 3635 3628 3611 3627 2152 3631 3404 3606 3656 3171 2050 3313 2835 2970 1830 2842 2973 1717 2640 1723 2627 1714 2147 1713 2068 2068 1952 2419 1375 1614 1843 1737 1851 1379 1615 1622 1264 1504 1390 1157 1278 1166 1156 1277 940 1164 1047 1044 1048 1162 936 1044 1044 826 938 938 933 935 698 935 821 934 813 828 806 826 818 699 828 594 707 710 813

Tree=0
num_leaves=17
num_cat=0
split_feature=30 50 43 20 30 30 32 15 39 32 5 2 3 3 2 3
split_gain=4198.95 574.463 485.533 509.434 196.125 63.5744 135.825 31.2016 18.6307 78.0194 4.61455 1.42109e-14 1.42109e-14 1.11022e-16 5.55112e-17 5.55112e-17
threshold=97.90000000000002 3.0725800000000008 3.5768700000000004 0.38250000000000006 98.90000000000002 94.90000000000002 59.500000000000007 109.50000000000001 24.500000000000004 54.500000000000007 17.550000000000004 36.500000000000007 25.150000000000002 62.050000000000004 34.500000000000007 55.250000000000007
decision_type=10 10 10 2 10 10 10 2 10 10 2 2 2 2 2 2
left_child=2 -2 5 7 -3 8 10 -4 11 -10 -7 12 -1 15 -12 -11
right_child=1 4 3 -5 -6 6 -8 -9 9 13 14 -13 -14 -15 -16 -17
leaf_value=-4.9299907067877813 -0.81735750363534887 2.3338809247541326 -4.9299907067877813 2.5815129121930633 6.6922039036793084 -4.2944019390278605 -1.6138753967360362 -3.0232244035080291 -2.5087001629404622 -4.9299907067877813 -4.9299907067877813 -4.9299907067877813 -4.9299907067877813 -4.9299907067877813 -4.9299907067877804 -4.9299907067877804
leaf_weight=45.446050684899092 0.26746853440999885 0.16520115360617638 0.18880131840705772 0.17306787520647049 0.27533525601029396 0.15733443200588126 0.1809345968067646 0.15733443200588226 0.16520115360617538 0.25960181280970573 0.24386836960911751 0.66080461442470451 32.410892993211746 0.26746853440999985 0.17306787520647049 0.15733443200588226
leaf_count=5777 34 21 24 22 35 20 23 20 21 33 31 84 4120 34 22 20
internal_value=-4.82919 2.83832 -4.89651 -1.84835 5.05783 -4.91626 -4.00309 -4.06328 -4.92495 -4.45918 -4.75586 -4.92999 -4.92999 -4.92999 -4.92999 -4.92999
internal_weight=0 0.708005 80.6418 0.519204 0.440536 80.1226 0.755205 0.346136 79.3674 0.849606 0.574271 78.5177 77.8569 0.684405 0.416936 0.416936
internal_count=10341 90 10251 66 56 10185 96 44 10089 108 73 9981 9897 87 53 53
is_linear=0
shrinkage=1


Tree=1
num_leaves=31
num_cat=1
split_feature=72 25 0 37 35 57 8 16 38 77 70 56 13 4 77 81 30 59 30 30 58 30 30 30 30 21 25 32 39 15
split_gain=38.6636 48.5621 27.7367 22.6439 22.6324 18.3493 17.3621 11.6721 10.765 17.3054 14.4129 8.65156 2.95364 2.80719 1.58109 1.32943 8.3965 1.00871 0.416464 0.165815 0.114112 0.154843 0.0493895 0.0380186 0.0295958 0.0251089 0.0108994 0.00764365 0.00354541 0.00223414
threshold=2.4305000000000008 3.4121100000000006 0 0.32865000000000005 184.00000000000003 1.0501000000000003 6.6500000000000012 151.50000000000003 47.500000000000007 422.66181350000005 0.13822375708983836 0.91425000000000012 215.50000000000003 118.35000000000001 374.69881350000009 36.95000000000001 95.100000000000009 119.50000000000001 98.500000000000014 98.300000000000026 16.426350000000003 97.90000000000002 98.700000000000003 94.90000000000002 99.700000000000003 3.9500000000000006 2.8273450000000007 69.500000000000014 24.500000000000004 83.500000000000014
decision_type=10 2 9 10 10 8 2 2 10 10 8 10 2 2 10 2 10 8 10 10 10 10 10 10 10 2 2 10 10 2
left_child=2 6 3 11 8 7 -2 24 9 12 -11 13 14 22 15 18 -17 25 19 20 21 23 26 28 -5 -8 -1 29 -4 -25
right_child=1 -3 4 5 -6 -7 17 -9 -10 10 -12 -13 -14 -15 -16 16 -18 -19 -20 -21 -22 -23 -24 27 -26 -27 -28 -29 -30 -31
leaf_value=-0.10117102893730084 -0.8502033277765344 -1.3032819705777081 -0.10073646146578562 -0.10150350583007561 -1.2422482024942407 0.68747792731604362 -0.14275080059297637 0.30684433615205792 0.40573268888990621 -0.97658227087706284 -0.24912420983960493 0.2112683816396512 0.22446412246175598 -0.49854053014097188 -0.25669589022193001 -0.10102376720350288 0.41462704561720876 0.076961397045406998 -0.14403043758641901 -0.034694336410336021 -0.035190231701548232 -0.14415969919689109 -0.14415969919689081 -0.10098851380678001 -0.14415969919689042 -0.10292488217899243 -0.11991144628868847 -0.11991144628868865 -0.10613454974917198 -0.11431711373923099
leaf_weight=1.2268103356473159 0.34575917618349139 0.57068024191539723 66.353389309719205 0.69353356491774354 0.17492918227799137 0.97771540575195093 0.21961319306865301 2.526906238286756 0.41290225833654304 0.3906918019056308 0.8991889418102802 0.94212999590672541 0.27933297550771286 0.2087672697380184 0.64923112944234063 2.3220297610387202 0.3654855127679183 0.42632783111184847 2.3386268980102605 0.37358765304088493 0.25862998748198052 0.84995979070663352 0.42497989535331715 0.35265254462137718 0.21248994767665863 0.56707718642428517 0.41543470323085774 1.2463041096925733 1.2394348620437075 0.19546419754624367
leaf_count=160 24 18 9289 86 21 14 2 37 11 20 34 23 6 19 24 312 4 18 12 3 26 4 2 40 1 50 3 9 60 9
internal_value=0 -0.514041 -0.0827128 0.0684257 -0.0941007 0.305283 -0.225094 0.196432 -0.103526 -0.106218 -0.469464 -0.0435766 -0.100119 -0.149068 -0.101304 -0.0999745 -0.0308984 -0.0469123 -0.10251 -0.10114 -0.101492 -0.101736 -0.113775 -0.101217 -0.111508 -0.114043 -0.105912 -0.115583 -0.100835 -0.105742
internal_weight=0 2.12946 86.3306 7.62877 78.7018 4.41065 1.55878 3.43293 78.5269 78.114 1.28988 3.21812 76.8241 2.27599 76.5448 75.8956 2.68752 1.21302 73.208 70.8694 70.4958 70.2372 2.06722 69.3872 0.906024 0.78669 1.64225 1.79442 67.5928 0.548117
internal_count=10341 112 10229 345 9884 138 94 124 9863 9852 54 207 9798 184 9792 9768 316 70 9452 9440 9437 9411 165 9407 87 52 163 58 9349 49
cat_boundaries=0 12
cat_threshold=0 8388609 1073741824 0 1073741952 526336 0 0 8388608 96 0 1
is_linear=0
shrinkage=0.1


Tree=2
num_leaves=31
num_cat=1
split_feature=72 0 35 37 82 81 49 38 77 51 3 20 53 78 4 13 32 64 81 30 20 44 33 30 30 30 30 78 58 13
split_gain=16.0584 23.5375 25.261 15.5061 9.70119 13.6507 8.9624 8.0826 10.7354 10.0035 7.59336 7.25687 3.74418 3.48337 3.27027 2.4234 2.31408 1.37837 1.25692 6.04993 1.0257 0.974067 0.635379 0.297057 0.201262 0.0865437 0.0363285 0.0189581 0.0058828 0.00300455
threshold=2.4305000000000008 0 176.50000000000003 0.32865000000000005 14.185000000000004 29.850000000000005 30.132450000000002 47.500000000000007 374.69881350000009 2.788205 78.700000000000003 0.36450000000000005 2.3015000000000003 33.45000000000001 121.35000000000001 215.50000000000003 118.00000000000001 36.992402260500008 36.95000000000001 95.100000000000009 0.34750000000000003 193.26400000000004 110.50000000000001 98.500000000000014 98.100000000000009 95.700000000000003 98.700000000000003 41.850000000000009 11.968250000000003 195.00000000000003
decision_type=10 9 10 10 2 2 10 10 10 10 2 2 8 2 2 2 10 8 2 10 2 10 8 10 10 10 10 2 8 2
left_child=1 3 7 10 11 -6 14 8 15 12 16 17 -10 -8 20 18 21 -5 23 -20 27 26 -14 24 25 29 28 -2 -1 -3
right_child=6 2 -4 4 5 -7 13 -9 9 -11 -12 -13 22 -15 -16 -17 -18 -19 19 -21 -22 -23 -24 -25 -26 -27 -28 -29 -30 -31
leaf_value=-0.10101777386051147 -0.10039158722112909 -0.10075066094782242 -1.3802937844698959 0.070717629078091065 0.66475255590070226 0.17203567450141766 -0.66040117328049508 0.29912928241044778 -0.41916084862430358 -0.63189706179939464 0.2807743517643474 0.2935425074437108 0.046352973638628697 -0.3567016955717523 -0.38027441115235366 0.18030456965483407 -0.41118222535337345 -0.13087958742657954 -0.10092844856590705 0.30731323515050979 0.1014025912203705 0.10662851765382707 -0.12301335275712809 -0.13823618251669573 -0.045867721394648071 -0.12209548645145077 -0.13763577924898193 -0.13715544225128162 -0.11766142312262938 -0.11472546736735163
leaf_weight=1.266634159721435 0.43800773727707498 61.497434849850833 0.15496236551552911 0.60747630801051866 1.0420613209716978 1.2212820998975074 0.65266397711820878 0.49846333125606079 0.42110198084264916 0.71411895414348681 0.5858878184808417 1.2153070969507096 0.34847597533371311 0.89634499466046691 0.38763165473937988 0.31099348235875268 0.24624132364988316 0.76783811487257492 2.1029428625479336 0.43874317593872536 0.34543719841167331 0.2306133173406123 0.6079082409851253 2.2010187506675711 0.65833873301744361 1.9665767215192307 0.40116440865676839 0.20634524244815111 0.25514537096023571 0.15423238184302945
leaf_count=186 59 9401 26 37 23 18 10 11 4 27 7 27 26 31 2 6 2 23 312 4 7 4 21 11 5 38 3 3 2 5
internal_value=0 -0.0811363 -0.0921189 0.0603532 0.247638 0.398886 -0.319638 -0.102152 -0.104952 -0.328163 -0.0419822 0.115497 -0.1707 -0.484663 -0.134056 -0.0982184 -0.12078 -0.0418341 -0.0994734 -0.0304582 -0.0376296 -0.0875751 -0.0613017 -0.102112 -0.100875 -0.101444 -0.110865 -0.112165 -0.103808 -0.100786
internal_weight=0 79.915 72.0753 7.83965 4.85396 2.26334 2.92643 71.9203 71.4219 2.09161 2.98569 2.59062 1.37749 1.54901 1.37742 69.3303 2.3998 1.37531 69.0193 2.54169 0.98979 2.15356 0.956384 66.4776 64.2766 63.6182 1.92294 0.644353 1.52178 61.6517
internal_count=10341 10229 9897 332 128 41 112 9871 9860 78 204 87 51 41 71 9782 197 60 9776 316 69 195 47 9460 9449 9444 191 62 188 9406
cat_boundaries=0 12
cat_threshold=0 8388609 1073741824 0 1073741824 526336 0 0 8388608 96 0 1
is_linear=0
shrinkage=0.1


Tree=3
num_leaves=31
num_cat=1
split_feature=0 35 38 37 59 59 72 56 38 77 51 25 55 44 53 70 34 13 39 46 30 48 11 30 30 30 7 30 2 30
split_gain=12.0361 26.4066 17.8481 10.1739 7.95617 7.06766 5.07466 6.69248 6.37827 6.37098 4.30481 3.8984 3.81058 3.64391 2.40881 2.14942 5.30006 2.03895 1.78394 1.56228 0.548729 0.543478 0.514245 0.213352 0.464262 0.0673163 0.0629376 0.027316 0.0221111 0.0210485
threshold=0 174.50000000000003 50.500000000000007 0.35740000000000005 125.50000000000001 66.500000000000014 2.4305000000000008 2.0166500000000007 47.500000000000007 374.69881350000009 2.788205 2.4167850000000004 1.7703000000000004 214.03400000000002 2.3015000000000003 0.33333323333336379 15.500000000000002 215.50000000000003 21.500000000000004 3.9631600000000007 95.90000000000002 6.627390000000001 17.550000000000004 98.500000000000014 98.100000000000009 95.700000000000003 55.435000000000009 98.700000000000003 36.500000000000007 92.500000000000014
decision_type=9 10 8 10 10 8 10 10 10 10 10 2 10 10 8 10 10 2 10 8 10 8 2 10 10 10 2 10 2 10
left_child=2 6 3 5 12 11 7 8 9 15 14 26 18 20 -11 17 28 23 29 21 -8 27 -16 24 25 -2 -1 -7 -17 -5
right_child=1 -3 -4 4 -6 19 13 -9 -10 10 -12 -13 -14 -15 22 16 -18 -19 -20 -21 -22 -23 -24 -25 -26 -27 -28 -29 -30 -31
leaf_value=-0.10067378581461531 -0.10071142383610028 -1.5004906748103517 -0.45538175295389549 -0.10387514912518465 0.4321337449630287 -0.11060083969508482 -0.10146940551992044 0.58043101029793798 0.23321345678798946 -0.33797127033490376 -0.43329945140335235 0.25669894316775088 0.25606789550070336 -0.31862893859295421 0.029839476813829674 -0.10078690943528856 0.20982773488344991 0.14135452262610407 0.14323464392787141 0.085201662311258475 0.10153900082689103 -0.28583740336504943 -0.12308190388107683 -0.13329962243207494 -0.0009152417037912203 -0.11906051100644657 -0.017640795378770485 -0.13643820785684668 -0.13651726695033617 -0.14090170368322649
leaf_weight=0.35555354470852529 56.453255170490593 0.13552487781271239 0.57969357102410946 0.32178150326944954 1.3764145058812571 0.86309973569586806 0.39122292282991056 0.14502372848801215 0.57082345755770703 0.46723045129328888 0.92261102702468623 1.2399568283581173 1.0710999956354497 1.7777936422498894 0.38234986865427356 1.492039815988391 0.78314617136493314 0.34717288875253771 0.43385189946275204 0.35652210307307575 0.2018392636673525 0.23372067231684956 0.51759057817980647 2.0614563673734656 0.46379460394382377 2.0727719389833501 0.12282069912180305 0.77805352612631395 0.19594000279903401 0.29362806584686041
leaf_count=57 9504 29 39 33 19 65 68 10 11 4 26 10 22 21 31 244 11 7 7 15 5 4 14 11 4 43 14 5 1 7
internal_value=0 -0.0926273 0.035211 0.120688 0.244915 0.0107067 -0.103248 -0.0981513 -0.0996261 -0.102498 -0.26639 0.163143 0.123384 -0.247024 -0.153754 -0.0966222 -0.00518043 -0.100302 -0.012061 -0.10668 -0.0323787 -0.143168 -0.0581115 -0.101677 -0.100572 -0.101361 -0.0793554 -0.12285 -0.104934 -0.121541
internal_weight=0 69.3816 8.0262 7.4465 3.49678 3.94973 69.2461 66.8752 66.7302 66.1594 2.28978 1.71833 2.12036 2.37086 1.36717 63.8696 2.47113 61.3985 1.04926 2.2314 0.593062 1.87487 0.89994 61.0513 58.9898 58.526 0.478374 1.64115 1.68798 0.61541
internal_count=10341 10044 297 258 88 170 10015 9921 9911 9900 75 81 69 94 49 9825 256 9569 47 89 73 74 45 9562 9551 9547 71 70 245 40
cat_boundaries=0 12
cat_threshold=0 8388609 1073741824 0 1073741824 0 0 0 8388608 96 1 1
is_linear=0
shrinkage=0.1


Tree=4
num_leaves=31
num_cat=1
split_feature=0 72 35 37 19 38 72 21 77 11 34 76 77 81 13 27 12 77 64 23 58 30 57 28 42 30 30 26 30 30
split_gain=10.0474 12.9686 12.9064 7.12684 6.43884 4.11107 4.49492 3.81805 5.27921 5.20136 4.39815 2.07924 1.74557 3.44212 1.78583 1.40861 1.30271 1.07681 0.97932 0.69203 0.154255 0.180217 0.10085 0.05158 0.0330658 0.0242762 0.021872 0.0193311 0.0188401 0.0105817
threshold=0 2.6142000000000007 184.00000000000003 0.35740000000000005 50.500000000000007 20.500000000000004 1.3333500000000005 10.15 374.69881350000009 14.750000000000002 15.500000000000002 1215.8280000000002 281.69137000000006 36.95000000000001 215.50000000000003 2.9500000000000006 79.500000000000014 422.66181350000005 41.608474971000007 18.050000000000004 16.426350000000003 97.90000000000002 2.0156000000000005 2017.5000000000002 87.657100000000014 96.90000000000002 88.700000000000003 117.12700000000001 95.700000000000003 98.700000000000003
decision_type=9 10 10 10 2 10 10 2 10 2 10 2 10 2 2 2 2 8 10 2 10 10 8 2 10 10 10 2 10 10
left_child=1 3 7 4 17 6 23 8 12 -10 29 15 14 19 20 -6 -11 25 -18 -14 21 22 28 26 -21 -1 -5 -26 -2 -9
right_child=2 -3 -4 5 11 -7 -8 10 9 16 -12 -13 13 -15 -16 -17 18 -19 -20 24 -22 -23 -24 -25 27 -27 -28 -29 -30 -31
leaf_value=-0.10209131651286379 -0.10062070500989682 -0.3404287105228736 -0.903855205594711 -0.10091277251508241 0.13592750944314885 0.32545630245224971 0.22117844183743382 -0.10090315808543081 0.029150210993920386 -0.30952959520977258 0.18497981976382427 0.22545968089060359 0.098307449419089879 0.23108204327332882 0.11985695166644456 -0.092080024550955764 -0.11250008372212089 -0.36347188537721414 -0.26158189409835375 -0.12844846065554946 -0.018021652870667215 -0.13035559864556512 -0.0055722783442747831 -0.13837103651970778 -0.10389419823005488 -0.1299846204954751 -0.052802080724927071 -0.059369924056706561 -0.11213526125274836 -0.12765186856061769
leaf_weight=0.74912576237693429 51.340271618333645 0.69545609992928792 0.20072421478107472 0.22413374017924104 0.56994613865390442 1.6838753502233883 1.2539091117214409 0.9292261658702039 0.76963393716141482 2.0705348674673592 0.99094850430265058 1.0377199813374316 0.18275095243006845 0.47439133701845992 0.36669966112822194 0.5164889227016829 0.81866354442900025 0.19943098723888408 0.95422657602466643 0.56399078620597698 0.22018338274210592 2.1376139964559107 0.11111941747367282 0.257512251380831 0.46576201042626053 0.53474474255926907 0.16337092005414888 0.1233344855136238 1.4614316194783885 0.17588782345410436
leaf_count=121 9557 8 25 28 14 15 16 163 29 34 21 10 4 3 6 28 32 1 10 8 25 14 12 7 65 5 15 23 40 2
internal_value=0 0.031709 -0.0893539 0.111803 0.0125855 0.211703 0.110832 -0.100733 -0.105216 -0.208141 0.0320082 0.124227 -0.0969515 -0.000313208 -0.100096 0.0275332 -0.255657 -0.14729 -0.192741 -0.0824878 -0.101555 -0.101889 -0.100739 -0.103682 -0.111142 -0.113709 -0.0806294 -0.0945725 -0.100939 -0.10516
internal_weight=0 7.88571 64.3574 7.19026 3.60746 3.5828 1.89893 64.1567 62.0606 4.61306 2.09606 2.12416 57.4475 1.81023 55.6373 1.08644 3.84342 1.4833 1.77289 1.33584 55.2706 55.0504 52.9128 0.645017 1.15309 1.28387 0.387505 0.589096 52.8017 1.10511
internal_count=10341 268 10073 260 179 81 66 10048 9862 105 186 52 9757 103 9654 42 76 127 42 100 9648 9623 9609 50 96 126 43 88 9597 165
cat_boundaries=0 12
cat_threshold=0 8388609 1073741824 0 1073741824 0 0 0 8388608 96 0 1
is_linear=0
shrinkage=0.1


Tree=5
num_leaves=31
num_cat=1
split_feature=0 38 42 32 54 13 82 38 55 77 30 13 8 19 71 34 18 25 65 22 30 30 72 30 30 30 13 39 4 32
split_gain=8.45536 11.9976 5.39631 4.30109 4.01976 3.73503 3.7867 6.63891 3.9012 5.62772 2.10285 1.63817 1.42245 1.47923 1.02578 0.986985 0.308629 0.247872 0.158405 0.244453 0.110451 0.19944 0.0972394 0.0283137 0.0207571 0.0180847 0.00138097 0.00126621 0.00120466 0.000337547
threshold=0 50.500000000000007 82.833300000000023 34.500000000000007 4.7211000000000007 259.50000000000006 18.420000000000005 18.500000000000004 5.0143000000000013 374.69881350000009 99.100000000000009 215.50000000000003 7.4500000000000011 4.5000000000000009 0.12320126079440942 36.500000000000007 40.500000000000007 3.7699300000000004 6.4541650000000006 1.5500000000000003 98.500000000000014 98.300000000000026 2.8258000000000005 97.90000000000002 95.700000000000003 99.700000000000003 195.00000000000003 24.500000000000004 109.45000000000002 51.500000000000007
decision_type=9 8 10 10 10 2 2 10 10 10 10 2 2 2 10 10 2 2 10 2 10 10 10 10 10 10 2 10 2 10
left_child=1 2 -1 25 15 6 8 10 9 11 17 18 14 -14 -11 -5 -16 23 20 -20 21 22 24 -8 26 -4 27 -2 -26 -29
right_child=5 -3 3 4 -6 -7 7 -9 -10 12 -12 -13 13 -15 16 -17 -18 -19 19 -21 -22 -23 -24 -25 28 -27 -28 29 -30 -31
leaf_value=0.49587825270695751 -0.10049060559188649 -0.37029778851496009 -0.10075900253794851 0.2249355117283961 0.012581873647688927 -0.62873441552994136 -0.1005246159537274 0.18201001429890282 0.28940553058158996 -0.32080068341004925 0.16030024226705786 0.11038745894471198 -0.25905516517544136 -0.039212199298926588 -0.24568496249191268 0.11800766896909949 -0.16634527635892393 -0.20982152457495706 0.068894707879175052 -0.10067852792266672 -0.12552741254770056 -0.025288223821085309 -0.0095357420622300317 -0.12693038230596584 -0.1096534899218693 -0.1347877638020642 -0.11177560500009043 -0.10559727605584564 -0.11530214385407687 -0.1018371776202352
leaf_weight=0.32777017704211164 44.473651466436422 0.58778526523383323 0.84709219844080486 2.0882926741614942 2.3668775349506177 0.13375286757945914 2.1394064299820461 1.2722872573649509 0.24725463171489437 1.274023870006203 0.30806642252719019 0.37063738229698984 0.50710248347604625 0.7720096091798041 0.96937614993657895 1.4715119762113316 0.99205935106147081 0.24945223331451405 0.13978466648040822 0.21695884650034714 1.7854995975503687 0.35282252728938956 0.11657736322376777 0.50119817256927479 0.74602440977468976 0.19148096442222595 0.11023821216076513 0.59822496026754279 0.76440088637173176 0.39730681185028516
leaf_count=10 9279 33 142 27 30 1 441 19 19 9 3 7 13 31 15 25 30 1 11 44 12 3 16 3 33 1 3 12 9 59
internal_value=0 0.0283476 0.0993461 0.0806861 0.113581 -0.0863601 -0.099699 -0.0112 -0.106914 -0.108709 -0.0880634 -0.0990679 -0.215642 -0.126369 -0.250936 0.180735 -0.205556 -0.114538 -0.10063 -0.0342338 -0.10111 -0.100193 -0.100753 -0.105537 -0.100979 -0.107033 -0.100597 -0.10057 -0.112512 -0.104097
internal_weight=0 7.88081 7.29303 6.96526 5.92668 59.4381 59.3044 4.47041 54.834 54.5867 3.19812 50.0721 4.51457 1.27911 3.23546 3.5598 1.96144 2.89006 49.7015 0.356744 49.3447 47.5592 47.2064 2.6406 47.0898 1.03857 45.5794 45.4692 1.51043 0.995532
internal_count=10341 268 235 225 82 10073 10072 467 9605 9586 448 9488 98 44 54 52 45 445 9481 55 9426 9414 9411 444 9395 143 9353 9350 42 71
cat_boundaries=0 12
cat_threshold=0 8388609 1073741824 0 1073741824 0 0 0 8388608 96 0 1
is_linear=0
shrinkage=0.1


Tree=6
num_leaves=31
num_cat=0
split_feature=30 32 59 8 30 46 4 26 38 40 36 81 77 42 26 69 23 33 45 77 55 30 30 39 32 43 57 13 55 30
split_gain=7.82198 11.5623 6.59004 7.32136 4.72071 4.65938 4.27196 3.76272 2.60175 2.68913 2.42043 2.17291 1.56279 1.43378 0.365007 0.134279 0.066231 0.033065 0.0199537 0.0170285 0.0470902 0.0108026 0.00622873 0.0014655 0.00116661 5.0241e-05 5.0003e-06 3.19596e-06 8.01323e-07 6.40478e-07
threshold=89.90000000000002 108.50000000000001 125.50000000000001 3.6500000000000008 97.90000000000002 2.2118750000000005 100.15000000000002 105.70150000000001 26.500000000000004 0.97530000000000017 0.69885000000000008 32.850000000000016 422.66181350000005 90.22450000000002 121.20250000000001 0.4104736510442128 29.450000000000003 77.500000000000014 3.3158750000000006 312.47954199999998 2.6886000000000005 98.500000000000014 97.90000000000002 24.500000000000004 69.500000000000014 3.8476650000000006 1.7071500000000002 187.50000000000003 5.0143000000000013 85.100000000000009
decision_type=10 8 10 2 10 10 2 2 10 10 10 2 10 10 2 8 2 10 8 10 10 10 10 10 10 10 10 2 10 10
left_child=8 2 3 5 -4 21 7 22 12 18 15 13 19 -8 16 -3 -15 -14 -10 23 -21 -2 24 25 -5 26 27 28 29 -1
right_child=1 10 4 6 -6 -7 11 -9 9 -11 -12 -13 17 14 -16 -17 -18 -19 -20 20 -22 -23 -24 -25 -26 -27 -28 -29 -30 -31
leaf_value=-0.10044016005523171 -0.1005284314499805 -0.16392917912898688 0.24988916809470268 -0.10052653898866687 0.017875208672797599 0.16706233819903518 -0.2212897151851565 0.18434437898939182 -0.10557960034479608 0.20216535777932954 -0.32905060286866594 0.011298318466415181 -0.18466450842510188 -0.15426219116318646 -0.044077645753196427 -0.10804163030668044 -0.11412294580018989 -0.21288568991804682 -0.065020913892244458 -0.10048146765263638 -0.013722963193654743 -0.12525758155204025 -0.12322457249517149 -0.10510546753702055 -0.11086481468783789 -0.10287611371162571 -0.10092923235744163 -0.10104306167371968 -0.10071718069003047 -0.10053481247508866
leaf_weight=41.224260776052688 0.28040842444898073 0.82773159054340717 1.782429528422653 0.26744710537604965 1.7263030843459999 2.4918054603040218 1.8784927082597276 0.9827820341779443 0.48601010721176752 0.57145457394653931 1.0238908358151091 0.95161104563157994 0.80807042762171366 0.66936032846570048 0.70033921080175776 0.89449678573873836 1.0653344213496891 0.85384081571828574 0.16164136969018728 0.2349441395199382 0.085266190115362406 0.47738617658615112 0.30590257048606873 0.68744872351817221 0.18441572533629369 0.085261129308490946 0.21323548833606665 0.08879635756238613 0.10593521129339833 0.72750917221128375
leaf_count=9511 61 24 33 55 15 38 37 11 30 6 12 13 27 11 21 19 34 13 29 56 13 3 2 33 4 4 39 14 16 157
internal_value=0 -0.0199377 0.0174418 -0.0230319 0.135738 0.101028 -0.0805774 0.0552383 -0.100099 0.0440532 -0.20729 -0.125475 -0.103995 -0.155649 -0.105011 -0.134902 -0.129611 -0.199164 -0.0954569 -0.100355 -0.0773793 -0.116107 -0.112206 -0.100525 -0.104746 -0.100451 -0.100446 -0.100444 -0.100442 -0.100442
internal_weight=0 16.5101 13.764 10.2553 3.50873 3.2496 7.00569 1.74055 46.3337 1.21911 2.74612 5.26514 45.1146 4.31353 2.43503 1.72223 1.73469 1.66191 0.647651 43.4527 0.32021 0.757795 0.757765 43.1324 0.451863 42.445 42.3597 42.1465 42.0577 41.9518
internal_count=10341 393 338 290 48 102 188 72 9948 65 55 116 9883 103 66 43 45 40 59 9843 69 64 61 9774 59 9741 9737 9698 9684 9668
is_linear=0
shrinkage=0.1


Tree=7
num_leaves=31
num_cat=0
split_feature=30 32 59 8 46 4 30 26 38 40 81 71 42 77 26 30 46 33 77 56 30 30 53 39 32 43 57 13 55 30
split_gain=7.76243 9.36918 5.12143 6.12182 3.82681 3.57216 3.3328 3.15201 2.37482 2.24284 1.89277 1.49512 1.06913 1.06697 0.360924 0.0548936 0.0234616 0.0204396 0.0187596 0.0477239 0.00767783 0.0044255 0.00110774 0.0010842 0.00085063 3.70782e-05 3.72516e-06 2.36784e-06 5.92996e-07 4.7557e-07
threshold=89.90000000000002 108.50000000000001 125.50000000000001 3.6500000000000008 2.2118750000000005 100.15000000000002 97.90000000000002 105.70150000000001 26.500000000000004 0.97530000000000017 32.850000000000016 0.080469791824507156 90.22450000000002 422.66181350000005 121.20250000000001 98.300000000000026 0.28528950000000003 77.500000000000014 312.47954199999998 1.2165500000000002 98.500000000000014 97.90000000000002 3.5872000000000006 24.500000000000004 69.500000000000014 3.8476650000000006 1.7071500000000002 187.50000000000003 5.0143000000000013 85.100000000000009
decision_type=10 8 10 2 10 2 10 2 10 10 2 10 10 10 2 10 8 10 10 10 10 10 10 10 10 10 10 2 10 10
left_child=8 2 3 4 20 7 -4 21 13 16 12 -3 -7 18 15 22 -10 -15 23 -20 -2 24 -14 25 -5 26 27 28 29 -1
right_child=1 11 6 5 -6 10 -8 -9 9 -11 -12 -13 14 17 -16 -17 -18 -19 19 -21 -22 -23 -24 -25 -26 -27 -28 -29 -30 -31
leaf_value=-0.10039810586829051 -0.1004779679911581 -0.26702961636837896 0.20748322124035284 -0.10047622546259966 0.15105198448614646 -0.20280387214043066 0.016086548850312753 0.16836789643623801 -0.1049378578226017 0.18445539363606378 0.01015294595655555 -0.11865150765342024 -0.10659974848239684 -0.17121779067381163 -0.040202535094404759 -0.14726968813674401 -0.058858497822478262 -0.19362372900114722 -0.10043608513538593 -0.011565672500342534 -0.12230049950243978 -0.1205320330279311 -0.11365630904539446 -0.10460725872414876 -0.10972905896585067 -0.10259524053817325 -0.10084169118900335 -0.10094340526246411 -0.10064855141988778 -0.10048382882378376
leaf_weight=37.316085243783164 0.25384499183565123 1.2642105721752153 1.923359191277995 0.24211117066442944 2.4808244115265552 1.8463274610694496 1.726419086626265 0.96907219247805187 0.45056915306486078 0.56402479094685987 0.95299103204160918 1.4673083212692288 0.45450489246286474 0.78550246034865157 0.69154956872807805 0.71437148749828339 0.14639736863318831 0.84525209083221853 0.21345817192923178 0.084285002114484087 0.44185978174209595 0.28265523910522461 0.43573354196269065 0.62484077106637315 0.16850487733972841 0.07734790921676804 0.19310242688516055 0.080421556962391061 0.095916178543119623 0.65859454404562612
leaf_count=9511 61 22 33 55 38 37 15 11 33 6 13 33 33 27 21 4 26 13 52 17 3 2 8 33 4 4 39 14 16 157
internal_value=0 -0.0183338 0.0156471 -0.0215701 0.0929278 -0.0753901 0.116949 0.0518998 -0.0995736 0.0414636 -0.116917 -0.187324 -0.14615 -0.10357 -0.100595 -0.126622 -0.0936376 -0.182831 -0.100285 -0.0752787 -0.114338 -0.110902 -0.110054 -0.100475 -0.104273 -0.100408 -0.100404 -0.100401 -0.1004 -0.1004
internal_weight=0 16.3156 13.5841 9.93435 3.17653 6.75782 3.64978 1.66234 42.1358 1.16099 5.09548 2.73152 4.14249 40.9748 2.29616 1.60461 0.596967 1.63075 39.3441 0.297743 0.695705 0.693271 0.890238 39.0463 0.410616 38.4215 38.3441 38.151 38.0706 37.9747
internal_count=10341 393 338 290 102 188 48 72 9948 65 116 55 103 9883 66 45 59 40 9843 69 64 61 41 9774 59 9741 9737 9698 9684 9668
is_linear=0
shrinkage=0.1


Tree=8
num_leaves=31
num_cat=0
split_feature=30 32 59 8 46 28 4 57 26 38 40 71 4 44 77 50 50 48 43 33 30 30 39 47 57 39 13 55 30 83
split_gain=7.59755 7.82885 4.04141 5.30162 3.8263 3.24665 3.02606 2.75024 2.2742 2.16942 1.89123 1.79427 0.902633 1.39545 0.736915 0.613713 0.0495005 0.0261021 0.0213752 0.0129518 0.00514289 0.00302323 0.000487683 0.000262163 2.5313e-06 2.84935e-06 1.73624e-06 3.66094e-07 3.53906e-07 1.57224e-06
threshold=89.90000000000002 108.50000000000001 125.50000000000001 3.2500000000000004 2.2118750000000005 2010.5000000000002 98.65000000000002 1.1929000000000001 105.70150000000001 26.500000000000004 0.97530000000000017 0.074014071584621269 108.85000000000001 170.94050000000001 422.66181350000005 3.9320400000000006 2.6692000000000005 3.7896150000000008 3.5768700000000004 77.500000000000014 98.500000000000014 97.90000000000002 24.500000000000004 -0.43869099999999994 1.7071500000000002 16.500000000000004 187.50000000000003 5.0143000000000013 85.100000000000009 181.0716562145038
decision_type=10 8 10 2 10 2 2 10 2 10 10 10 2 10 10 8 8 8 10 10 10 10 10 8 10 10 2 10 10 2
left_child=9 2 3 4 20 -5 8 -4 21 14 17 -3 15 -14 18 16 -8 -11 22 -16 -2 23 24 -7 26 -26 27 28 -1 -30
right_child=1 11 7 5 -6 6 12 -9 -10 10 -12 -13 13 -15 19 -17 -18 -19 -20 -21 -22 -23 -24 -25 25 -27 -28 -29 29 -31
leaf_value=-0.10036029244516871 -0.1004399972393608 -0.2918224392173856 0.0036444801964569391 0.13234449513552096 0.17306934305157423 -0.1070383703179791 -0.11412891706948003 0.17662186034210434 0.162393674067911 -0.10445258219332776 0.17035656972637525 -0.11655350004690451 -0.13492905302490155 0.02904352635897613 -0.16052658356769706 -0.22606790039386582 -0.14763216337879242 -0.054474465055653558 -0.06890737641922666 -0.1786462185652323 -0.11974655081997967 -0.11820059000424328 -0.10356976432958341 -0.10043868272315362 -0.10039524118747567 -0.10117172207945375 -0.10084994874996925 -0.10057007581529927 -0.10037638528054765 -0.10085687361371364
leaf_weight=33.949955423744541 0.20850096766661819 0.86907883168896782 1.6136390684987429 0.7466337028890847 1.9242948569590224 0.09627317450940609 1.1327972153667356 2.1356955096125603 0.74374868991435505 0.41078401636332162 0.5503157862694934 1.7811714414856394 1.4333390640676955 0.81361128424759943 0.75555928744142764 0.94827726986841332 0.72211567737394955 0.14015378279145807 0.21672034554649044 0.82547359098680317 0.4078974574804306 0.26054114103317261 0.48144581817905319 0.16059270705591167 0.11090346361743186 0.082350847544148564 0.073128064839692253 0.0844906410202374 0.54624200682519486 0.077800626400858164
leaf_count=9560 55 18 30 24 33 7 39 18 9 34 6 37 37 25 27 6 9 25 13 13 3 2 31 41 30 14 15 16 151 13
internal_value=0 -0.0170363 0.0141346 -0.0202554 0.103614 -0.0648454 -0.0881732 0.102176 0.0503898 -0.0990877 0.039235 -0.174028 -0.122776 -0.0755553 -0.103182 -0.160627 -0.127172 -0.0917386 -0.100217 -0.169987 -0.113216 -0.110611 -0.100409 -0.102912 -0.100365 -0.100726 -0.100363 -0.100362 -0.100362 -0.100436
internal_weight=0 15.9982 13.348 9.59862 2.54069 7.05793 6.3113 3.74933 1.26116 38.3053 1.10125 2.65025 5.05014 2.24695 37.2041 2.80319 1.85491 0.550938 35.623 1.58103 0.616398 0.517407 35.4063 0.256866 34.9249 0.193254 34.7316 34.6585 34.574 0.624043
internal_count=10341 393 338 290 91 199 175 48 59 9948 65 55 116 62 9883 54 48 59 9843 40 58 50 9830 48 9799 44 9755 9740 9724 164
is_linear=0
shrinkage=0.1


Tree=9
num_leaves=31
num_cat=0
split_feature=30 32 59 8 46 28 4 30 38 26 40 71 4 44 77 50 48 43 72 7 30 23 51 39 47 57 39 13 55 30
split_gain=7.32814 6.55174 3.31511 4.47187 3.16072 2.75179 2.58271 2.34471 1.98267 1.92207 1.60842 1.47027 0.762166 1.2536 0.514275 0.374877 0.0285108 0.0262832 0.0224151 0.00882477 0.00216513 0.00173828 0.00155852 0.000360359 0.000193457 1.88119e-06 2.11692e-06 1.28638e-06 2.70989e-07 2.62331e-07
threshold=89.90000000000002 108.50000000000001 125.50000000000001 3.2500000000000004 2.2118750000000005 2010.5000000000002 98.65000000000002 97.90000000000002 26.500000000000004 105.70150000000001 0.97530000000000017 0.074014071584621269 108.85000000000001 170.94050000000001 422.66181350000005 3.7559550000000006 3.7896150000000008 3.5768700000000004 2.8258000000000005 55.435000000000009 97.90000000000002 61.150000000000013 -1.2409899999999998 24.500000000000004 -0.43869099999999994 1.7071500000000002 16.500000000000004 187.50000000000003 5.0143000000000013 85.100000000000009
decision_type=10 8 10 2 10 2 2 10 10 2 10 10 2 10 10 10 8 10 10 2 10 2 8 10 8 10 10 2 10 10
left_child=8 2 3 4 21 -5 9 -4 14 20 16 -3 15 -14 17 19 -10 23 -16 -8 24 22 -2 25 -7 27 -27 28 29 -1
right_child=1 11 7 5 -6 6 12 -9 10 -11 -12 -13 13 -15 18 -17 -18 -19 -20 -21 -22 -23 -24 -25 -26 26 -28 -29 -30 -31
leaf_value=-0.10032589428495503 -0.11521874069789528 -0.26963861649213366 0.1646625302730915 0.12191662024731134 0.15767354737049297 -0.10634485445012738 -0.10947427126816121 0.0052358653217726469 -0.10403090386050953 0.14947046443072251 0.15890135262342753 -0.10873885381344983 -0.13166520122721512 0.026348264370640691 -0.1480118463852366 -0.19391038248386674 -0.050563842193154684 -0.06471879575708965 -0.17233524843375472 -0.12509884487759171 -0.11617156052417146 -0.11757253995260662 -0.10039473720514161 -0.10322166639657376 -0.10039679230782415 -0.10035749632722293 -0.10106083060987137 -0.1007688088647595 -0.10051558951186519 -0.10039466484533793
leaf_weight=30.729187455908701 0.12010045698843896 0.84751644218340638 2.0416535297408713 0.73031147965230037 1.9021150982589459 0.087650656932964921 0.62494341150159038 1.6829116199514826 0.37312264507636317 0.72804259299300611 0.53192784346174449 1.721459838299779 1.3274411309394056 0.80749557260423888 0.78822192116058321 1.1877937772660514 0.13611496379598975 0.20813567680306633 0.72953583591151983 0.85745534999296069 0.2396526038646698 0.27111968211829662 0.17320050722627867 0.43702439699700235 0.14536783480070858 0.10038542601978306 0.07459173328243196 0.066219579752213487 0.076489628525449826 0.56487933272728597
leaf_count=9560 2 18 33 24 33 7 33 15 34 9 6 37 37 25 33 7 25 13 7 14 2 5 51 31 41 30 14 15 16 164
internal_value=0 -0.0159596 0.0130266 -0.0191897 0.0960095 -0.0613715 -0.0836593 0.092627 -0.0986265 0.0475254 0.0372902 -0.16182 -0.11644 -0.0718999 -0.102816 -0.152052 -0.0897396 -0.10014 -0.159703 -0.118512 -0.109498 -0.1118 -0.106465 -0.10037 -0.102634 -0.10033 -0.100657 -0.100329 -0.100328 -0.100327
internal_weight=0 15.4962 12.9273 9.20269 2.46654 6.73615 6.00584 3.72457 34.8158 1.20071 1.04117 2.56898 4.80513 2.13494 33.7747 2.67019 0.509238 32.2569 1.51776 1.4824 0.472671 0.564421 0.293301 32.0488 0.233018 31.6118 0.174977 31.4368 31.3706 31.2941
internal_count=10341 393 338 290 91 199 175 48 9948 59 65 55 116 62 9883 54 59 9843 40 47 50 58 53 9830 48 9799 44 9755 9740 9724
is_linear=0
shrinkage=0.1


Tree=10
num_leaves=31
num_cat=0
split_feature=30 32 59 55 16 82 15 82 41 33 43 11 13 65 77 23 30 76 38 77 84 76 50 12 30 30 32 39 42 15
split_gain=7.09936 4.99207 4.31497 3.95654 3.64698 3.99728 3.62749 2.33603 2.18226 0.854034 0.760023 0.652846 0.630941 0.490497 0.423642 0.365395 0.886621 0.249144 0.188395 0.249844 0.135888 0.116972 0.039087 0.0220497 0.0108645 0.00218846 0.00143168 0.000429124 7.64253e-05 6.79137e-05
threshold=79.500000000000014 108.50000000000001 125.50000000000001 1.6348500000000004 254.50000000000003 10.745000000000003 47.500000000000007 19.205000000000002 89.913250000000019 89.500000000000014 3.5768700000000004 11.950000000000001 70.500000000000014 5.2065775000000007 374.69881350000009 49.250000000000007 97.500000000000014 865.06500000000017 37.500000000000007 422.66181350000005 0.10107333039253295 1384.6860000000004 3.9320400000000006 126.50000000000001 97.90000000000002 94.90000000000002 53.500000000000007 24.500000000000004 91.359800000000021 93.500000000000014
decision_type=10 8 10 8 2 2 2 2 10 10 10 2 2 10 8 2 10 2 10 10 10 2 8 2 10 10 10 10 10 2
left_child=18 2 3 7 5 9 17 11 -3 10 -5 13 -8 29 21 16 -10 -4 19 27 22 23 25 24 26 -7 -13 -1 -29 -2
right_child=1 8 6 4 -6 20 12 -9 15 -11 -12 14 -14 -15 -16 -17 -18 -19 -20 -21 -22 -23 -24 -25 -26 -27 -28 28 -30 -31
leaf_value=-0.10030037595184012 -0.10036675526496673 -0.36488112319987542 -0.018347288495028483 -0.106031775497374 0.14078881191281292 -0.10078583323610635 0.17928286861693046 0.11037888308998092 -0.14214361424693511 0.17378075841327723 0.12611047917929563 -0.1006775415970521 0.092725228219879052 0.10737047997453364 -0.17188443149288488 -0.13505489385654609 0.10565212962537077 -0.12145691860535873 0.027885224935552923 -0.15261579287014437 -0.15361021214277878 -0.033761728696858465 -0.059074382799603968 -0.14220210107295547 -0.11614671016207345 -0.1111232215498639 -0.10721724563795212 -0.10530548640859397 -0.10245134077805509 -0.1038936144742245
leaf_weight=27.527065574271557 0.14324106927961189 0.3965265915030608 0.37579006073065002 0.28140400600386895 1.8637916168154331 0.28065933682955801 1.6222020911518487 0.50730638438835729 0.36348800861742381 0.73730353266000748 0.2827281653881073 0.98548397759441442 1.7512458736891856 0.21776168927317485 1.4187080803094425 1.5989727964042684 0.2395581399614457 0.62259112985339016 0.112003747606649 0.94564491932396677 0.80155666481005017 0.2113582536112516 0.19071021967101853 0.20869979262351979 1.0578337982296941 0.7576220293994993 0.50696535874158144 0.1164826366584738 0.48216254267572367 0.088227996835485101
leaf_count=9428 45 9 20 37 31 72 15 12 44 11 3 275 28 5 18 31 11 24 14 32 19 10 11 1 9 25 35 5 57 4
internal_value=0 -0.0210189 0.00126831 -0.0333724 0.0287692 -0.0338906 0.084794 -0.0937724 -0.148926 0.102922 0.0103118 -0.115178 0.134349 -0.000360148 -0.12693 -0.110038 -0.0437076 -0.0826465 -0.101559 -0.102058 -0.121578 -0.105459 -0.100686 -0.110951 -0.108394 -0.108329 -0.102899 -0.100358 -0.103007 -0.101711
internal_weight=0 17.5117 14.9132 10.5414 5.19578 3.33198 4.37183 5.34559 2.59855 1.30144 0.564132 4.83828 3.37345 0.449231 4.38905 2.20202 0.603046 0.998381 29.1834 29.0714 2.03055 2.97034 1.22899 2.75898 2.55028 1.03828 1.49245 28.1257 0.598645 0.231469
internal_count=10341 805 710 623 209 178 87 414 95 51 40 402 43 54 348 86 55 44 9536 9522 127 330 108 320 319 97 310 9490 62 49
is_linear=0
shrinkage=0.1


Tree=11
num_leaves=31
num_cat=0
split_feature=30 32 59 55 16 82 15 9 51 13 8 34 23 30 76 38 77 51 77 5 84 48 56 34 43 30 30 13 32 39
split_gain=6.74732 4.32304 3.62339 3.44525 3.14873 4.02127 2.98823 2.04416 1.98656 0.570555 0.551857 0.373466 0.356486 0.802918 0.238485 0.179127 0.176947 0.153968 0.215138 0.178621 0.0936491 0.0446134 0.0311977 0.0164235 0.0160343 0.00629442 0.00163254 0.0015162 0.0010622 0.000317856
threshold=79.500000000000014 108.50000000000001 125.50000000000001 1.6348500000000004 260.50000000000006 10.745000000000003 47.500000000000007 22.950000000000003 4.4650800000000013 70.500000000000014 2.3500000000000001 82.500000000000014 48.150000000000013 97.500000000000014 865.06500000000017 37.500000000000007 422.66181350000005 2.6477300000000006 493.52167600000001 25.650000000000002 0.10107333039253295 6.1960300000000013 1.1342000000000001 72.500000000000014 4.087225000000001 97.90000000000002 94.90000000000002 78.500000000000014 53.500000000000007 24.500000000000004
decision_type=10 8 10 8 2 2 2 2 8 2 2 8 2 10 2 10 10 10 8 2 10 8 10 8 8 8 10 2 10 10
left_child=15 2 3 7 5 10 14 11 12 -8 -5 17 13 -3 -4 16 29 18 19 23 21 26 24 25 27 28 -7 -19 -2 -1
right_child=1 8 6 4 -6 20 9 -9 -10 -11 -12 -13 -14 -15 -16 -17 -18 22 -20 -21 -22 -23 -24 -25 -26 -27 -28 -29 -30 -31
leaf_value=-0.10027173010624418 -0.10062285999806948 -0.13765285521159037 -0.016556301578088708 0.033745744767639287 0.14755005859859802 -0.10070279212886275 0.16622619783666404 0.055725538301176672 -0.37405096897224488 0.08333113057644069 0.15882289410301167 -0.23861034782520393 -0.1326535018231578 0.10428680556019657 -0.11911342113432118 0.0252605251599681 -0.14556501274377964 -0.10002518409782622 0.046772843696907485 0.0048159697856879364 -0.14262417690829496 -0.053242753098038359 -0.14850344048034 -0.13660803846227701 -0.14136801057636428 -0.11525348606346962 -0.11000266695828176 -0.11255566367447079 -0.10612694478255456 -0.10271711978143989
leaf_weight=24.914273774014884 0.87358957901597267 0.34042311896337141 0.37484989780932565 0.6428961402270954 1.5093907730988574 0.25953937100712221 1.5769619394559415 0.80197200179100026 0.32285150862298939 1.7536493236548265 0.78162734105717391 0.24387527926592145 1.5488983149407429 0.22974051185883582 0.57385719625744969 0.11131603113608335 0.89491538339643639 0.17227149510290451 0.10148109565489027 0.14706644194666285 0.85793210551491927 0.18051675171591308 0.88400223455391824 0.19616608321666706 0.20857207430526614 0.56624557077884663 0.6921505494392477 0.21973630296997726 0.58569079474546015 0.54312556471631879
leaf_count=9428 267 45 20 36 29 74 15 20 4 28 16 2 33 13 24 14 32 47 5 14 20 9 6 1 2 5 25 6 39 62
internal_value=0 -0.0200662 0.00106384 -0.0321011 0.0272739 -0.025892 0.0779811 -0.0905665 -0.142974 0.12258 0.102375 -0.118509 -0.107768 -0.0401662 -0.0785914 -0.101326 -0.10186 -0.111103 -0.0958067 -0.101915 -0.117704 -0.0988211 -0.136555 -0.10898 -0.118967 -0.106304 -0.107466 -0.107049 -0.102832 -0.100324
internal_weight=0 16.646 14.204 9.92472 4.92405 3.41466 4.27932 5.00067 2.44191 3.33061 1.42452 4.1987 2.11906 0.570164 0.948707 26.4636 26.3523 3.95482 2.47024 2.36876 1.99014 1.13221 1.48458 2.22169 0.60058 2.02553 0.95169 0.392008 1.45928 25.4574
internal_count=10341 805 710 623 209 180 87 414 95 43 52 394 91 58 44 9536 9522 392 331 326 128 108 61 312 55 311 99 53 306 9490
is_linear=0
shrinkage=0.1


Tree=12
num_leaves=31
num_cat=0
split_feature=30 32 59 8 28 33 32 57 38 40 37 71 53 12 65 77 77 42 43 72 30 30 32 10 39 4 26 57 42 32
split_gain=6.42373 4.16403 1.87615 3.01647 1.8645 2.05352 1.85398 1.6622 1.4494 1.05 0.838033 0.827069 0.721692 0.242808 0.187562 0.17816 0.0443193 0.0349242 0.0265761 0.00594376 0.00295608 0.00193703 0.000836487 0.000157563 0.000145694 9.77438e-06 4.0907e-06 8.53898e-07 8.15087e-07 7.74351e-07
threshold=89.90000000000002 108.50000000000001 125.50000000000001 3.2500000000000004 2010.5000000000002 154.50000000000003 50.500000000000007 1.1929000000000001 26.500000000000004 0.97530000000000017 0.43090000000000006 0.074014071584621269 2.8419000000000003 113.50000000000001 6.266280000000001 422.66181350000005 374.69881350000009 90.22450000000002 3.5768700000000004 2.8258000000000005 97.90000000000002 98.500000000000014 64.500000000000014 2.4500000000000006 24.500000000000004 102.95000000000002 114.0365 1.7071500000000002 94.667650000000023 77.500000000000014
decision_type=10 8 10 2 2 10 10 10 10 10 10 10 10 2 10 10 8 10 10 10 10 10 10 2 10 2 2 10 8 10
left_child=8 2 3 6 -5 10 12 -4 15 17 13 -3 21 14 16 18 20 -10 24 -17 22 26 -6 -19 27 -25 -2 29 -29 -1
right_child=1 11 7 4 5 -7 -8 -9 9 -11 -12 -13 -14 -15 -16 19 -18 23 -20 -21 -22 -23 -24 25 -26 -27 -28 28 -30 -31
leaf_value=-0.10024287738967137 -0.10037015142067288 -0.22126561939698394 -0.0053073336283323792 0.10676630068860554 -0.1003851453976074 0.098865351899820916 0.15217299274071716 0.13088096128096721 -0.035216788908205753 0.13445548312364969 0.0064426967458844717 -0.093355789731372332 0.090152140646432288 -0.063661791161977663 -0.18559422217648991 -0.13150258699602055 -0.13758742490970455 -0.10585124497720988 -0.060103964931127365 -0.14512507707487174 -0.11328113401214067 -0.1130676218379493 -0.10713340212098665 -0.10179349398947091 -0.10237347923322433 -0.10042193344056274 -0.10125532774870037 -0.10077817484413401 -0.10027889639225929 -0.10041230801930723
leaf_weight=23.079620483038546 0.13217169046401656 0.78875438688555854 1.611237839155365 0.63404918718151737 0.25616253117914445 0.59803161903982971 1.4037986714247379 2.0194597970985342 0.10232753190211852 0.45426096837036312 0.65040974831208576 1.4077401141694279 0.2841216415836243 0.71089327160734672 0.48473347066465056 0.64464196559856535 0.79395985638257083 0.099860403686761856 0.16583261324558307 0.63658221202786081 0.91616404056549072 0.30359012633562088 0.6492223956156522 0.093163219979032874 0.32645684793351293 0.11747895443113521 0.08629485173150897 0.05854760971851547 0.074057642486877739 0.27293523417028964
leaf_count=9656 44 18 30 24 87 6 27 18 8 6 23 37 9 19 4 33 12 2 13 7 9 3 15 13 31 36 8 15 29 99
internal_value=0 -0.0130935 0.0109378 -0.0163973 -0.0548862 -0.075144 0.082763 0.0704431 -0.097575 0.0295505 -0.0984684 -0.139288 -0.0381007 -0.116373 -0.128459 -0.101939 -0.11787 -0.0858825 -0.0999976 -0.138271 -0.109276 -0.1079 -0.105224 -0.10258 -0.100275 -0.101029 -0.10072 -0.100246 -0.100499 -0.100245
internal_weight=0 13.7308 11.5343 7.9036 5.69363 5.05958 2.20998 3.6307 26.1258 0.867091 4.46155 2.19649 0.806178 3.81114 3.10024 25.2587 2.61551 0.41283 23.9775 1.28122 1.82155 0.522057 0.905385 0.310503 23.8116 0.210642 0.218467 23.4852 0.132605 23.3526
internal_count=10341 393 338 290 199 175 91 48 9948 65 169 55 64 146 127 9883 123 59 9843 40 111 55 102 51 9830 49 52 9799 44 9755
is_linear=0
shrinkage=0.1


Tree=13
num_leaves=31
num_cat=1
split_feature=30 72 0 82 5 19 20 59 53 51 11 57 38 31 34 36 77 34 43 48 30 36 42 72 36 20 15 39 30 30
split_gain=6.14131 3.20585 2.63426 2.37005 1.42685 1.23765 1.10026 1.70459 1.36973 0.730589 0.587133 0.813875 0.16537 0.155947 0.132722 0.091557 0.0905856 0.0786299 0.20507 0.0573619 0.00590633 0.0053201 0.00236001 0.00136517 0.000582706 0.000594389 0.000474063 0.000182994 0.000161617 0.000110864
threshold=79.500000000000014 2.8258000000000005 0 18.420000000000005 25.650000000000002 1.5000000000000002 0.13950000000000004 66.500000000000014 4.7538000000000009 1.3705850000000002 12.850000000000003 0.97015000000000018 37.500000000000007 1.5568996850000003 89.500000000000014 0.63840000000000008 422.66181350000005 26.500000000000004 3.5768700000000004 5.5673450000000004 97.90000000000002 0.75625000000000009 79.587750000000014 1.9062500000000002 0.73630000000000007 0.21150000000000002 93.500000000000014 24.500000000000004 95.500000000000014 95.700000000000003
decision_type=10 10 9 2 2 2 2 8 10 10 2 10 10 10 10 8 10 8 8 10 10 10 10 10 8 2 2 10 10 10
left_child=12 2 5 4 10 -2 -7 13 15 -6 11 22 16 -8 17 -9 27 18 20 21 26 23 -4 24 29 -26 -12 -1 -24 -19
right_child=1 -3 3 -5 9 6 7 8 -10 -11 14 -13 -14 -15 -16 -17 -18 19 -20 -21 -22 -23 28 -25 25 -27 -28 -29 -30 -31
leaf_value=-0.10022255922094754 -0.037149224321996022 -0.16414057815150901 -0.11846785018135103 0.041345139244625663 -0.075389585675524298 0.17755445701875272 0.099612767197480079 -0.052620272612096897 0.10057379453945539 0.12101304210793451 -0.10056545899130312 0.10658251696234677 0.024776120903617638 0.15460069805622673 -0.19087860287157307 -0.11809970264743626 -0.13470742415801834 -0.10051401065609263 0.10024594491043935 -0.13869789445116187 -0.11361561188834596 -0.11939721142260269 -0.10029254410811178 -0.10882128546019641 -0.08181746778208937 -0.10019224799484948 -0.10560158217643244 -0.1022627164858399 -0.10471641155228434 -0.10430344774571665
leaf_weight=20.4092235544049 0.78729130898136634 1.3668189270247229 0.13158772885799219 1.7674792964826336 0.32908355635299802 1.2809814645443109 0.97394974755297958 0.36111193493707083 0.64214549912139773 0.44620763539569452 0.96798112292890592 0.28959940595086664 0.10416226653614913 1.0962942112237213 0.24942912161350239 0.52254478249233216 0.79269939448567939 0.17164254692761483 0.049718619033226719 1.6298882879782466 0.61119479686021794 0.35350405587814748 0.15563935728278011 0.37743389466777444 0.031098098028451204 0.040572903759311885 0.23164451221236959 0.4493326191441146 0.17592723574489355 0.14032054971903563
leaf_count=9428 23 20 1 39 36 12 29 24 13 12 332 7 14 17 1 16 32 54 5 14 6 5 63 8 18 23 14 62 7 6
internal_value=0 -0.0180478 -0.00359301 -0.0274494 -0.089508 0.0286365 0.0979733 0.0696249 -0.0105723 0.0376471 -0.107089 -0.0249147 -0.100923 0.128732 -0.119832 -0.0913411 -0.101527 -0.115984 -0.100113 -0.126743 -0.105614 -0.10926 -0.107137 -0.104551 -0.10035 -0.0922194 -0.101538 -0.100267 -0.10264 -0.102218
internal_weight=0 15.1811 13.8143 8.14995 6.38247 5.66432 4.87703 3.59605 1.5258 0.775291 5.60718 0.752754 21.7554 2.07024 4.85443 0.883657 21.6513 4.605 1.86054 2.74446 1.81082 1.11457 0.463154 0.761068 0.383634 0.071671 1.19963 20.8586 0.331567 0.311963
internal_count=10341 805 785 651 612 134 111 99 53 48 564 78 9536 46 486 40 9522 485 357 128 352 114 71 109 101 41 346 9490 70 60
cat_boundaries=0 12
cat_threshold=0 1 1073741824 0 1073741824 2048 0 0 8388608 96 0 1
is_linear=0
shrinkage=0.1


Tree=14
num_leaves=31
num_cat=0
split_feature=30 32 59 8 28 33 50 32 38 70 53 37 71 12 77 65 43 48 77 72 30 30 32 39 46 46 32 30 57 34
split_gain=5.81506 3.2938 1.45776 2.21005 1.41646 1.58797 1.41593 1.37971 1.1551 0.826543 0.703707 0.69748 0.686922 0.249317 0.0895766 0.081188 0.0287119 0.0251298 0.0211215 0.00258104 0.00173324 0.00109851 0.000494883 7.96389e-05 2.61259e-05 1.22519e-06 6.34294e-07 1.61794e-06 5.13247e-07 4.07889e-07
threshold=89.90000000000002 108.50000000000001 125.50000000000001 3.2500000000000004 2010.5000000000002 152.50000000000003 2.4484700000000004 50.500000000000007 26.500000000000004 0.19443602792050815 2.8983000000000003 0.43090000000000006 0.074014071584621269 113.50000000000001 422.66181350000005 6.266280000000001 3.5768700000000004 3.7896150000000008 374.69881350000009 2.8258000000000005 97.90000000000002 98.500000000000014 64.500000000000014 24.500000000000004 3.9631600000000007 2.4099750000000006 77.500000000000014 79.100000000000009 1.7071500000000002 31.500000000000004
decision_type=10 8 10 2 2 8 8 10 10 10 10 10 10 2 10 10 10 8 10 10 10 10 10 10 8 10 10 10 10 10
left_child=8 2 3 7 -5 11 -4 10 14 -10 21 13 -3 15 16 18 23 -11 20 -16 22 24 29 26 25 -2 28 -28 -1 -6
right_child=1 12 6 4 5 -7 -8 -9 9 17 -12 -13 -14 -15 19 -17 -18 -19 -20 -21 -22 -23 -24 -25 -26 -27 27 -29 -30 -31
leaf_value=-0.10019907338961216 -0.1002881135641997 -0.2050155627591943 0.0096754321127155637 0.097035841381123034 -0.10025077396419349 0.089987560351140625 0.13952423389560553 0.13501907059822191 0.12409398228096452 -0.10275985585133973 0.10605309520589766 0.0072036524467296928 -0.083992347634577538 -0.053141145293285411 -0.12421383922792691 -0.16048700307787572 -0.055754492954566873 -0.044660163145270874 -0.12861452944017157 -0.1338291677622446 -0.11104309435323752 -0.11072789114547653 -0.10596635388179397 -0.10193689205567308 -0.10291166504719351 -0.10084465502827798 -0.10023807176134868 -0.10090322959381258 -0.1004286565711225 -0.10056523872752827
leaf_weight=18.918423755163552 0.095764731522646196 0.7446751384122775 2.0002287486568093 0.58107862132601429 0.16255557141266919 0.55300677701598022 1.4474958692444491 1.3006436406139981 0.39598302997182955 0.25215920736081898 0.23022140249668155 0.61355458403704677 1.266876432840945 0.65097141475416709 0.55956299813988042 0.45697112851121335 0.14626396761741389 0.10563220240874216 0.70579430344514538 0.55711440899176523 0.78834497928619385 0.25836622714996338 0.5472480496391654 0.26836949748212546 0.063283516094088665 0.067391672637313604 0.19185983787974592 0.045180642322520725 0.097878486965781941 0.055272661673370749
leaf_count=9656 41 18 33 24 71 6 15 27 6 32 8 23 37 19 33 4 13 27 12 7 9 3 15 31 3 9 94 11 38 16
internal_value=0 -0.0114999 0.010805 -0.0150083 -0.0499575 -0.0687974 0.0641913 0.0736758 -0.0970495 0.024556 -0.0379082 -0.0908561 -0.128795 -0.108724 -0.10146 -0.122045 -0.0998954 -0.0856068 -0.11427 -0.129011 -0.107752 -0.106272 -0.104362 -0.100226 -0.101187 -0.100518 -0.100202 -0.100365 -0.1002 -0.100331
internal_weight=0 12.5897 10.5782 7.13047 5.1148 4.53372 3.44772 2.01567 21.5384 0.753774 0.715028 3.98071 2.01155 3.36716 20.7847 2.71619 19.668 0.357791 2.25922 1.11668 1.55342 0.484806 0.765076 19.5217 0.22644 0.163156 19.2533 0.23704 19.0163 0.217828
internal_count=10341 393 338 290 199 175 48 91 9948 65 64 169 55 146 9883 127 9843 59 123 40 111 56 102 9830 53 50 9799 105 9694 87
is_linear=0
shrinkage=0.1


Tree=15
num_leaves=31
num_cat=1
split_feature=30 72 0 70 21 19 19 64 74 34 28 54 38 35 77 45 45 7 59 34 30 32 53 39 78 42 39 44 57 43
split_gain=5.51232 2.54523 2.0123 1.94843 1.42295 2.26043 1.49654 0.882134 0.454007 0.417619 0.308414 0.450785 0.153328 0.0655776 0.0471991 0.0265424 0.0429748 0.0157565 0.00723494 0.00609493 0.00174016 0.00050082 0.000121911 0.000105654 3.77311e-05 2.42641e-05 1.48292e-05 1.48058e-05 3.54346e-06 3.06015e-06
threshold=79.500000000000014 2.8258000000000005 0 0.33333323333336379 8.2500000000000018 6.5000000000000009 130.50000000000003 34.087208524500006 0.89096968522017905 27.500000000000004 2016.5000000000002 7.1759500000000012 37.500000000000007 184.00000000000003 422.66181350000005 5.232965000000001 4.2247250000000012 55.565000000000005 125.50000000000001 63.500000000000007 97.90000000000002 69.500000000000014 4.3550000000000013 24.500000000000004 42.350000000000009 91.359800000000021 28.500000000000004 120.89600000000002 1.5076000000000003 3.5768700000000004
decision_type=10 10 9 10 2 2 2 10 10 8 2 10 10 10 10 10 8 2 10 10 10 10 10 10 2 10 10 10 10 10
left_child=12 2 4 8 5 -2 7 -7 10 -9 13 22 14 15 23 16 19 -17 -19 20 21 26 24 29 -12 -25 28 -27 -4 -1
right_child=1 -3 3 -5 -6 6 -8 9 -10 -11 11 -13 -14 -15 -16 17 -18 18 -20 -21 -22 -23 -24 25 -26 27 -28 -29 -30 -31
leaf_value=-0.10018035040708342 -0.11385972184365858 -0.15215654933977985 -0.10025931923459508 0.076023300785334036 0.14844407809174023 -0.016975199401116019 -0.03730373350076898 0.045718788160044772 0.053526484664123186 0.13496679408899548 -0.1003560453245934 0.10538833097030578 0.023917145882915151 -0.15155431733573946 -0.12690722263961138 -0.13030456611401087 -0.034610595450636765 -0.10158334257566828 -0.11970282567264667 -0.1242898020546845 -0.10890858304187512 -0.10459153252377429 -0.1041913060560364 -0.1034596818310366 -0.096924338796339757 -0.1019894806390259 -0.10197068134957032 -0.10050977510350959 -0.10108584115266139 -0.10110377914533329
leaf_weight=16.681632908346746 0.87991533044259984 1.253710865828906 0.61986968177370705 0.72574902529595409 1.3283177050761876 0.61162676825188134 1.1787693771038901 0.67734280880540643 0.1854260234395041 2.3205475267022848 0.17838296847185109 0.16256445180624723 0.098402643867301687 0.43473263377745741 0.6894234972569383 0.77244031094596699 0.088391131605020656 0.43599868981982581 0.44556619663489982 0.16508744400925923 0.54333937156479795 0.48852315254043788 0.085791296558454633 0.077281423611565425 0.039053295871781302 0.19280075188726187 0.059852951904758811 0.10414874122216133 0.05660713673569262 0.03596428647870098
leaf_count=9422 38 20 300 19 12 37 24 39 19 37 79 4 14 7 32 25 28 37 9 3 8 24 4 5 19 11 4 46 9 6
internal_value=0 -0.0163301 -0.00268953 -0.0271433 0.0227578 0.0334537 0.0605246 0.0924727 -0.0998719 0.114802 -0.106088 -0.0289686 -0.100565 -0.114827 -0.101254 -0.110483 -0.102797 -0.119878 -0.110741 -0.105914 -0.104198 -0.102109 -0.100999 -0.10022 -0.0997397 -0.101881 -0.100462 -0.101471 -0.100328 -0.100182
internal_weight=0 13.7376 12.4839 5.48738 6.99652 5.6682 4.78829 3.60952 4.76163 2.99789 4.5762 0.465792 17.8797 4.11041 17.7813 3.67568 2.02167 1.65401 0.881565 1.93328 1.76819 1.22485 0.303228 17.0918 0.217436 0.374231 0.73633 0.296949 0.676477 16.7176
internal_count=10341 805 785 598 187 175 137 113 579 76 560 106 9536 454 9522 447 376 71 46 348 345 337 102 9490 98 62 313 57 309 9428
cat_boundaries=0 12
cat_threshold=0 8388609 1073741824 128 1073741824 2065 0 0 8388608 96 0 1
is_linear=0
shrinkage=0.1


Tree=16
num_leaves=31
num_cat=0
split_feature=30 32 34 59 8 14 22 40 32 38 40 71 27 53 33 77 43 42 45 72 55 39 47 55 4 30 83 59 57 39
split_gain=5.20163 2.54101 1.24353 2.10911 1.80075 1.10583 1.43837 1.15188 0.953509 0.937298 0.652598 0.612763 0.429878 0.182478 0.163398 0.0463226 0.0334228 0.0329599 0.00428315 0.00114941 7.22082e-05 4.35124e-05 4.10632e-05 7.93799e-06 2.69729e-06 6.12983e-07 1.7954e-06 2.8636e-07 2.48611e-07 2.52242e-07
threshold=89.90000000000002 106.50000000000001 12.500000000000002 125.50000000000001 3.1500000000000008 0.70650000000000002 1.2500000000000002 0.87990000000000013 50.500000000000007 26.500000000000004 0.97530000000000017 0.068490440532200422 2.9500000000000006 4.6268000000000002 108.50000000000001 422.66181350000005 3.5768700000000004 90.22450000000002 4.958165000000001 2.8258000000000005 0.28060000000000007 24.500000000000004 -0.032600899999999995 0.15500000000000003 102.75000000000001 85.100000000000009 183.58421316151819 107.50000000000001 1.7071500000000002 15.500000000000002
decision_type=10 8 8 10 2 2 2 8 10 10 10 8 2 8 8 10 10 10 10 10 10 10 10 10 2 10 2 8 10 10
left_child=9 2 18 4 8 6 -6 -8 -4 15 17 -3 -9 -13 -7 16 21 -11 22 -17 -19 25 -2 -24 -22 28 -27 -25 -1 -30
right_child=1 11 3 -5 5 14 7 12 -10 10 -12 13 -14 -15 -16 19 -18 20 -20 -21 24 -23 23 27 -26 26 -28 -29 29 -31
leaf_value=-0.10016266101769578 -0.097595111638568766 -0.20384312454473755 -0.032951007505535555 0.096653101471782632 -0.11483193539361446 -0.12751886994939313 0.11910617633000478 0.047534997047043191 0.12404159747887458 -0.028113238676099567 0.11714060381317935 -0.11494700734528747 -0.096817631053697631 -0.039795229339212139 -0.064195382068250262 -0.11896789464262002 -0.049467615456016148 -0.10440681539404072 -0.11588631327510504 -0.12590916716685605 -0.10120914880136572 -0.10158113483832967 -0.1015242923103795 -0.10019993696113312 -0.10035344672652323 -0.10020302486866267 -0.10085003727914449 -0.10050918742243253 -0.10017486715715247 -0.10053233457649476
leaf_weight=15.373285525061885 0.045053942361846566 0.56658138456987273 0.56615776327089395 2.6110172685002908 0.80774852342437986 1.1609295351372562 0.98371514398604598 0.34294474183116119 1.2216754769033285 0.08156952215358515 0.33932909672148526 0.67850983885000449 0.51775270475081925 0.61681343510281306 0.62787707149982463 0.47570450438070011 0.13099406496621568 0.080186787992715836 0.50769059639424086 0.47854558267863467 0.062033258029259741 0.22046247297839805 0.10738180391490004 0.065151648363098502 0.090692163386847824 0.28625999719406614 0.050446024863049388 0.055407128529623151 0.042718550204882244 0.036697355099022388
leaf_count=9589 18 16 36 32 25 36 21 14 23 8 6 27 31 15 24 33 13 2 14 7 12 31 12 35 37 158 12 14 26 14
internal_value=0 -0.0101702 0.0105248 0.0212091 -0.0104159 -0.0445312 -0.00354974 0.0451856 0.0743263 -0.0965459 0.0209608 -0.117102 -0.0393004 -0.0791609 -0.105292 -0.10104 -0.0997743 -0.0828183 -0.110455 -0.122449 -0.101977 -0.100186 -0.100354 -0.100899 -0.100701 -0.100166 -0.1003 -0.100342 -0.100164 -0.10034
internal_weight=0 11.4824 9.6205 8.83982 6.2288 4.44097 2.65216 1.84441 1.78783 17.7489 0.653811 1.8619 0.860697 1.29532 1.78881 17.0951 16.1409 0.314482 0.780685 0.95425 0.232912 16.0099 0.272995 0.227941 0.152725 15.7894 0.336706 0.120559 15.4527 0.0794159
internal_count=10341 393 335 242 210 151 91 66 59 9948 65 58 45 42 60 9883 9843 59 93 40 51 9830 79 61 49 9799 170 49 9629 40
is_linear=0
shrinkage=0.1


Tree=17
num_leaves=31
num_cat=0
split_feature=30 72 34 41 3 39 30 59 2 5 5 51 38 21 48 30 77 34 50 43 11 46 30 40 40 45 42 65 41 39
split_gain=4.88994 1.9836 1.54332 1.69014 1.32474 1.4175 2.05744 0.855991 0.925366 0.479863 0.436223 0.377748 0.142761 0.109217 0.153644 0.0622343 0.0248505 0.0242185 0.0102154 0.00771758 0.00617764 0.00867867 0.00267367 0.00211327 0.00237202 0.00193107 0.000188997 9.57263e-05 8.10585e-05 6.18799e-05
threshold=79.500000000000014 2.8258000000000005 9.5000000000000018 86.744150000000019 82.350000000000009 22.500000000000004 97.700000000000003 42.500000000000007 33.500000000000007 25.950000000000003 14.950000000000001 2.0702650000000005 37.500000000000007 0.65000000000000002 4.9129750000000012 97.90000000000002 422.66181350000005 65.500000000000014 3.2454300000000003 4.087225000000001 15.450000000000001 3.1137600000000005 97.90000000000002 0.77600000000000013 0.86035000000000006 5.232965000000001 101.74900000000001 5.2065775000000007 96.746900000000011 24.500000000000004
decision_type=10 10 10 10 2 8 10 8 2 2 2 8 10 2 8 10 10 8 8 8 2 8 10 8 8 10 8 10 10 10
left_child=12 2 18 -4 5 7 11 8 26 10 -9 -7 16 14 -12 -10 29 20 19 25 23 22 27 -15 -25 -2 28 -22 -5 -1
right_child=1 -3 3 4 -6 6 -8 9 15 -11 13 -13 -14 17 -16 -17 -18 -19 -20 -21 21 -23 -24 24 -26 -27 -28 -29 -30 -31
leaf_value=-0.10014943785469606 -0.10071100777025269 -0.14062831673042583 0.16874291595610413 -0.10549648681673947 0.11414939203987025 0.12479996914620868 -0.041711906486794049 0.077424870470405305 0.056793377083516387 0.03721401280584849 -0.10197656887379636 0.038692502606327936 0.02363463705652866 -0.12369417447000382 0.039251577599371278 0.11761805594154114 -0.12108523720945304 -0.13836064283084595 -0.054668153438127004 -0.12766207021338602 -0.10038354991886043 -0.070188099758898684 -0.11209558523159363 -0.12129114290033532 -0.10460228531231026 -0.10928785670661972 -0.1074255347002223 -0.10361555889256202 -0.10149598181701852 -0.10157865791504642
leaf_weight=13.693028589594174 0.56612448667874449 1.1392509061843146 0.63631018507294257 0.076243957446418209 0.92108848252064568 1.4426270434923942 2.2125977433752269 0.13540091237519014 0.30114014592254534 0.29494636187337153 0.23078471212647889 0.78762746242864556 0.092440947715659472 0.32887526578269932 0.11562652420252562 0.38110007549403235 0.59275362638436568 0.3773939013481139 0.037185913999564835 0.16973091661930073 0.24954669829458265 0.064513782417631504 0.62203190475702286 0.1610426475526765 0.18075787025736645 0.48947474404121749 0.14863952493760735 0.14482311267056502 0.15087439055787399 0.30978993591998083
leaf_count=9428 252 20 5 11 29 24 34 9 41 19 44 29 14 6 8 4 32 2 23 1 112 12 7 6 34 26 7 8 32 62
internal_value=0 -0.0149012 -0.00214263 0.0110554 0.000298323 -0.012176 0.0266098 -0.0556501 0.0213637 -0.0836912 -0.0973501 0.0943906 -0.100245 -0.10691 -0.0548369 0.0907701 -0.10103 -0.115383 -0.106303 -0.10787 -0.110432 -0.105754 -0.108012 -0.117972 -0.112465 -0.104688 -0.104653 -0.10157 -0.102839 -0.100181
internal_weight=0 12.3658 11.2265 9.96399 9.32768 8.40659 4.44285 3.96374 1.058 2.90574 2.6108 2.23025 14.688 2.4754 0.346411 0.68224 14.5956 2.12899 1.26252 1.22533 1.75159 1.08092 1.0164 0.670676 0.341801 1.0556 0.375758 0.39437 0.227118 14.0028
internal_count=10341 805 785 483 478 449 87 362 95 267 248 53 9536 239 52 45 9522 187 302 279 185 139 127 46 40 278 50 120 43 9490
is_linear=0
shrinkage=0.1


Tree=18
num_leaves=31
num_cat=0
split_feature=30 32 53 21 70 40 59 33 38 70 78 11 56 50 77 43 19 43 30 72 39 77 22 25 30 83 59 57 39 58
split_gain=4.61287 1.99337 1.01149 1.25817 1.60843 1.27993 1.21852 0.948333 0.768992 0.541718 0.434338 0.321545 0.160608 0.0252179 0.0245097 0.0365727 0.00798571 0.00430445 0.000822246 0.000541042 2.48281e-05 2.22543e-05 2.24951e-06 1.22958e-06 3.73176e-07 1.05136e-06 2.14652e-07 1.36802e-07 1.38927e-07 1.19891e-07
threshold=89.90000000000002 108.50000000000001 1.8591000000000002 10.15 0.113207199235187 0.94805000000000017 125.50000000000001 130.50000000000003 26.500000000000004 0.19443602792050815 28.350000000000005 15.950000000000001 0.85960000000000003 1.6604100000000004 422.66181350000005 3.5768700000000004 118.50000000000001 3.5768700000000004 98.500000000000014 2.8258000000000005 24.500000000000004 -50.695709999999991 0.75000000000000011 1.6663200000000002 85.100000000000009 183.58421316151819 113.50000000000001 1.7071500000000002 15.500000000000002 6.8909000000000011
decision_type=10 8 8 2 10 8 10 10 10 10 2 2 8 8 10 10 2 10 10 10 10 10 2 2 10 2 8 10 10 10
left_child=8 2 17 4 -4 6 7 11 14 -10 -3 -6 -7 -11 15 20 -13 18 21 -16 24 -2 -23 26 27 -26 29 -1 -29 -24
right_child=1 10 3 -5 5 12 -8 -9 9 13 -12 16 -14 -15 19 -17 -18 -19 -20 -21 -22 22 23 -25 25 -27 -28 28 -30 -31
leaf_value=-0.1001332480857111 -0.1029852075634117 -0.18007106411053317 0.10120505054406713 0.13342675398646109 -0.022097685374781365 -0.12117700629408215 0.077778354638042058 0.044669742165720581 0.11236858180399732 -0.10203788315188203 -0.072506364649145463 -0.10393046548384964 -0.05022494105998792 -0.035659881080048438 -0.11499168028913186 -0.044613063714103091 -0.12154051385879996 -0.12260443236754509 -0.10969186529057347 -0.12016851682438826 -0.10130702621190202 -0.10107245739291632 -0.10018819023398121 -0.10085687275672127 -0.1001691175086348 -0.10071022623238257 -0.10047884220419433 -0.10014312587025334 -0.10043619843209153 -0.10041030515645069
leaf_weight=12.595866309453404 0.045367573969997466 0.56904969579773101 1.4282085303493657 0.87009574403055001 0.64211385187809389 0.98841753555461731 1.6456364444456992 1.018538908623668 0.29365208011586297 0.19580863695591688 1.1030898865137713 0.54869842070183927 0.47108744316938111 0.080874252656940371 0.40134046517778266 0.1196432549622849 0.48523282678797841 0.15037696063518524 0.14900195971131325 0.40622506799991243 0.18379110816567923 0.083116623456585326 0.078919023275375366 0.061757594929076731 0.23871011547089516 0.042264872114174068 0.070206693140789866 0.034985819591384693 0.030082499841228127 0.035114028840325773
leaf_count=9589 7 16 24 14 23 34 22 24 6 34 39 37 38 25 33 13 8 1 2 7 31 15 47 11 158 12 19 26 14 12
internal_value=0 -0.0090498 0.0100245 0.0198201 0.00614418 -0.017265 0.00997682 -0.0314309 -0.0960627 0.0177675 -0.109112 -0.0776776 -0.0982757 -0.0826356 -0.100682 -0.0996512 -0.112195 -0.107692 -0.103409 -0.117596 -0.100153 -0.100909 -0.100623 -0.100471 -0.100137 -0.100251 -0.100341 -0.100134 -0.100279 -0.100257
internal_weight=0 10.444 8.77189 8.09803 7.22793 5.79973 4.34022 2.69458 14.6232 0.570335 1.67214 1.67605 1.4595 0.276683 14.0529 13.2453 1.03393 0.67386 0.523483 0.807566 13.1257 0.374482 0.329114 0.245997 12.9419 0.280975 0.18424 12.6609 0.0650683 0.114033
internal_count=10341 393 338 224 210 186 114 92 9948 65 55 68 72 59 9883 9843 45 114 113 40 9830 111 104 89 9799 170 78 9629 40 59
is_linear=0
shrinkage=0.1


Tree=19
num_leaves=31
num_cat=0
split_feature=30 72 34 21 3 39 38 59 2 10 5 5 13 38 30 30 77 50 30 3 45 38 42 25 47 51 51 33 39 8
split_gain=4.34471 1.5604 1.28377 1.28244 1.08592 1.08529 2.28046 0.64934 0.771765 0.583661 0.458957 0.36022 0.1396 0.133403 0.0607481 0.0138238 0.0132112 0.0130014 0.00541259 0.00442539 0.00121875 0.000316336 0.000176891 5.00627e-05 4.3972e-05 0.000168771 4.23613e-05 3.96816e-05 1.61199e-05 1.57374e-05
threshold=79.500000000000014 2.8258000000000005 9.5000000000000018 10.15 82.350000000000009 22.500000000000004 28.500000000000004 42.500000000000007 33.500000000000007 7.3500000000000005 25.350000000000005 14.950000000000001 176.50000000000003 37.500000000000007 97.90000000000002 99.90000000000002 422.66181350000005 3.2454300000000003 96.300000000000026 81.350000000000009 5.232965000000001 19.500000000000004 101.74900000000001 2.5805750000000001 -0.91492699999999993 4.1845250000000007 1.0353750000000002 212.50000000000003 24.500000000000004 17.050000000000004
decision_type=10 10 10 2 2 10 10 8 2 2 2 2 2 10 10 10 10 8 10 2 8 10 8 2 10 8 8 10 10 2
left_child=13 2 17 4 5 7 9 8 22 -7 11 -9 15 16 -10 18 27 19 21 20 29 23 24 -13 -4 26 -26 28 -1 -2
right_child=1 -3 3 -5 -6 6 -8 10 14 -11 -12 12 -14 -15 -16 -17 -18 -19 -20 -21 -22 -23 -24 -25 25 -27 -28 -29 -30 -31
leaf_value=-0.10012252029297659 -0.10039423196994526 -0.13002333613728256 -0.10415992555401998 0.13426947511825768 0.10683508674933498 0.030059707696854787 -0.071967876483332971 0.073892313992889022 0.050898102888550269 0.12868365037493487 0.03573915178298722 -0.10036788409261839 -0.023342561387897458 0.023302417798406555 0.11415815478501755 -0.1373207079570854 -0.11668851398978841 -0.04414510083074235 -0.11357390129027789 -0.12264398587237746 -0.10801478860154623 -0.10817015475304528 -0.10695363884883008 -0.10230175197037231 -0.095365055264575394 -0.10556168632672286 -0.10024949127694867 -0.10351228049273752 -0.10097743988482016 -0.10215988276507496
leaf_weight=11.214060538583903 0.41302334814099495 1.0420732810161997 0.076685577630996704 0.76873561640968624 0.84350715929394926 1.10441559489118 1.5423386885668149 0.11987139796838242 0.28477365357684903 1.3139915062929501 0.30556017917297129 0.32526784110814366 0.19408090598881234 0.087183676369023355 0.32509522096370347 0.19791457056999195 0.50420352222136067 0.034223023569211253 1.1299782436399253 0.15054288506507874 0.42128918823436823 0.072944652754813433 0.13759571954142302 0.22748295972996857 0.033144426299255847 0.049910720437765121 0.038243000395596027 0.034986168844626131 0.22497750843376785 0.057509196689352393
leaf_count=9426 247 20 2 13 29 22 38 9 41 23 24 168 4 14 4 1 32 23 24 1 26 2 7 31 18 1 22 3 61 5
internal_value=0 -0.0134811 -0.0015374 0.0106899 -0.000724574 -0.012855 0.0230484 -0.0532707 0.0175995 0.083645 -0.0793109 -0.0948143 -0.104231 -0.0999487 0.0846194 -0.112267 -0.100846 -0.104794 -0.109442 -0.106785 -0.104108 -0.101981 -0.1042 -0.101164 -0.102286 -0.101101 -0.0979817 -0.10015 -0.100139 -0.10061
internal_weight=0 11.2102 10.1681 9.09154 8.3228 7.47929 3.96075 3.51855 0.945448 2.41841 2.5731 2.26754 2.14767 12.0654 0.609869 1.95359 11.9782 1.07659 1.75567 1.04236 0.891822 0.625695 0.335579 0.552751 0.197984 0.121298 0.0713874 11.474 11.439 0.470533
internal_count=10341 805 785 483 470 441 83 358 95 45 263 239 230 9536 45 226 9522 302 225 279 278 201 50 199 43 41 40 9490 9487 252
is_linear=0
shrinkage=0.1


Tree=20
num_leaves=31
num_cat=0
split_feature=30 32 53 21 33 81 8 5 23 47 23 30 4 16 38 77 18 36 43 45 14 30 23 36 46 76 33 39 46 32
split_gain=4.06037 1.4222 1.1139 1.00959 1.51907 0.838587 1.25047 1.02024 0.572842 0.493531 0.381615 0.481134 0.219287 0.180223 0.12782 0.00964846 0.00819983 0.00560255 0.00282803 0.0025029 0.000948234 0.000537062 0.000184011 0.000116918 7.34712e-05 3.81892e-05 2.92885e-05 1.19421e-05 7.45159e-06 3.53865e-06
threshold=79.500000000000014 108.50000000000001 1.8591000000000002 8.2500000000000018 86.500000000000014 11.950000000000001 9.8500000000000032 25.750000000000004 22.750000000000004 7.3478200000000014 48.150000000000013 97.500000000000014 111.65000000000002 205.50000000000003 37.500000000000007 422.66181350000005 66.500000000000014 0.65640000000000009 3.5768700000000004 4.958165000000001 0.6885 98.500000000000014 23.850000000000005 0.72960000000000014 -1.2821899999999997 1540.1120000000003 212.50000000000003 24.500000000000004 3.9631600000000007 54.500000000000007
decision_type=10 8 8 2 10 2 2 2 2 8 2 10 2 2 10 10 2 10 10 8 2 10 2 10 10 2 10 10 8 10
left_child=14 2 18 4 8 -6 7 12 -4 10 11 -3 17 -8 15 26 19 20 21 22 -7 25 -10 24 -24 -2 27 -1 -26 -29
right_child=1 9 3 -5 5 6 13 -9 16 -11 -12 -13 -14 -15 -16 -17 -18 -19 -20 -21 -22 -23 23 -25 28 -27 -28 29 -30 -31
leaf_value=-0.10011084516099925 -0.10036993918783627 -0.11522277189956343 0.034874089616389055 0.090900890169346354 0.099861491334153119 -0.10572116566588136 0.043570568782028675 0.042717553750120076 -0.10712703983889396 -0.23083869211320587 -0.11192791702521659 0.10393090939052008 -0.023684234853417419 0.11817586233618248 0.02107054709784744 -0.11488943770441871 -0.13121210505784686 -0.11590164235387918 -0.11784935549675252 -0.1121054608091433 -0.09745911680946627 -0.10781708172629337 -0.095803971629164542 -0.10436293250391063 -0.10049695712740842 -0.10300054426079724 -0.10316759990274212 -0.10120386276401834 -0.1021958163981479 -0.10034096543293468
leaf_weight=10.148024020925726 0.57127385493367455 0.18332007920253157 0.32851672696415324 1.4108926296466959 1.1658149043796582 0.31404249917250193 0.61396125296596415 0.97601361928354879 0.062710910271564724 0.24553816020488728 0.9256789985956857 0.22087793194805272 0.40215761522995297 0.68511675467016175 0.086798355274368855 0.46299876840930743 0.19319896353408683 0.60949377587530762 0.12851926684379578 0.80999799804703521 0.24909585656132549 0.12418587878346443 0.03529406950110292 0.084171910537406802 0.15811119461432654 0.061087260139174759 0.031757168006152692 0.12823978997767049 0.030857559759167041 0.075507083593947755
leaf_count=9426 328 45 37 28 24 20 23 22 4 1 36 13 21 17 14 32 3 13 1 33 28 2 21 5 74 4 3 11 2 50
internal_value=0 -0.012919 0.00240102 0.0139997 -0.00214948 0.0255566 0.0030557 -0.0376159 -0.0837565 -0.10058 -0.0765303 0.00453589 -0.0874045 0.0829164 -0.0997979 -0.100765 -0.112113 -0.109258 -0.104135 -0.108989 -0.102067 -0.101805 -0.102189 -0.101185 -0.0999921 -0.100624 -0.100135 -0.100126 -0.100774 -0.100884
internal_weight=0 10.5899 9.01451 8.12945 6.71856 5.0157 3.84988 2.5508 1.70286 1.57542 1.32988 0.404198 1.57479 1.29908 10.9333 10.8465 1.37434 1.17263 0.885066 1.18114 0.563138 0.756547 0.371146 0.308435 0.224263 0.632361 10.3835 10.3518 0.188969 0.203747
internal_count=10341 805 710 375 347 168 144 104 179 95 94 58 82 40 9536 9522 142 61 335 139 48 334 106 102 97 332 9490 9487 76 61
is_linear=0
shrinkage=0.1


Tree=21
num_leaves=31
num_cat=0
split_feature=30 32 59 55 16 82 77 57 9 23 30 32 38 84 74 46 14 43 30 4 19 77 30 46 39 12 41 32 40 14
split_gain=3.79584 1.24301 1.00604 1.15044 1.20418 1.62437 0.918702 1.29821 0.859129 0.391014 0.39911 0.203632 0.122895 0.106473 0.0778741 0.0426384 0.0137228 0.0278514 0.0116139 0.00884013 0.00742565 0.00705739 0.00539289 0.00205421 0.00105781 0.000501158 0.000146715 0.000138618 8.15835e-05 5.56691e-05
threshold=79.500000000000014 108.50000000000001 125.50000000000001 1.6545000000000003 260.50000000000006 10.745000000000003 234.25533600000003 1.0635000000000001 22.950000000000003 43.850000000000001 97.500000000000014 50.500000000000007 37.500000000000007 0.14782888675018144 0.66666650000004635 3.2568850000000005 0.78150000000000019 2.9046600000000002 98.500000000000014 118.35000000000001 94.500000000000014 422.66181350000005 97.700000000000003 4.2351300000000007 16.500000000000004 52.500000000000007 93.390550000000005 79.500000000000014 0.83555000000000013 0.49250000000000005
decision_type=10 8 10 10 2 2 10 10 2 2 10 10 10 8 10 8 2 8 10 2 2 10 10 8 10 2 8 10 8 2
left_child=12 2 3 8 5 11 7 24 14 10 -3 15 21 19 16 -5 20 -18 22 -11 25 -1 27 -22 29 26 -2 -7 -27 -4
right_child=1 9 6 4 -6 18 -8 -9 -10 13 -12 -13 -14 -15 -16 -17 17 -19 -20 -21 23 -23 -24 -25 -26 28 -28 -29 -30 -31
leaf_value=-0.10012247379153461 -0.094224535081589969 -0.11386184623054026 -0.10624676635093788 -0.013215603508709093 0.11122464162887741 -0.101222251578282 0.098694967569756681 0.095419878189708318 0.048548039516547258 -0.089167397633540743 0.10346454626999564 0.11330276430085676 0.019035563317378101 -0.16286179180366406 -0.059406219340241401 0.058203314522674236 -0.10112020391471324 0.0094962738777064001 -0.082991271272929712 -0.11213588400742316 -0.11234493483839976 -0.1133044053300554 -0.11829374279041623 -0.12301414301049002 -0.11259270230423397 -0.10686610782124024 -0.10101761073152023 -0.1044589189709184 -0.10407850214465392 -0.10322091088273998
leaf_weight=9.3965533693235539 0.034611584967931486 0.16582803045457772 0.100139652611688 0.20648997323587615 0.97754763622469898 0.28793586922984082 1.6604776933672836 0.57403524778783321 0.49588848766870786 0.34499924184638053 0.17230481468141079 0.55674364781589247 0.086487268446945431 0.45817596357665025 0.43285931801074173 0.14045453059952706 0.096813244512304553 0.029758396820398048 0.20738102192990482 0.32582549192011356 0.46327466203365475 0.42449807409138962 0.38074692338705063 0.2956080534204375 0.41534861829131842 0.18935850932030007 0.39051521435612735 0.24482906906632707 0.23563197162002325 0.15478025085758418
leaf_count=9490 28 42 11 33 29 107 22 15 20 36 7 12 14 6 27 7 53 5 8 4 39 32 3 6 7 8 195 10 33 32
internal_value=0 -0.0123968 0.00216174 -0.0223676 0.0200801 -0.023928 0.050012 -0.0149537 -0.0701974 -0.0974504 -0.00311725 0.0758299 -0.0996471 -0.125703 -0.0973527 0.0156971 -0.106817 -0.075113 -0.104355 -0.100323 -0.109311 -0.100692 -0.109205 -0.116501 -0.10948 -0.102892 -0.100465 -0.10271 -0.105321 -0.10441
internal_weight=0 10.0384 8.57123 5.66645 3.00213 2.02458 2.90478 1.2443 2.66432 1.46713 0.338133 0.903688 9.90754 1.129 2.16843 0.346945 1.73557 0.126572 1.12089 0.670825 1.609 9.82105 0.913512 0.758883 0.670269 0.850117 0.425127 0.532765 0.42499 0.25492
internal_count=10341 805 710 623 209 180 87 65 414 95 49 52 9536 46 394 40 367 58 128 40 309 9522 120 45 50 264 223 117 41 43
is_linear=0
shrinkage=0.1


Tree=22
num_leaves=31
num_cat=0
split_feature=30 36 21 41 49 26 22 22 40 82 12 38 30 14 16 21 38 5 3 45 30 71 77 47 45 48 41 48 3 84
split_gain=3.52003 1.09687 1.2401 1.18463 1.11609 1.06641 0.680689 0.793751 0.772051 0.418325 0.389193 0.365609 0.428127 0.297982 0.446803 0.137668 0.118542 0.0306877 0.0635363 0.0190296 0.00893608 0.00653976 0.00516914 0.00380491 0.00342495 0.00291291 0.00195276 0.00170762 0.00148511 0.00136602
threshold=79.500000000000014 0.72270000000000001 8.2500000000000018 85.366400000000013 32.072950000000013 126.96600000000002 1.2500000000000002 2.1500000000000008 0.93845000000000012 8.7550000000000026 123.50000000000001 20.500000000000004 98.300000000000026 0.64350000000000007 245.00000000000003 12.850000000000003 37.500000000000007 20.350000000000005 73.750000000000014 7.7816050000000008 99.100000000000009 0.10909871077412799 422.66181350000005 2.6179950000000005 6.9216650000000008 7.7840850000000001 98.310000000000016 4.9129750000000012 81.350000000000009 0.046892227419727428
decision_type=10 8 2 10 10 2 2 2 8 2 2 10 10 2 2 2 10 2 2 8 10 10 10 8 10 8 10 8 2 8
left_child=16 2 4 -3 6 15 24 8 11 -10 -6 12 -8 14 -9 19 22 18 -15 20 26 -19 -1 -23 -2 27 28 -11 -5 -28
right_child=1 3 -4 5 10 -7 7 13 9 25 -12 -13 -14 17 -16 -17 -18 21 -20 -21 -22 23 -24 -25 -26 -27 29 -29 -30 -31
leaf_value=-0.10011086989537588 -0.10435175179764439 0.12381549095056653 0.10842859390757829 -0.10636730658603198 0.10925137124920162 0.096323835912055955 -0.1024266382243527 -0.10369901330422049 0.078920890370115848 -0.10173970275984433 0.0038706266176615788 0.1091339612547646 0.1081178452922535 -0.019191206833777168 0.10664201404110817 -0.18825803022735343 0.017184610642806377 -0.11403476937101781 -0.10972109191570766 -0.074454502638374498 -0.12331516720235976 -0.10196204767756414 -0.11190398244183848 -0.077208050291636993 -0.11784353437646054 -0.11404335345753872 -0.10190001507344415 -0.080888225051460039 -0.11562966354632971 -0.08058258230344173
leaf_weight=8.5032882816749389 0.72886302904225608 0.28308917320100713 1.0529001423856241 0.66740376333473228 0.8651699370202548 0.26123529100732401 0.21296251547755674 0.19558498391415913 0.16509501094697054 0.24966508119541819 0.58909363416023552 0.89348785718902946 0.17672499065520242 0.14012246375204973 0.20879677962511778 0.24902744591236103 0.086236666829791697 0.4559067387599498 0.17353404364257585 0.14848106246790882 0.47734543308615673 0.23147398242144857 0.38866187702660759 0.084858378555509151 0.25362920016050339 0.20153459161519938 0.13905651928507723 0.046606799471191396 0.23373198509216309 0.038349978451151401
leaf_count=9490 111 6 29 78 33 12 74 65 30 103 18 17 4 39 5 1 14 12 6 13 4 49 32 10 2 2 41 11 2 28
internal_value=0 -0.0119966 0.00849124 -0.0688079 -0.009425 -0.0934303 -0.0344332 -0.013447 0.0286109 -0.0590209 0.0665637 0.0738823 -0.00694379 -0.0683681 0.00490759 -0.118807 -0.0994948 -0.0956556 -0.0692779 -0.108659 -0.111924 -0.106369 -0.100626 -0.0953216 -0.107835 -0.104769 -0.106882 -0.0984595 -0.10877 -0.0972918
internal_weight=0 9.42373 6.92601 2.49772 5.87311 2.21463 4.41885 3.43635 1.94608 0.662901 1.45426 1.28318 0.389688 1.49028 0.404382 1.9534 8.97819 1.0859 0.313657 1.70437 1.55589 0.772239 8.89195 0.316332 0.982492 0.497806 1.07854 0.296272 0.901136 0.177406
internal_count=10341 805 620 185 591 179 540 427 241 146 51 95 78 186 70 167 9536 116 45 166 153 71 9522 59 113 116 149 114 80 69
is_linear=0
shrinkage=0.1


Tree=23
num_leaves=31
num_cat=0
split_feature=30 37 2 39 77 72 52 53 16 50 32 30 38 38 23 64 80 77 77 48 35 3 30 30 30 57 19 53 39 33
split_gain=3.25032 0.973892 1.63493 1.16254 0.950238 0.850583 0.780575 0.556 0.534555 0.384125 0.129413 0.193012 0.114685 0.106457 0.0955533 0.0297029 0.0174518 0.00379067 0.0031116 0.00415193 0.00291731 0.00155406 0.000744982 0.000341517 0.000318269 0.000284362 7.88293e-05 5.78321e-05 1.85308e-05 1.19879e-05
threshold=79.500000000000014 0.39300000000000007 33.500000000000007 30.500000000000004 174.74389350000001 1.3090000000000004 0.64405000000000012 3.5076000000000005 291.50000000000006 3.2454300000000003 47.500000000000007 99.100000000000009 37.500000000000007 61.500000000000007 39.250000000000007 36.102613861500011 11.950000000000001 422.66181350000005 493.52167600000001 6.627390000000001 135.50000000000003 81.350000000000009 99.500000000000014 98.500000000000014 97.90000000000002 0.88060000000000016 157.50000000000003 2.7534000000000005 11.500000000000002 212.50000000000003
decision_type=10 10 2 8 8 10 10 10 2 8 10 10 10 10 2 10 2 10 10 8 10 2 8 10 10 10 2 10 10 10
left_child=12 2 8 4 23 6 10 14 13 -7 11 -3 17 16 -6 -5 18 29 19 21 25 22 24 -4 26 27 28 -8 -2 -1
right_child=1 5 3 15 7 9 20 -9 -10 -11 -12 -13 -14 -15 -16 -17 -18 -19 -20 -21 -22 -23 -24 -25 -26 -27 -28 -29 -30 -31
leaf_value=-0.10009340523161613 -0.10025518835002907 -0.10039893393239033 -0.10065471162143656 -0.11910779218235322 0.068515076513943715 0.096392661725105022 -0.097988236017371999 -0.0067677623926547179 0.07097801373965848 0.0043773637121309493 0.1219732463007317 0.11064377114544806 0.015504413528506317 -0.17311303474251222 0.12352895862797078 -0.079210429568605842 -0.067534491633856497 -0.11066354442044407 -0.11337672951331823 -0.081822544457327534 -0.11710146698631281 -0.11142218250485905 -0.11168514255996112 -0.10692566854028798 -0.10485366750303629 -0.10695519945945893 -0.1037422033728205 -0.10201588853680615 -0.10138951249925741 -0.10233989666819775
leaf_weight=7.671032658477543 0.35708459951274385 0.08639965398469962 0.1424766721083871 0.3569934993283822 0.47175920524750947 1.4943295742123153 0.058390623307786882 0.64142417746188574 0.17434524599229906 0.65147255187912412 0.21176876942627132 0.086944349110126495 0.086035227112007173 0.2439693510532378 0.95452150691562565 0.39094572399335448 0.12842891525360745 0.35541568048938632 0.40666796854929987 0.083322693011724236 0.35865278456913074 0.28298153700598039 0.093679212033748738 0.22241596132516861 0.34666400402784348 0.12159325554966927 0.10028187121497467 0.091540705063380301 0.24136775202350691 0.023827547265682258
leaf_count=9487 294 53 83 14 30 34 38 19 7 28 3 1 14 1 28 28 20 32 7 15 6 10 1 4 8 2 10 10 51 3
internal_value=0 -0.011657 -0.0365633 0.0107787 0.0443023 0.0327753 -0.0426365 0.0705578 -0.0978019 0.0684565 0.0695265 0.005454 -0.0993394 -0.110683 0.105332 -0.0982536 -0.103218 -0.100567 -0.105615 -0.103519 -0.111181 -0.10479 -0.103142 -0.104477 -0.102376 -0.103362 -0.101147 -0.100447 -0.100713 -0.1001
internal_weight=0 8.80042 5.63933 3.18054 2.4326 3.16109 1.01529 2.0677 2.45879 2.1458 0.385113 0.173344 8.13631 2.28445 1.42628 0.747939 2.04048 8.05028 1.91205 1.50538 0.630177 1.42206 1.13908 0.364893 1.0454 0.271525 0.698734 0.149931 0.598452 7.69486
internal_count=10341 805 630 206 164 175 113 77 424 62 57 54 9536 417 58 42 416 9522 396 389 56 374 364 87 363 50 355 48 345 9490
is_linear=0
shrinkage=0.1


Tree=24
num_leaves=31
num_cat=0
split_feature=30 36 21 41 49 26 36 38 36 57 2 34 12 38 21 45 48 77 57 64 50 45 41 37 30 38 47 53 15 15
split_gain=3.02023 0.866982 0.954187 0.922341 0.887129 0.843543 0.567536 0.818849 0.465447 0.405524 0.374464 0.337537 0.31537 0.111261 0.064241 0.0250468 0.00503123 0.00278278 0.00160732 0.00299012 0.00123168 0.00115264 0.000543974 0.000470578 0.000302701 7.20226e-05 7.11907e-05 3.65425e-05 2.68052e-05 1.97882e-05
threshold=79.500000000000014 0.72270000000000001 8.2500000000000018 85.366400000000013 32.072950000000013 126.96600000000002 0.69585000000000008 20.500000000000004 0.64165000000000016 0.77950000000000019 33.500000000000007 66.500000000000014 123.50000000000001 37.500000000000007 12.850000000000003 7.7816050000000008 5.5673450000000004 422.66181350000005 0.38015000000000004 37.387390668000002 6.1724150000000009 6.9216650000000008 89.913250000000019 0.35465000000000008 97.90000000000002 19.500000000000004 4.3381200000000009 4.0953000000000008 80.500000000000014 126.50000000000001
decision_type=10 8 2 8 10 2 8 10 8 8 2 10 2 10 2 8 10 10 10 8 8 10 10 10 10 10 8 10 2 2
left_child=13 2 4 -3 6 14 7 8 11 -9 26 21 -6 17 15 16 18 -1 19 -5 -8 22 -2 27 25 28 29 -20 -24 -10
right_child=1 3 -4 5 12 -7 20 9 10 -11 -12 -13 -14 -15 -16 -17 -18 -19 23 -21 -22 -23 24 -25 -26 -27 -28 -29 -30 -31
leaf_value=-0.10009081458492766 -0.080603752395960668 0.11835293100603594 0.100556711635557 -0.10141121669684994 0.10361858602965174 0.088643809761838055 -0.10598621868929335 0.10921374293345865 -0.10016440479161626 -0.0033370392489158935 0.080274937917770517 0.10819190060779599 0.0044854252967928233 0.013981711972175818 -0.16149116981692929 -0.064144250985755866 -0.11661335721571996 -0.10956236052185193 -0.10160667460382684 -0.059677791193342135 -0.11405766679657336 -0.10927743633507928 -0.10024669131010136 -0.10819867530652925 -0.10521669928607343 -0.1049498289277743 -0.10600035860642117 -0.10389764412598926 -0.10159440354105116 -0.10293236629371234
leaf_weight=6.9632275040094109 0.011809522518885673 0.24272929679136812 0.94340217683929939 0.0799983198521661 0.76507088360085596 0.23617519796243858 0.45240592377376732 0.57692290766863119 0.048420670849736891 0.71919467611587617 0.35297420845017768 0.080296873580664507 0.55276861527090659 0.085873655683826544 0.23578447103500355 0.13462231424637128 0.56060938653536141 0.32466009256677342 0.1321455049328506 0.021859129701624624 0.32478072858066298 0.27861885070160497 0.35848893132060766 0.38732751359930262 0.2434746507788077 0.044939391314983368 0.058616304653696716 0.14715810120105743 0.25084445403626887 0.055353414267301559
leaf_count=9490 7 6 29 53 33 12 39 14 43 27 25 2 18 14 1 13 16 32 42 24 5 16 293 11 6 1 4 7 56 2
internal_value=0 -0.0112239 0.00806469 -0.0653989 -0.00879666 -0.0884409 -0.0329979 -0.0137291 -0.0576807 0.0467611 0.0224578 -0.0902399 0.0620371 -0.0991794 -0.11305 -0.105247 -0.10941 -0.100513 -0.104155 -0.092455 -0.109359 -0.10365 -0.101926 -0.105943 -0.102207 -0.101086 -0.103214 -0.102814 -0.100802 -0.101641
internal_weight=0 8.29679 6.11838 2.17841 5.17498 1.93568 3.85714 3.07995 1.78384 1.29612 0.515365 1.26847 1.31784 7.37376 1.6995 1.46372 1.3291 7.28789 0.768489 0.101857 0.777187 1.18818 0.909557 0.666631 0.897747 0.654273 0.16239 0.279304 0.609333 0.103774
internal_count=10341 805 620 185 591 179 540 496 455 41 74 381 51 9536 167 166 153 9522 137 77 44 379 363 60 356 350 49 49 349 45
is_linear=0
shrinkage=0.1


Tree=25
num_leaves=31
num_cat=0
split_feature=30 39 14 59 22 10 81 38 26 2 18 81 84 53 4 30 13 77 47 48 45 77 50 41 32 39 72 44 43 25
split_gain=2.80002 0.805752 0.576674 0.823689 0.765737 0.761138 0.635107 0.479979 0.413271 0.371087 0.294065 0.18861 0.0942978 0.0189188 0.0154961 0.0128707 0.0577779 0.00279066 0.00182903 0.00137797 0.00129009 0.000393652 0.000370615 4.37966e-05 8.04044e-06 6.59864e-06 4.73056e-06 1.20347e-06 2.23416e-07 1.66215e-07
threshold=89.90000000000002 57.000000000000007 0.52350000000000019 125.50000000000001 1.2500000000000002 10.750000000000002 32.850000000000016 26.500000000000004 108.72450000000002 33.500000000000007 1.5000000000000002 8.3500000000000032 0.12983574139366774 2.7760000000000002 108.55000000000001 86.500000000000014 122.50000000000001 422.66181350000005 5.6371300000000009 6.627390000000001 6.1627750000000008 281.69137000000006 1.0472150000000002 93.158650000000009 69.500000000000014 24.500000000000004 1.1690500000000001 173.76950000000002 3.8476650000000006 1.6663200000000002
decision_type=10 8 2 10 2 2 2 10 2 2 2 2 10 10 2 10 2 10 10 8 8 10 8 10 10 10 10 10 8 2
left_child=7 2 18 4 19 6 14 15 11 -10 26 -7 -3 -11 20 17 27 25 -2 22 21 -6 -4 -13 29 28 -9 -17 -1 -25
right_child=1 12 3 -5 5 8 -8 10 9 13 -12 23 -14 -15 -16 16 -18 -19 -20 -21 -22 -23 -24 24 -26 -27 -28 -29 -30 -31
leaf_value=-0.10006852087695127 -0.10272582389961118 -0.064449196765159159 -0.10469136250357139 0.070282393416576994 -0.10215393378853366 0.081501188291910304 0.051680155149198409 -0.10163335741440947 0.0030621006821753734 0.11427532390005818 0.085705087188681361 -0.10372934750403012 -0.13192635740986697 0.088018449178424926 -0.082805574115208835 -0.10013738073717776 0.052352189752910797 -0.10825158957486768 -0.11619787596941999 -0.11263005915062632 -0.11564993765575902 -0.10947848975787017 -0.098964274479291695 -0.10012416979213355 -0.10184281147522645 -0.10086432272760071 -0.10041640489235792 -0.10086836153816324 -0.10047500993794629 -0.10044376991788834
leaf_weight=6.3627108201421843 0.2016901064198463 0.40671721330727439 0.34034835547208819 1.8049635118368312 0.15347241103881992 0.073285085265524574 0.41038228420075029 0.05342489294707764 0.58551764761068614 0.56943475264415588 0.23172260716091841 0.10763577216130216 0.42197895352728665 0.52966144631500356 0.34705388924339786 0.1075214676093309 0.030326720972880139 0.44700103643845057 0.20140957250259817 0.19746929116081446 0.23032607138156891 0.14059298508800566 0.16915154195885407 0.04143654543440789 0.059135159288416617 0.10615950068859081 0.079436490166699514 0.028490962635260075 0.013550061703425764 0.026795544952619821
leaf_count=9677 35 35 33 38 37 4 10 4 34 13 22 6 7 27 24 116 8 36 5 3 2 3 22 39 6 31 39 9 6 10
internal_value=0 -0.00620737 0.00619032 0.0142463 -0.0111556 0.00922032 -0.0508932 -0.0942 0.0478851 0.0673657 0.0177005 -0.058565 -0.0988091 0.101622 -0.0991972 -0.0999495 -0.0724609 -0.100609 -0.109457 -0.105539 -0.110045 -0.105656 -0.10279 -0.102244 -0.100989 -0.100082 -0.100906 -0.100291 -0.100069 -0.10025
internal_weight=0 7.01846 6.18976 5.78666 3.9817 3.27473 1.28183 7.46034 1.9929 1.68461 0.364584 0.308288 0.828696 1.0991 0.871445 7.09576 0.166339 6.92942 0.4031 0.706969 0.524391 0.294065 0.5095 0.235003 0.127367 6.48242 0.132861 0.136012 6.37626 0.0682321
internal_count=10341 393 351 311 273 215 76 9948 139 74 65 65 42 40 66 9883 133 9750 40 58 42 40 55 61 55 9714 43 125 9683 49
is_linear=0
shrinkage=0.1


Tree=26
num_leaves=31
num_cat=0
split_feature=30 37 2 39 77 72 52 16 53 11 74 38 32 30 23 38 47 64 37 43 77 35 3 30 57 30 30 53 30 33
split_gain=2.60609 0.711461 1.23419 0.859463 0.684776 0.649118 0.585542 0.423001 0.370695 0.324374 0.373409 0.0996886 0.0897189 0.147433 0.0865084 0.0377289 0.0702084 0.0307638 0.0022205 0.00193448 0.001503 0.00122597 0.000455126 0.000283409 0.000227324 0.00013985 0.000135236 6.62606e-05 1.44155e-05 4.88634e-06
threshold=79.500000000000014 0.39300000000000007 33.500000000000007 30.500000000000004 174.74389350000001 1.3090000000000004 0.64405000000000012 291.50000000000006 3.5076000000000005 18.350000000000005 0.54486895502361998 37.500000000000007 47.500000000000007 99.100000000000009 39.250000000000007 61.500000000000007 7.3478200000000014 36.102613861500011 0.37220000000000003 3.5768700000000004 422.66181350000005 135.50000000000003 4.9500000000000011 99.700000000000003 0.88060000000000016 98.500000000000014 94.90000000000002 2.7534000000000005 97.500000000000014 212.50000000000003
decision_type=10 10 2 8 10 10 10 2 8 2 8 10 10 10 2 10 8 10 10 10 10 10 2 10 10 10 10 10 10 10
left_child=11 2 7 4 25 6 12 15 14 10 -7 20 13 -3 -6 16 18 -5 19 22 29 24 -2 26 27 -4 -24 -8 -28 -1
right_child=1 5 3 17 8 9 21 -9 -10 -11 -12 -13 -14 -15 -16 -17 -18 -19 -20 -21 -22 -23 23 -25 -26 -27 28 -29 -30 -31
leaf_value=-0.10006923721674715 -0.085493128463579246 -0.10032422461737643 -0.10049024086270714 -0.11395251414811658 0.058814950544710524 0.09199980377382605 -0.096848390745761528 0.064330165244859017 -0.0023482929636329634 0.10993064649031146 -0.028919024485033275 0.012852881097186514 0.11399267455940104 0.10803893615446739 0.11546187951978189 -0.1458546270551126 0.061272842797078113 -0.070025200764132975 -0.091910066547155875 -0.10953164272373864 -0.10770165835882872 -0.11242199963872901 -0.10037830914266986 -0.1084630389284551 -0.10602396550890979 -0.10505833857642373 -0.10253867432319252 -0.10157243412161923 -0.10367511143883526 -0.10172836925444861
leaf_weight=5.6858118474169714 0.016116566781420483 0.066990458697546607 0.11151779938154582 0.29988523296196934 0.40660469071008221 0.46731491468381103 0.048322189133614302 0.15719919902767276 0.55544123645813681 0.82954607385909174 0.56314090413798124 0.078718969132751115 0.17218883475288749 0.068871289491653442 0.80004346134955995 0.21554738283157338 0.026124668889678904 0.34039989393204451 0.13913566287374113 0.59435587996267714 0.27061758142372117 0.28571818040654762 0.33398792894149665 0.071938753128051758 0.10716918855905533 0.16795074008405209 0.2593901358632138 0.077008319203741848 0.19593071017879993 0.017806556832510867
leaf_count=9487 24 53 83 14 30 12 38 7 19 21 29 14 3 1 28 1 7 28 37 13 32 6 289 1 2 4 37 10 8 3
internal_value=0 -0.0104154 -0.0339132 0.0104869 0.0421901 0.0306234 -0.0431301 -0.0931621 0.0652547 0.063387 0.025918 -0.0989468 0.066055 0.00529962 0.0963735 -0.106526 -0.101348 -0.0905991 -0.103985 -0.105127 -0.10042 -0.108034 -0.102143 -0.102454 -0.102643 -0.103236 -0.101907 -0.099751 -0.103028 -0.100074
internal_weight=0 7.37784 4.69157 2.68184 2.04156 2.68627 0.826268 2.00973 1.76209 1.86 1.03046 6.05295 0.308051 0.135862 1.20665 1.85253 1.63698 0.640285 1.61086 1.47172 5.97424 0.518218 0.877364 0.861248 0.2325 0.279469 0.789309 0.125331 0.455321 5.70362
internal_count=10341 805 630 206 164 175 113 424 77 62 41 9536 57 54 58 417 416 42 409 372 9522 56 359 335 50 87 334 48 45 9490
is_linear=0
shrinkage=0.1


Tree=27
num_leaves=31
num_cat=0
split_feature=30 32 14 59 22 41 34 22 38 57 40 33 16 51 30 13 77 47 10 77 15 59 15 39 72 44 32 30 46 41
split_gain=2.42755 0.641952 0.495549 0.732739 0.66105 0.480647 0.537133 0.582544 0.404264 0.310733 0.246542 0.183538 0.0398534 0.0369445 0.0108845 0.0472108 0.00166105 0.000776411 0.000446003 0.000169386 2.23644e-05 1.93048e-05 4.49413e-06 3.62074e-06 2.59618e-06 8.51526e-07 1.32658e-07 1.40015e-07 1.09793e-07 9.34462e-08
threshold=89.90000000000002 106.50000000000001 0.52350000000000019 125.50000000000001 1.2500000000000002 93.625200000000021 27.500000000000004 1.6500000000000001 26.500000000000004 0.057950000000000008 0.97530000000000017 162.50000000000003 247.50000000000003 3.5198850000000004 86.500000000000014 122.50000000000001 422.66181350000005 1.8519700000000003 14.450000000000001 281.69137000000006 103.50000000000001 36.500000000000007 90.500000000000014 24.500000000000004 1.1071500000000003 173.76950000000002 73.500000000000014 81.100000000000009 -0.89454999999999985 93.390550000000005
decision_type=10 8 2 10 2 8 10 2 10 10 10 10 2 8 10 2 10 8 2 8 2 10 2 10 10 10 10 10 10 8
left_child=8 2 -2 4 18 -6 9 -8 14 -7 13 -3 -9 24 16 25 23 19 21 20 22 -4 -11 26 -10 -16 -1 29 -26 -28
right_child=1 11 3 -5 5 6 7 12 10 17 -12 -13 -14 -15 15 -17 -18 -19 -20 -21 -22 -23 -24 -25 28 -27 27 -29 -30 -31
leaf_value=-0.10005474666022557 -0.10801228916971693 -0.11452368587982849 -0.10374863205767737 0.074579557304437799 -0.076901637752557858 0.085200552501268623 -0.030072644639589988 0.073378648440242666 -0.10131738481342874 -0.10031451487494299 0.10382454622060722 -0.031364984941378633 0.11073815861485636 0.011235858403303243 -0.10011331311024629 0.047545250347730023 -0.10688414622916763 -0.092951317055155178 -0.1086524605274555 -0.10680636080314239 -0.10313177646448293 -0.10228095226203489 -0.10156937947068559 -0.10070716777352967 -0.10048939977484801 -0.10076642211143982 -0.10036514757988518 -0.10039080153838476 -0.10024209565220719 -0.10006269153811738
leaf_weight=5.1220117872958326 0.33783256041351695 0.57365686878620159 0.17855894326930899 1.5275680741469839 0.5014125611050988 0.11568832938792217 0.52323599130613718 0.46534994553076081 0.044906946015544125 0.054173584241652639 0.15938457383890636 0.49392361496575177 0.73896365169639466 0.039313708723057061 0.08910870034014795 0.026619943490004516 0.38328473548972386 0.087748011341318599 0.23021293104829965 0.10806124284863483 0.082964282482862473 0.17992531691561453 0.060315349139273167 0.08708223751227695 0.032022934406995773 0.025726546416990459 0.012010974984150269 0.022369348385836929 0.040855202649254352 0.068313899143049639
leaf_count=9543 39 33 8 33 39 14 25 32 5 39 6 25 19 8 116 8 36 30 10 2 3 38 4 31 13 9 7 10 33 123
internal_value=0 -0.00542682 0.00909465 0.0172449 -0.00908304 0.0115875 0.0314264 0.0580262 -0.093877 -0.0588624 0.0161984 -0.0760497 0.0963023 -0.0727027 -0.0998458 -0.0724448 -0.100526 -0.101242 -0.105218 -0.103623 -0.101882 -0.103012 -0.100976 -0.100068 -0.100719 -0.10026 -0.100057 -0.10017 -0.100351 -0.100108
internal_weight=0 6.25959 5.19201 4.85418 3.32661 2.73791 2.2365 1.72755 6.15301 0.508951 0.316483 1.06758 1.20431 0.157099 5.83653 0.141455 5.69507 0.393262 0.588697 0.305514 0.197453 0.358484 0.114489 5.31179 0.117785 0.114835 5.22471 0.102694 0.0728781 0.0803249
internal_count=10341 393 335 296 263 207 168 76 9948 92 65 58 51 59 9883 133 9750 78 56 48 46 46 43 9714 51 125 9683 140 46 130
is_linear=0
shrinkage=0.1


Tree=28
num_leaves=31
num_cat=0
split_feature=30 34 27 71 11 16 37 38 70 82 76 47 47 56 30 13 65 50 77 45 21 39 65 44 78 32 30 46 41 59
split_gain=2.25301 0.576894 0.701185 0.658848 0.57496 0.803152 0.51907 0.36974 0.224263 0.172314 0.150406 0.132156 0.0325651 0.0186737 0.0107621 0.0432132 0.00993794 0.00842976 0.0012228 0.000226693 5.64744e-06 2.68321e-06 1.99179e-06 6.30548e-07 4.40018e-07 9.82909e-08 1.03709e-07 8.23033e-08 6.92135e-08 4.85343e-08
