tree
version=v4
num_class=1
num_tree_per_iteration=1
label_index=0
max_feature_idx=88
objective=binary sigmoid:1
feature_names=team conf GP Min_per Ortg usg eFG TS_per ORB_per DRB_per AST_per TO_per FTM FTA FT_per twoPM twoPA twoP_per TPM TPA TP_per blk_per stl_per ftr yr porpag adjoe pfr year type Rec_Rank ast_tov rimmade rimmade_rimmiss midmade midmade_midmiss rim_ratio mid_ratio dunksmade dunksmiss_dunksmade dunks_ratio drtg adrtg dporpag stops bpm obpm dbpm gbpm mp ogbpm dgbpm oreb dreb treb ast stl blk pts height_inches height_numeric power_conf yr_numeric efficiency_score all_around_score versatile_guard stretch_big defensive_specialist power_conference pts_per_min reb_per_min ast_pts_ratio defensive_rating advanced_metric simple_efficiency true_shooting usage_efficiency minutes_impact offensive_load assist_turnover_ratio defensive_stats rebound_total all_around_score_v2 true_shooting_volume per_minute_impact year_numeric big_man_shooter playmaking_big has_recruit_rank
feature_infos=-1:39:156:54:16:0:11:308:77:173:55:64:70:145:211:21:51:169:263:295:338:2:176:273:300:116:118:127:146:161:170:195:253:267:67:139:191:203:218:234:238:266:299:26:121:318:33:72:129:132:141:149:165:184:188:196:199:243:277:302:313:24:46:47:115:178:180:186:209:242:249:310:19:43:60:71:102:105:119:130:152:240:250:258:276:291:330:345:349:350:32:38:74:114:120:164:167:171:198:201:224:254:271:288:314:342:4:8:41:52:62:124:128:134:160:183:189:190:200:206:223:230:237:245:268:274:280:305:321:10:13:17:36:42:87:88:89:96:98:117:138:150:172:175:194:212:215:220:225:232:239:246:247:270:275:281:283:319:354:30:44:81:91:92:147:148:154:192:193:202:214:216:257:272:297:326:335:336:6:14:23:37:45:80:84:94:97:99:126:143:153:166:182:244:262:264:282:290:304:320:334:348:3:28:85:86:100:135:259:289:292:325:339:344:15:18:48:63:75:90:93:101:104:113:122:136:137:142:185:213:269:278:284:343:49:123:155:168:177:179:187:219:221:222:233:235:241:260:261:298:324:332:346:347:353:1:5:22:35:56:76:95:108:112:131:163:174:228:255:287:301:303:306:323:328:329:331:351:12:29:59:65:83:107:133:159:236:252:285:286:294:25:66:73:158:181:204:279:309:322:337:79:82:208:317:341:53:157:162:205:265:293:327:333:31:34:40:58:68:103:125:140:197:210:311:340:9:251:69:78:109:111:151:217:227:231:307:110:256:316:50:61:226:312:315:248:7 -1:30:16:31:5:14:13:35:12:17:6:20:28:24:0:21:23:27:7:9:26:19:29:10:2:22:1:18:25:3:34:15:8:33:4:32 [1:41] [0:94.299999999999997] [0:407.30000000000001] [0:50] [0:150] [0:150] [0:1576.5999999999999] [0:1385] [0:100] [0:100] [0:236] [0:289] [0:1] [0:279] [0:442] [0:1] [0:118] [0:327] [0:1] [0:1072] [0:118.2] [0:600] none [-4.4356099999999996:7.0671400000000002] [-35.821199999999997:310.57999999999998] [0:720] [2009:2018] none [0.20000000000000001:100] [0:10] [0:213] [0:270] [0:124] [0:321] [0:1] [0:1] [0:99] [0:105] [0:1] [-1330.0599999999999:131.46100000000001] [-1292.02:142.78899999999999] [-0.85723800000000006:5.1764099999999997] [0.043486200000000003:280.45800000000003] [-88.479399999999998:685.31299999999999] [-68.542000000000002:161.995] [-25.9238:523.31899999999996] [-135.15199999999999:95.924499999999995] [0:50] [-106.262:78.811499999999995] [-46.596400000000003:66.877300000000005] [0:4.8888999999999996] [0:8.1999999999999993] [0:11.571400000000001] [0:8.6562000000000001] [0:4] [0:5.2580999999999998] [0:27.375] [18:138] [18:138] [0:1] none [0:105.900000021] [0:11.435915000000001] none none [0:1] [0:1] [0:578900] [0:2000000] [0:2000000] [0:6.5] [-88.479399999999998:685.31299999999999] [0:22.999977000023001] [0:150] [0:5640] [-659.62478999999996:967.31424000000004] [0:149.19999999999999] [0:10] [0:1190.2] [0:2961.5999999999999] [0:1541.7] [0:547.98784147061781] [-88.479399999999998:685.31299999999999] [2009:2018] none [0:1] [0:1]
tree_sizes=1905 3440 3446 3443 3454 3449 3395 3412 3387 3399 3408 3397 3416 3434 3428 3430 3415 3413 3413 3460 3462 3443 3470 3485 3477 3472 3470 3469 3473 3461 3482 3468 3489 3496 3489 3496 3500 3518 3507 3501 3507 3511 3508 3497 3494 3518 3530 3521 3502 3514 3526 3543 3548 3544 3537 3532 3538 3551 3555 3555 3559 3524 3557 3589 3583 3549 3586 3537 3552 3564 3567 3563 3600 3566 3553 3588 3587 3602 3595 3585 3602 3596 3608 3598 3595 3605 3619 3606 3598 3626 3155 3637 2594 3631 3639 3645 3287 2826 3418 3284 3629 2168 2730 3093 3529 1941 3528 1832 2746 3077 2181 2623 2966 2291 2298 2066 2173 1942 1959 1497 1607 1717 1268 1848 1611 1732 1381 1265 1258 1165 1039 1271 1275 1159 1158 1160 1162 1043 1041 937 1043 1046 921 934 939 820 822 938 812 937 822 823 813 814 818 828 592 819 704 821 709 708 591 716 592 590 596 708 710 590 590 704 590 590 588 703 594 593 594 596 583 589 594

Tree=0
num_leaves=17
num_cat=0
split_feature=30 50 43 20 30 30 32 15 39 32 5 2 3 3 2 3
split_gain=4198.95 574.463 485.533 509.434 196.125 63.5744 135.825 31.2016 18.6307 78.0194 4.61455 1.42109e-14 1.42109e-14 1.11022e-16 5.55112e-17 5.55112e-17
threshold=97.90000000000002 3.0725800000000008 3.5768700000000004 0.38250000000000006 98.90000000000002 94.90000000000002 59.500000000000007 109.50000000000001 24.500000000000004 54.500000000000007 17.550000000000004 36.500000000000007 25.150000000000002 62.050000000000004 34.500000000000007 55.250000000000007
decision_type=10 10 10 2 10 10 10 2 10 10 2 2 2 2 2 2
left_child=2 -2 5 7 -3 8 10 -4 11 -10 -7 12 -1 15 -12 -11
right_child=1 4 3 -5 -6 6 -8 -9 9 13 14 -13 -14 -15 -16 -17
leaf_value=-4.9299907067877813 -0.81735750363534887 2.3338809247541326 -4.9299907067877813 2.5815129121930633 6.6922039036793084 -4.2944019390278605 -1.6138753967360362 -3.0232244035080291 -2.5087001629404622 -4.9299907067877813 -4.9299907067877813 -4.9299907067877813 -4.9299907067877813 -4.9299907067877813 -4.9299907067877804 -4.9299907067877804
leaf_weight=45.446050684899092 0.26746853440999885 0.16520115360617638 0.18880131840705772 0.17306787520647049 0.27533525601029396 0.15733443200588126 0.1809345968067646 0.15733443200588226 0.16520115360617538 0.25960181280970573 0.24386836960911751 0.66080461442470451 32.410892993211746 0.26746853440999985 0.17306787520647049 0.15733443200588226
leaf_count=5777 34 21 24 22 35 20 23 20 21 33 31 84 4120 34 22 20
internal_value=-4.82919 2.83832 -4.89651 -1.84835 5.05783 -4.91626 -4.00309 -4.06328 -4.92495 -4.45918 -4.75586 -4.92999 -4.92999 -4.92999 -4.92999 -4.92999
internal_weight=0 0.708005 80.6418 0.519204 0.440536 80.1226 0.755205 0.346136 79.3674 0.849606 0.574271 78.5177 77.8569 0.684405 0.416936 0.416936
internal_count=10341 90 10251 66 56 10185 96 44 10089 108 73 9981 9897 87 53 53
is_linear=0
shrinkage=1


Tree=1
num_leaves=31
num_cat=1
split_feature=72 25 0 37 41 35 8 57 10 38 77 70 56 11 13 4 78 77 81 30 59 30 30 58 30 30 30 30 21 25
split_gain=38.6636 48.5621 27.7163 22.6893 36.3348 22.6324 17.3621 13.6497 13.78 10.765 17.3054 14.4129 8.65223 3.13401 2.95364 2.80873 2.41606 1.58109 1.32943 8.3965 1.00871 0.416462 0.165815 0.114112 0.154843 0.0494914 0.0380185 0.0379984 0.0251089 0.0109183
threshold=2.4305000000000008 3.4121100000000006 0 0.32865000000000005 86.744150000000019 184.00000000000003 6.6500000000000012 1.0635000000000001 12.350000000000003 47.500000000000007 422.66181350000005 0.13822375708983836 0.91425000000000012 16.650000000000002 215.50000000000003 118.35000000000001 31.950000000000006 374.69881350000009 36.95000000000001 95.100000000000009 119.50000000000001 98.500000000000014 98.300000000000026 16.426350000000003 97.90000000000002 98.700000000000003 94.90000000000002 97.90000000000002 3.9500000000000006 2.8273450000000007
decision_type=10 2 9 10 10 10 2 10 2 10 10 8 8 2 2 2 2 10 2 10 8 10 10 10 10 10 10 10 2 2
left_child=2 6 3 12 -5 9 -2 8 16 10 14 -12 15 -10 17 25 27 18 21 -20 28 22 23 24 26 29 -4 -6 -8 -1
right_child=1 -3 5 4 7 -7 20 -9 13 -11 11 -13 -14 -15 -16 -17 -18 -19 19 -21 -22 -23 -24 -25 -26 -27 -28 -29 -30 -31
leaf_value=-0.10116844056963661 -0.8502033277765344 -1.3032819705777081 -0.10083545691982626 2.4321698201691149 -0.10566813955149434 -1.2422482024942407 -0.14275080059297637 0.59982655214324798 0.51710746500274041 0.40573268888990621 -0.97658227087706284 -0.24912420983960493 0.2112683816396512 0.24436656489975928 0.22446412246175598 -0.49854053014097188 0.12797290726609312 -0.25669589022193001 -0.10102376720350288 0.41462704561720876 0.076961397045406998 -0.14403043758641901 -0.034694336410336021 -0.035190231701548232 -0.14415969919689109 -0.14415969919689081 -0.11558319073705561 -0.14415969919689076 -0.10292488217899243 -0.11991144628868847
leaf_weight=1.2339335810393106 0.34575917618349139 0.57068024191539723 67.585700926370919 0.078885411377996095 0.64680741913616679 0.17492918227799137 0.21961319306865301 0.95731230324599881 0.80180761788506039 0.41290225833654304 0.3906918019056308 0.8991889418102802 0.94212999590672541 0.88780391088221222 0.27933297550771286 0.2087672697380184 0.61304859875235695 0.64923112944234063 2.3220297610387202 0.3654855127679183 0.42632783111184847 2.3386268980102605 0.37358765304088493 0.25862998748198052 0.84995979070663352 0.42497989535331715 1.7944208518601943 0.42497989535331726 0.56707718642428517 0.41543470323085774
leaf_count=161 24 18 9348 5 61 21 2 12 13 11 20 34 23 33 6 19 12 24 312 4 18 12 3 26 4 2 58 2 50 3
internal_value=0 -0.514041 -0.0827128 0.0683574 0.305283 -0.0941002 -0.225094 0.266551 0.172002 -0.103527 -0.106219 -0.469464 -0.0437028 0.373796 -0.100119 -0.148917 -0.030364 -0.101304 -0.0999745 -0.0308984 -0.0469123 -0.102511 -0.10114 -0.101492 -0.101737 -0.11373 -0.101217 -0.120931 -0.114043 -0.105889
internal_weight=0 2.12946 86.3306 7.63589 4.41065 78.6947 1.55878 4.33176 3.37445 78.5198 78.1069 1.28988 3.22525 1.68961 76.817 2.28312 1.68484 76.5377 75.8884 2.68752 1.21302 73.2009 70.8623 70.4887 70.2301 2.07435 69.3801 1.07179 0.78669 1.64937
internal_count=10341 112 10229 346 138 9883 94 133 121 9862 9851 54 208 46 9797 185 75 9791 9767 316 70 9451 9439 9436 9410 166 9406 63 52 164
cat_boundaries=0 10
cat_threshold=131216 8388736 0 0 0 8388608 1 1 2048 524416
is_linear=0
shrinkage=0.1


Tree=2
num_leaves=31
num_cat=1
split_feature=72 0 35 15 46 59 49 38 77 51 53 78 4 13 70 34 20 33 30 30 30 2 30 78 31 13 39 72 15 51
split_gain=16.0501 22.4752 25.3057 12.6739 10.1024 12.676 8.9624 8.03963 10.8367 10.0035 3.74418 3.48337 3.27027 2.40521 2.35199 6.56552 1.0257 0.635379 0.29794 0.419027 0.0929191 0.0246228 0.0233087 0.0189581 0.0111963 0.0029188 0.00259618 0.00085237 0.000658279 0.000461177
threshold=2.4305000000000008 0 176.50000000000003 47.500000000000007 1.0669700000000002 66.500000000000014 30.132450000000002 47.500000000000007 374.69881350000009 2.788205 2.3015000000000003 33.45000000000001 121.35000000000001 215.50000000000003 0.33333323333336379 15.500000000000002 0.34750000000000003 110.50000000000001 98.500000000000014 98.100000000000009 95.700000000000003 36.500000000000007 99.700000000000003 41.850000000000009 0.55555556500000003 195.00000000000003 24.500000000000004 1.4031000000000005 63.500000000000007 2.7109950000000005
decision_type=10 9 10 2 10 8 10 10 10 10 8 2 2 2 10 10 2 8 10 10 10 2 10 2 10 2 10 10 2 10
left_child=1 3 7 22 -5 -6 12 8 13 10 -10 -8 16 14 18 21 23 -12 19 20 25 -16 27 29 -22 26 -3 -1 -28 -2
right_child=6 2 -4 4 5 -7 11 -9 9 -11 17 -13 -14 -15 15 -17 -18 -19 -20 -21 24 -23 -24 -25 -26 -27 28 -29 -30 -31
leaf_value=-0.10070923485283956 -0.10254992463983084 -0.10066177752629235 -1.3804194102165475 0.44642300124101181 0.3114856221033982 -0.028260769233765033 -0.66040117328049508 0.29912928241044778 -0.41916084862430358 -0.63189706179939464 0.046352973638628697 -0.3567016955717523 -0.38027441115235366 0.18030456965483407 -0.10113881196444237 0.24437057106236981 0.1014025912203705 -0.12301335275712809 -0.13823618251669573 -0.0055406500371189601 -0.13003463677395996 -0.13823123234881221 -0.13823123234881221 -0.13715544225128162 -0.11563676685331269 -0.11423016534141722 -0.10735686890807664 -0.10752056531974792 -0.10250078333703933 -0.095513304812510386
leaf_weight=1.192823903635144 0.30365793406963282 61.053332696668804 0.15494710067286988 1.3853315105661748 2.1351137373712845 2.2612107517779805 0.65266397711820878 0.49846333125606079 0.42110198084264916 0.71411895414348681 0.34847597533371311 0.89634499466046691 0.38763165473937988 0.31099348235875268 1.6957115656696253 0.75064422516152252 0.34543719841167331 0.6079082409851253 2.2010187506675711 0.45825766772031684 0.91718005016446058 0.20008106529712666 0.20008106529712666 0.20634524244815111 1.3137345188297329 0.16106546251103182 0.7021438032388676 0.21717321313917626 0.46337141003459692 0.13434980320744216
leaf_count=179 35 9443 26 29 32 37 10 11 4 27 26 31 2 6 243 11 7 21 11 4 12 1 1 3 29 6 11 5 54 24
internal_value=0 -0.0812221 -0.0913051 0.060285 0.210943 0.13674 -0.319638 -0.101101 -0.10386 -0.328163 -0.1707 -0.484663 -0.134056 -0.097179 -0.0984133 -0.00594171 -0.0376296 -0.0613017 -0.102051 -0.100827 -0.101503 -0.105054 -0.106291 -0.112165 -0.121556 -0.100786 -0.100751 -0.101758 -0.105426 -0.100392
internal_weight=0 80.3643 72.9726 7.39173 5.78166 4.39632 2.92643 72.8176 72.3191 2.09161 1.37749 1.54901 1.37742 70.2275 69.9165 2.64644 0.98979 0.956384 67.2701 65.0691 64.6108 1.89579 1.61008 0.644353 2.23091 62.3799 62.2188 1.41 1.16552 0.438008
internal_count=10341 10229 9946 283 98 69 112 9920 9909 78 51 41 71 9831 9825 255 69 47 9570 9559 9555 244 185 62 41 9514 9508 184 65 59
cat_boundaries=0 10
cat_threshold=131088 8388608 0 0 0 8388608 1 1 2048 524416
is_linear=0
shrinkage=0.1


Tree=3
num_leaves=31
num_cat=1
split_feature=38 0 34 37 49 30 39 72 56 38 77 51 44 13 53 70 34 13 28 46 43 30 11 30 30 30 25 2 31 13
split_gain=15.2264 16.0073 21.8577 7.94983 6.72847 5.95925 5.44451 5.13108 7.27384 6.29646 6.39956 4.34975 3.68702 3.52961 2.40881 2.14893 5.22565 2.02762 1.39247 0.839759 0.64545 0.544816 0.514245 0.212836 0.422994 0.0671126 0.0356016 0.0174218 0.00982727 0.00234925
threshold=61.500000000000007 0 66.500000000000014 0.35465000000000008 31.695000000000004 97.90000000000002 15.500000000000002 2.4305000000000008 2.0166500000000007 47.500000000000007 374.69881350000009 2.788205 214.03400000000002 101.50000000000001 2.3015000000000003 0.33333323333336379 15.500000000000002 215.50000000000003 2010.5000000000002 4.2351300000000007 4.087225000000001 95.90000000000002 17.550000000000004 98.500000000000014 98.100000000000009 95.700000000000003 2.4167850000000004 36.500000000000007 0.49999245000000009 195.00000000000003
decision_type=10 9 10 10 8 8 10 10 10 10 10 10 10 2 8 10 10 2 2 8 8 10 2 10 10 10 2 2 10 2
left_child=1 3 7 4 18 6 13 8 9 10 15 14 21 -5 -12 17 27 23 -1 20 26 -9 -16 24 25 29 -20 -17 -27 -3
right_child=-2 2 -4 5 -6 -7 -8 12 -10 -11 11 -13 -14 -15 22 16 -18 -19 19 -21 -22 -23 -24 -25 -26 28 -28 -29 -30 -31
leaf_value=0.060580566971975974 -1.0034989013871047 -0.10067963613317372 -1.2565129970460409 -0.10233284789335217 0.23558101402781403 0.07403997168640121 0.44307111482486894 -0.10148320213140034 0.63696307548945419 0.24160450537681866 -0.33797127033490376 -0.43502623644046301 -0.3212961952160639 0.29228651878878836 0.029839476813829674 -0.10100302258095253 0.20374071553746434 0.13994125141047006 -0.10165545450243836 0.072963659130719102 -0.29421146470574622 0.10151075431825651 -0.12308190388107683 -0.13329962243207494 -0.0049790114382377085 -0.12830701785920745 -0.1285616160289984 -0.13329548274724898 -0.11392288405875139 -0.11387570042091154
leaf_weight=0.55491993331815948 0.18075846834108134 56.290849716810044 0.16476028499891882 0.39897989341989193 0.85935116023756553 2.3069663870264776 1.2304986123926935 0.38321621727663968 0.13429575250483949 0.53608087124302883 0.46723045129328888 0.91963498620316375 1.7561497336719183 0.52478094189427793 0.38234986865427356 1.5402172284666442 0.80682506971061219 0.34919575491221522 0.9675702727399752 0.21606164332479316 0.2247545709833515 0.20186127931810915 0.51759057817980647 2.0614563673734656 0.45891834795474906 0.73524666670709793 1.0000629066489635 0.18739347159862507 1.3417201746487988 0.1352331186644723
leaf_count=39 8 9498 31 42 11 35 13 66 10 10 4 25 20 6 31 244 11 7 125 12 2 5 14 11 4 11 8 1 33 4
internal_value=0 -0.0846296 -0.0927197 0.0430617 -0.0107842 0.185726 0.305328 -0.103347 -0.0982516 -0.0997312 -0.102496 -0.266867 -0.248862 0.121847 -0.153754 -0.0966138 -0.00637703 -0.10034 -0.082228 -0.115132 -0.133669 -0.031447 -0.0581115 -0.101715 -0.100611 -0.101361 -0.115331 -0.104506 -0.119015 -0.100711
internal_weight=0 77.6542 69.3702 8.28395 3.82272 4.46123 2.15426 69.2055 66.8642 66.7299 66.1939 2.28681 2.34123 0.923761 1.36717 63.9071 2.53444 61.3726 2.96337 2.40845 2.19239 0.585077 0.89994 61.0234 58.962 58.503 1.96763 1.72761 2.07697 56.4261
internal_count=10341 10333 10040 293 197 96 61 10009 9918 9908 9898 74 91 48 49 9824 256 9568 186 147 135 71 45 9561 9550 9546 133 245 44 9502
cat_boundaries=0 10
cat_threshold=131088 8388608 0 2 0 8388608 0 1 2048 524416
is_linear=0
shrinkage=0.1


Tree=4
num_leaves=31
num_cat=1
split_feature=0 35 38 37 59 55 49 51 32 84 72 25 37 30 47 77 77 46 53 21 30 69 12 48 43 30 30 30 80 57
split_gain=9.79858 17.7936 14.1796 6.70448 6.17098 3.60703 3.98861 5.29046 4.75971 6.41882 3.58152 3.3631 3.17485 2.25339 1.94036 0.958813 1.98026 0.721043 0.639886 0.600543 1.59027 0.524245 0.375268 0.308344 0.167915 0.123167 0.188839 0.0571309 0.0413856 0.0283479
threshold=0 184.00000000000003 50.500000000000007 0.35690000000000005 66.500000000000014 5.0143000000000013 28.671600000000002 2.788205 72.500000000000014 0.18463939986953687 1.3090000000000004 2.4167850000000004 0.41210000000000008 98.500000000000014 4.5403450000000012 493.52167600000001 374.69881350000009 2.9866600000000005 1.6708500000000004 11.750000000000002 99.100000000000009 0.54771090871840078 161.00000000000003 6.627390000000001 3.8476650000000006 98.500000000000014 98.300000000000026 97.90000000000002 3.6500000000000008 0.89380000000000015
decision_type=9 10 8 10 8 10 10 10 10 10 10 2 8 10 8 10 10 8 10 2 10 10 2 8 8 10 10 10 2 10
left_child=2 5 3 4 11 6 8 18 15 13 12 28 -5 14 22 16 19 23 -8 24 -21 29 -10 -6 25 26 27 -2 -1 -20
right_child=1 -3 -4 10 17 -7 7 -9 9 -11 -12 -13 -14 -15 -16 -17 -18 -19 21 20 -22 -23 -24 -25 -26 -27 -28 -29 -30 -31
leaf_value=-0.10078074832998651 -0.10071487583071255 -1.1503065447473702 -0.38576026440739652 0.19212284705886223 -0.11978261134053465 0.26911360309001986 -0.23701922925527974 -0.29054921261873351 -0.10603618523614332 0.30048499806557394 0.25155756987267514 0.22496379046538381 -0.11778209797179395 0.20436194235899158 0.12169334131320063 0.10057498143198909 -0.30895192168676311 0.016730047069025769 -0.10167683959503082 -0.10112359561951781 0.19556334552100663 0.05277141580422378 -0.23896172794534257 -0.23960640965740498 0.056938489646149587 -0.12899809470496429 -0.029974311779674356 -0.12943100906809976 -0.032344462538338434 -0.12237550345627016
leaf_weight=0.36517243715934133 49.181993046426228 0.16195879864971985 0.65585637965705323 0.73274028202285957 1.520786269567908 0.26249649422243138 0.35830129822716017 2.4909394846472424 1.6689537151250982 0.6660138964653014 2.7823726038332097 1.3043255016091277 0.60229576472193014 0.31332884929724958 0.39037962048314589 0.23553477262612332 0.45677608717232843 0.37033239635638837 3.0682007774012168 0.6522969868965437 0.24987132847309113 0.21923177386634041 0.24335400760173787 0.25007213291246388 0.067020091228171874 1.5736891047563393 0.37589028477668662 0.70271643996238609 0.11657213279977441 0.84358344302745525
leaf_count=57 9091 23 39 24 67 23 29 27 162 3 30 10 36 7 13 8 14 16 462 111 1 13 1 4 4 10 3 4 14 35
internal_value=0 -0.0895185 0.0285407 0.0977951 0.00432012 -0.100818 -0.102341 -0.173675 -0.0935709 0.0233223 0.186953 0.14157 0.0523106 -0.0472408 -0.0814766 -0.100742 -0.101633 -0.110166 -0.108826 -0.0998393 -0.0189509 -0.0977071 -0.122952 -0.136704 -0.101245 -0.10145 -0.100587 -0.101119 -0.0842206 -0.106141
internal_weight=0 64.1825 8.70053 8.04467 3.92726 64.0206 63.7581 6.98026 56.7778 3.28203 4.11741 1.78607 1.33504 2.61602 2.30269 53.4958 53.2603 2.14119 4.48932 52.8035 0.902168 4.13102 1.91231 1.77086 51.9013 51.8343 50.2606 49.8847 0.481745 3.91178
internal_count=10341 10044 297 258 168 10021 9998 566 9432 186 90 81 60 183 176 9246 9238 87 539 9224 112 510 163 71 9112 9108 9098 9095 71 497
cat_boundaries=0 10
cat_threshold=131088 8388608 0 2 0 8388608 0 1 2048 524416
is_linear=0
shrinkage=0.1


Tree=5
num_leaves=31
num_cat=1
split_feature=0 38 37 59 13 34 82 38 55 77 25 72 11 30 13 8 23 50 14 25 50 58 77 23 30 72 6 30 11 30
split_gain=8.2622 11.5062 5.19624 5.16405 3.72021 3.72566 3.39305 6.26451 3.20508 4.08896 2.66206 2.6045 2.74255 2.16531 1.64296 1.46136 1.39008 0.972017 0.510009 0.233805 0.174077 0.138132 0.0991381 0.631226 0.125653 0.0858305 0.0454867 0.0253495 0.0241895 0.0166828
threshold=0 50.500000000000007 0.35690000000000005 66.500000000000014 259.50000000000006 89.500000000000014 18.420000000000005 18.500000000000004 5.0143000000000013 374.69881350000009 2.4167850000000004 1.3090000000000004 16.650000000000002 99.100000000000009 215.50000000000003 7.0500000000000007 52.250000000000007 3.9320400000000006 0.74350000000000016 3.7699300000000004 3.5448050000000006 16.426350000000003 281.69137000000006 18.050000000000004 97.90000000000002 2.7090000000000005 49.850000000000001 97.90000000000002 14.450000000000001 98.700000000000003
decision_type=9 8 10 8 2 10 2 10 10 10 2 10 2 10 2 2 2 8 2 2 8 10 10 2 10 10 2 10 2 10
left_child=1 2 3 10 5 6 8 13 9 14 26 12 -4 19 21 18 -17 20 -11 27 29 22 24 -24 25 -2 -1 -8 -25 -5
right_child=4 -3 11 17 -6 -7 7 -9 -10 15 -12 -13 -14 -15 -16 16 -18 -19 -20 -21 -22 -23 23 28 -26 -27 -28 -29 -30 -31
leaf_value=-0.10071603053272414 -0.10087301807041134 -0.34713293651369814 0.17713235382483619 -0.10796009416250558 -0.62736183455389227 -0.62574304881119414 -0.10066217843512429 0.17892362055420949 0.22368785704572774 -0.29154110485942675 0.20039876686242666 0.21862918164335676 -0.11546198410240038 0.16383350728090185 0.11560543015976665 0.014464970706563308 -0.19261337199757284 0.082406109130184771 -0.20670070912874394 -0.20640176084160636 -0.20499632895437148 -0.019045708411475501 0.099291091279073956 -0.065621449908849327 -0.12735405620945195 -0.015312878959378901 -0.026949268953157957 -0.12582976627300491 -0.11354430821438433 -0.1290372156257967
leaf_weight=0.3345167062943778 46.356012617136003 0.65596042864490378 0.72606918617384486 0.81629962590522998 0.13399003446102042 0.13440261571667989 2.1959475782932718 1.2148013733094556 0.29417608003131945 1.1417062410037027 1.3168560373596845 2.8755826127016917 0.57329056732123718 0.31050732603762288 0.35374000977026199 0.51997852354543261 0.8608279568143189 0.24291361600626293 1.8676081621670162 0.24975949525833119 0.26877049403265152 0.20643969083903257 0.18087299447506555 0.12333041237434372 1.8324398999102403 0.11754350294358928 0.11143891885876656 0.48940038681030262 0.72154628508724272 0.69548073410987854
leaf_count=56 9306 39 21 64 1 4 439 17 19 18 10 30 39 3 7 25 20 13 34 1 6 27 4 24 12 17 15 3 63 4
internal_value=0 0.0256564 0.0885989 0.00376408 -0.0864558 -0.0998422 -0.0986449 -0.0147862 -0.105499 -0.107283 0.128886 0.165536 0.0480368 -0.0872899 -0.0991411 -0.199807 -0.114633 -0.10524 -0.238888 -0.113856 -0.13084 -0.100675 -0.101016 -0.0702525 -0.101669 -0.100657 -0.0822826 -0.105249 -0.106549 -0.117656
internal_weight=0 8.61718 7.96122 3.78628 59.305 59.171 59.0366 4.46042 54.5762 54.282 1.76281 4.17494 1.29936 3.24561 49.8919 4.39012 1.38081 2.02346 3.00931 2.93511 1.78055 49.5382 49.3317 1.02575 48.306 46.4736 0.445956 2.68535 0.844877 1.51178
internal_count=10341 297 258 168 10044 10043 10039 463 9576 9557 81 90 60 446 9460 97 45 87 52 443 74 9453 9426 91 9335 9323 71 442 87 68
cat_boundaries=0 10
cat_threshold=131088 8388608 0 2 0 8388608 0 1 2048 524416
is_linear=0
shrinkage=0.1


Tree=6
num_leaves=31
num_cat=0
split_feature=30 32 59 8 46 4 26 38 39 30 36 81 77 42 26 48 5 30 33 43 30 30 26 39 10 33 42 21 2 57
split_gain=7.57659 11.0675 5.61368 7.03124 4.4496 4.36597 3.85334 3.24823 3.37762 3.18537 2.0766 1.90006 1.65327 1.3074 0.376822 0.369125 0.12344 0.0748921 0.0597511 0.0229621 0.00929044 0.00591 0.00129044 0.000804641 0.000764009 0.000580778 0.000154106 0.000145251 0.00020568 2.06308e-05
threshold=89.90000000000002 108.50000000000001 125.50000000000001 3.6500000000000008 2.2118750000000005 100.15000000000002 105.70150000000001 26.500000000000004 27.500000000000004 97.90000000000002 0.69885000000000008 32.850000000000016 422.66181350000005 90.22450000000002 121.20250000000001 5.829835000000001 23.250000000000004 98.300000000000026 77.500000000000014 3.5768700000000004 98.500000000000014 97.90000000000002 104.14500000000001 24.500000000000004 2.7500000000000004 131.50000000000003 91.581400000000016 16.200000000000006 16.500000000000004 1.7071500000000002
decision_type=10 8 10 2 10 2 2 10 8 10 10 2 10 10 2 8 2 10 10 10 10 10 2 10 2 10 10 2 2 10
left_child=7 2 3 4 20 6 21 12 -9 -4 16 13 19 -7 17 24 -3 25 -14 23 -2 22 -5 27 -10 -15 -26 29 -29 -1
right_child=1 10 9 5 -6 11 -8 8 15 -11 -12 -13 18 14 -16 -17 -18 -19 -20 -21 -22 -23 -24 -25 26 -27 -28 28 -30 -31
leaf_value=-0.10044526284038653 -0.10052998571385174 -0.11150695785734091 0.21347771253286973 -0.10055215770000599 0.16391682638370075 -0.21384361603803603 0.1850535016693067 0.27318543808027412 -0.11089094728933924 0.02523328278610143 -0.31504947703801478 0.0059576470805601453 -0.18268523834904615 -0.10732735471303112 -0.042417400680725539 0.054005033112270923 -0.16477738240365003 -0.15223530874539404 -0.22071505432067445 -0.070163589381277466 -0.12357939140684385 -0.12287513823413548 -0.11127684304870074 -0.10424231502942094 -0.10534978527590746 -0.11231270581161744 -0.10146481678883855 -0.10043141307846747 -0.10537505521338048 -0.10138477299892711
leaf_weight=42.194301925625041 0.28131140009645816 0.92959657119354167 1.8686140577774488 0.27521816867010773 2.4904256550362334 1.9113575034425592 1.0127152696222763 0.46411570906638977 0.17502557439729582 1.7321937887463716 1.0373753192834554 0.9234022371820173 0.80483018897939362 0.4434399404563012 0.71813842130359251 0.19200952490791678 0.81756039158790372 0.75742706656455994 0.84890508104581386 0.25067056925035913 0.4621644914150238 0.3030160665512085 0.18940601451322436 0.57212033954783592 0.17153713665902615 0.49400143278762698 0.25225310289533809 0.20020939409732719 0.14518870040774345 0.23503106704447319
leaf_count=9705 61 26 33 56 38 37 11 2 4 15 12 13 27 34 21 12 17 4 13 13 3 2 3 31 7 7 40 47 3 44
internal_value=0 -0.0210486 0.0154942 -0.0222006 0.0998263 -0.0783498 0.0569679 -0.099664 0.059034 0.122921 -0.202977 -0.124258 -0.104065 -0.152063 -0.103126 -0.0666462 -0.136434 -0.12885 -0.202207 -0.100342 -0.114858 -0.11201 -0.104924 -0.100517 -0.105333 -0.109954 -0.103037 -0.100467 -0.102509 -0.10045
internal_weight=0 16.6474 13.8628 10.262 3.2339 7.02812 1.78036 46.5062 1.25494 3.60081 2.78453 5.24777 45.2513 4.32436 2.41301 0.790825 1.74716 1.69487 1.65374 43.5975 0.743476 0.76764 0.464624 43.3469 0.598816 0.937441 0.42379 42.7747 0.345398 42.4293
internal_count=10341 393 338 290 102 188 72 9948 65 48 55 116 9883 103 66 63 43 45 40 9843 64 61 59 9830 51 41 47 9799 50 9749
is_linear=0
shrinkage=0.1


Tree=7
num_leaves=31
num_cat=0
split_feature=30 32 59 8 46 4 26 38 40 30 71 81 77 42 58 51 30 33 43 30 30 26 64 39 44 21 2 46 57 9
split_gain=7.50017 8.98137 4.46386 5.88444 3.66669 3.65131 3.21502 2.9492 2.65177 2.40168 1.80612 1.6571 1.12554 0.979108 0.375244 0.105941 0.056612 0.0355867 0.0283107 0.00661474 0.00420067 0.000940289 0.000662943 0.000594161 0.000476622 0.000107145 0.000151061 6.30089e-05 1.5452e-05 2.15363e-05
threshold=89.90000000000002 108.50000000000001 125.50000000000001 3.6500000000000008 2.2118750000000005 100.15000000000002 105.70150000000001 26.500000000000004 0.97530000000000017 97.90000000000002 0.074014071584621269 32.850000000000016 422.66181350000005 90.22450000000002 14.280600000000002 2.788205 98.300000000000026 77.500000000000014 3.5768700000000004 98.500000000000014 97.90000000000002 104.14500000000001 4.9292525000000014 24.500000000000004 123.02650000000001 16.200000000000006 16.500000000000004 -1.2031949999999998 1.7071500000000002 19.950000000000003
decision_type=10 8 10 2 10 2 2 10 10 10 10 2 10 10 10 8 10 10 10 10 10 2 10 10 10 2 2 8 10 2
left_child=7 2 3 4 19 6 20 12 15 -4 -3 13 18 -7 16 24 22 -14 23 -2 21 -5 -15 25 -9 28 -27 -26 -1 -30
right_child=1 10 9 5 -6 11 -8 8 -10 -11 -12 -13 17 14 -16 -17 -18 -19 -20 -21 -22 -23 -24 -25 27 26 -28 -29 29 -31
leaf_value=-0.10040272315602039 -0.10047937124414504 -0.29811194688453307 0.18463995305409397 -0.1004993942461952 0.14870325972675133 -0.19618450878719565 0.16828773875338707 -0.10824519316624276 0.21409928421295954 0.022684296498762954 -0.12661067468837761 0.0053579165136046613 -0.16973917095339347 -0.10536467447034602 -0.036254627793052462 -0.013443250285454122 -0.14602821313842945 -0.19934395096471685 -0.066036107703984256 -0.12084098894790332 -0.12023018605112182 -0.11009371762585174 -0.11083207805935079 -0.10382651711572868 -0.10381278663507182 -0.10039018717249704 -0.10483748668253162 -0.10066747777935542 -0.10042527069532195 -0.10247311565490809
leaf_weight=38.194337970813649 0.25466278238309525 0.91936803632415776 1.9400520056951784 0.24915179638992402 2.4716355610289611 1.8767775882733984 1.0026676078559829 0.23218072205781826 0.56032449699705467 1.7340495204553006 1.8491348838724659 0.92405038618016977 0.78079701089882181 0.42857425636611901 0.67741367581766088 0.17026382382027805 0.71295471489429474 0.84595401695696637 0.24026551307178934 0.42716963589191437 0.27989986538887024 0.17312897462397814 0.45961325359530747 0.51964338389370723 0.11128223221749067 0.18122755899093945 0.13201140612363815 0.14892603596672416 0.12644401844590802 0.086475635442184284
leaf_count=9705 61 18 33 56 38 37 11 4 6 15 37 13 27 37 16 13 4 13 13 3 2 3 9 31 12 47 3 30 31 13
internal_value=0 -0.0193734 0.0140211 -0.020799 0.0920676 -0.0732621 0.0533679 -0.0990641 0.053966 0.108202 -0.183563 -0.115764 -0.103617 -0.142699 -0.0986447 -0.0814391 -0.125041 -0.185134 -0.100258 -0.113236 -0.11073 -0.104433 -0.108194 -0.100468 -0.104952 -0.100422 -0.102264 -0.102013 -0.100407 -0.101257
internal_weight=0 16.3803 13.6118 9.9377 3.15347 6.78423 1.70485 42.3301 1.22298 3.6741 2.7685 5.07938 41.1072 4.15533 2.27856 0.662653 1.60114 1.62675 39.4804 0.681832 0.702181 0.422281 0.888188 39.2401 0.492389 38.7205 0.313239 0.260208 38.4073 0.21292
internal_count=10341 393 338 290 102 188 72 9948 65 48 55 116 9883 103 66 59 50 40 9843 64 61 59 46 9830 46 9799 50 42 9749 44
is_linear=0
shrinkage=0.1


Tree=8
num_leaves=31
num_cat=0
split_feature=30 32 59 55 16 82 57 82 77 41 32 11 77 64 23 30 38 77 36 11 5 20 57 41 30 30 45 6 32 42
split_gain=7.40252 6.70164 6.13716 5.04106 5.01949 5.54367 3.19266 2.89163 2.86723 2.55015 0.764893 0.744081 0.857266 0.527571 0.400292 0.90163 0.385472 0.474723 0.280746 0.2042 0.174667 0.0610485 0.0608994 0.0467486 0.032929 0.00637194 0.00348584 0.00275007 0.00254532 0.00163443
threshold=79.500000000000014 108.50000000000001 125.50000000000001 1.6348500000000004 260.50000000000006 10.745000000000003 1.0635000000000001 19.205000000000002 281.69137000000006 89.913250000000019 50.500000000000007 11.950000000000001 374.69881350000009 5.2065775000000007 50.100000000000009 97.500000000000014 37.500000000000007 422.66181350000005 0.69585000000000008 16.050000000000004 25.250000000000004 0.41150000000000003 0.10760000000000002 86.744150000000019 97.90000000000002 98.700000000000003 5.232965000000001 43.050000000000004 53.500000000000007 95.006800000000013
decision_type=10 8 10 8 2 2 10 2 8 10 10 2 10 10 2 10 10 10 10 2 2 2 10 10 10 10 8 2 10 10
left_child=16 2 3 7 5 10 8 11 25 -3 19 13 20 -2 15 21 17 -1 22 -5 24 -11 -7 -24 28 26 -4 -25 -13 -29
right_child=1 9 6 4 -6 18 -8 -9 -10 14 -12 12 -14 -15 -16 -17 -18 -19 -20 -21 -22 -23 23 27 -26 -27 -28 29 -30 -31
leaf_value=-0.10044973461420162 -0.10171822544076115 -0.39890892487675256 -0.10073888268258271 0.11238232652748836 0.17447969286652232 -0.055395741637341137 0.16729733634549307 0.11751490434291917 0.15590619751306736 -0.10044894857941021 0.17520449992999237 -0.10080845442803164 -0.1974218256772497 0.10695461136677314 -0.15132614459142626 0.1028968849691818 0.044820244901261436 -0.16987703610921756 -0.19150003109549563 -0.0008775007033231492 -0.020041875724490867 -0.17783098119805346 -0.15742578198677806 -0.11546385933208968 -0.12389553164715493 -0.12533027032628927 -0.11757727150181128 -0.098576894243934066 -0.10849889728391666 -0.10823992681405395
leaf_weight=34.4258107765163 0.26013361755758957 0.40214858145918642 0.24502534931525521 0.236991381738336 1.7011931659362742 0.18577302456833455 2.7568911022390239 0.55239528388483439 0.63319931947626151 0.17405184207018498 0.87953903502784669 1.1281497138552374 1.4949598690145647 0.22677982074674219 1.8077245070016941 0.22329025069484487 0.17866083039552805 1.013876290002371 0.54510104306973506 0.48486800724640489 0.21688018851273216 0.24611476063728333 0.23171554505825032 0.43869916070252635 1.4594918340444563 0.48635465512052178 0.24675512104295172 0.23112152196699753 0.69580577139277 0.72137836809270084
leaf_count=9490 49 9 45 3 29 31 27 12 5 47 12 262 18 5 27 11 14 32 14 37 21 1 1 18 10 4 6 23 37 41
internal_value=0 -0.0242869 0.000804794 -0.0369828 0.0308423 -0.0309385 0.101938 -0.100557 -0.00988723 -0.165509 0.112594 -0.12253 -0.134032 -0.0045289 -0.127216 -0.0594823 -0.101697 -0.102436 -0.128591 0.0363065 -0.106959 -0.145776 -0.109631 -0.115839 -0.1127 -0.117214 -0.109188 -0.108913 -0.103742 -0.105895
internal_weight=0 18.9125 16.0592 11.691 5.65638 3.95519 4.36823 6.0346 1.61133 2.85333 1.6014 5.4822 4.99529 0.486913 2.45118 0.643457 35.6183 35.4397 2.35379 0.721859 3.50033 0.420167 1.80869 1.62291 3.28345 0.978135 0.49178 1.3912 1.82396 0.9525
internal_count=10341 805 710 623 209 180 87 414 60 95 52 402 348 54 86 59 9536 9522 128 40 330 48 114 83 309 55 51 82 299 64
is_linear=0
shrinkage=0.1


Tree=9
num_leaves=31
num_cat=0
split_feature=30 32 59 55 16 82 57 77 82 42 32 11 77 64 14 38 77 36 78 50 47 51 57 41 30 30 57 6 32 51
split_gain=7.11535 5.69318 5.17416 4.36119 4.22551 4.74852 2.5334 2.50434 2.50183 1.75766 0.660306 0.624494 0.577541 0.475348 0.373568 0.358986 0.331601 0.19665 0.195265 0.180962 0.0908711 0.126493 0.0657726 0.0324481 0.0230658 0.00436365 0.00261514 0.00214338 0.00189392 0.00188152
threshold=79.500000000000014 108.50000000000001 125.50000000000001 1.6348500000000004 260.50000000000006 10.745000000000003 1.0635000000000001 281.69137000000006 19.205000000000002 84.430350000000018 50.500000000000007 11.950000000000001 374.69881350000009 5.2065775000000007 0.64750000000000008 37.500000000000007 422.66181350000005 0.68990000000000007 35.45000000000001 2.4484700000000004 3.9962300000000002 2.788205 0.092350000000000002 86.744150000000019 97.90000000000002 98.700000000000003 0.91550000000000009 43.050000000000004 53.500000000000007 1.7766250000000003
decision_type=10 8 10 8 2 2 10 10 2 10 10 2 10 10 2 10 10 8 2 8 10 10 10 10 10 10 10 2 10 8
left_child=15 2 3 8 5 10 7 25 11 -3 19 13 18 -2 -11 16 -1 22 24 -5 21 -16 -7 -24 28 26 -4 -25 -13 -29
right_child=1 9 6 4 -6 17 -8 -9 -10 14 -12 12 -14 -15 20 -17 -18 -19 -20 -21 -22 -23 23 27 -26 -27 -28 29 -30 -31
leaf_value=-0.10040738018217438 -0.1015594077752625 -0.34538673313151191 -0.10223732819226489 -0.0037914261094338046 0.16273491452307667 -0.047496364007869697 0.15209783885593947 0.14855805831352933 0.10666196320103932 -0.035652939364500362 0.16341715939103268 -0.10074391036003701 -0.1807595747125485 0.10625339349493915 -0.083164511500191274 0.040946004358153161 -0.15969733934634625 -0.17684706788529181 -0.0096675868437390636 0.1017486212374257 -0.16276209039545203 -0.15625379067989206 -0.14906114326463979 -0.11350903681383702 -0.12120620936876254 -0.1222172821766344 -0.11792687170103405 -0.10742841114346831 -0.10755904750845172 -0.096686472690280689
leaf_weight=31.162235001145746 0.23572801123373288 0.41637266310863141 0.27562312455847748 0.46560445753857604 1.6445171248160475 0.16696285735815797 2.7303864899440669 0.59979634056799114 0.54797419562237326 0.41045052139088545 0.85021534329280257 0.96457756985910303 1.470596272149123 0.20648388034896925 0.48328963579842799 0.176148836966603 0.9727538911101864 0.53189564193598915 0.20092454273253668 0.24953138083219528 0.94822984864003956 0.46424116933485493 0.22080494463443745 0.41239493922330417 1.3483893275260923 0.45070040388964117 0.17286688298918307 0.65705556282773625 0.70638568412687164 0.21688059647567559
leaf_count=9490 49 8 44 34 29 27 27 5 12 39 12 248 18 5 36 14 32 14 31 6 6 6 1 21 10 4 7 40 41 25
internal_value=0 -0.0230355 0.000635924 -0.0352346 0.0289723 -0.0293556 0.0947522 -0.00970217 -0.0964444 -0.156289 0.103851 -0.118127 -0.128836 -0.00452449 -0.122149 -0.101422 -0.102202 -0.123878 -0.105124 0.0330345 -0.140876 -0.118974 -0.107049 -0.113646 -0.111476 -0.115268 -0.108285 -0.107567 -0.103625 -0.104763
internal_weight=0 18.0489 15.3263 11.0969 5.41586 3.77135 4.22937 1.49899 5.68106 2.72258 1.56535 5.13309 4.69087 0.442212 2.30621 32.3111 32.135 2.20599 3.22028 0.715136 1.89576 0.947531 1.6741 1.50714 3.01935 0.89919 0.44849 1.28633 1.67096 0.873936
internal_count=10341 805 710 623 209 180 87 60 414 95 52 402 348 54 87 9536 9522 128 330 40 48 42 114 87 299 55 51 86 289 65
is_linear=0
shrinkage=0.1


Tree=10
num_leaves=31
num_cat=0
split_feature=30 32 59 55 16 82 82 57 77 47 32 11 64 77 23 30 38 77 5 36 10 57 41 30 30 10 21 30 32 32
split_gain=6.82602 4.73728 4.38425 3.78705 3.57497 4.07854 2.17633 2.02965 2.19529 1.35234 0.575184 0.528307 0.428474 0.399529 0.38801 0.772965 0.335824 0.233541 0.200824 0.140759 0.139323 0.067666 0.0228492 0.0172709 0.0029857 0.00238714 0.0019418 0.00164647 0.0013967 0.000640475
threshold=79.500000000000014 108.50000000000001 125.50000000000001 1.6348500000000004 260.50000000000006 10.745000000000003 19.205000000000002 1.0635000000000001 281.69137000000006 6.6050250000000004 50.500000000000007 11.950000000000001 5.2065775000000007 374.69881350000009 48.150000000000013 97.500000000000014 37.500000000000007 422.66181350000005 25.850000000000005 0.68990000000000007 13.350000000000003 0.092350000000000002 86.744150000000019 97.90000000000002 98.700000000000003 13.950000000000001 7.2500000000000009 98.500000000000014 53.500000000000007 69.500000000000014
decision_type=10 8 10 8 2 2 2 10 10 8 10 2 10 10 2 10 10 10 2 8 2 10 10 10 10 2 2 10 10 10
left_child=16 2 3 6 5 10 11 8 24 14 20 12 -2 18 15 -3 17 -1 23 21 -5 -7 -23 28 26 -24 -4 29 -13 -27
right_child=1 9 7 4 -6 19 -8 -9 -10 -11 -12 13 -14 -15 -16 -17 -18 -19 -20 -21 -22 22 25 -25 -26 27 -28 -29 -30 -31
leaf_value=-0.10036897709238563 -0.10141487008910106 -0.1357472799144083 -0.10202402232376384 0.090561405138542994 0.15248925297258131 -0.043738316216808112 0.096904937460230142 0.13928782234073409 0.14219855280687707 -0.32205930848527919 0.15295814444605302 -0.10065823406100818 0.10562642929388635 -0.16781605305993463 -0.14027873487636805 0.10236742227748426 0.037310933286664905 -0.15141199640261549 -0.0020081117882864031 -0.16500013097796395 -0.0024123999771049026 -0.14226698238119903 -0.095520543061723528 -0.11886345426637364 -0.1195022138907012 -0.10052493199652879 -0.11619255732719905 -0.11413021091112902 -0.10688513375571528 -0.10736299005357652
leaf_weight=28.20699626461829 0.2135840682312854 0.35953397315461133 0.25155020225793012 0.24735986092127971 1.5827361930569166 0.16337555553764138 0.5430956661584786 2.6856175130815245 0.56572220474481583 0.37088961666449938 0.81914643989875913 0.95631688390858538 0.18788669182686135 1.4277597348263951 1.6936237670597618 0.21959548449376598 0.17409421227057365 0.92579717392800276 0.18321534975257225 0.51398901164066035 0.46260043350048363 0.2088300585746764 0.17290098080411542 1.2428793758153913 0.41659744153730571 0.18995599198387914 0.15716210659593344 0.32238787412643433 0.57788507314398885 0.49108709098072723
leaf_count=9490 49 44 44 7 29 27 12 27 5 3 12 269 5 18 35 13 14 32 14 14 33 1 11 10 4 55 7 3 37 17
internal_value=0 -0.0218447 0.000482045 -0.0336708 0.0272762 -0.0279018 -0.0928092 0.0885063 -0.00953585 -0.14501 0.0958601 -0.114321 -0.00452038 -0.124367 -0.116117 -0.0454585 -0.101164 -0.101991 -0.103412 -0.119656 0.0299809 -0.104605 -0.111784 -0.110102 -0.113545 -0.106373 -0.107472 -0.108243 -0.103004 -0.105456
internal_weight=0 17.2273 14.5836 10.507 5.17437 3.59163 5.33262 4.07665 1.39103 2.64364 1.52911 4.78953 0.401471 4.38806 2.27275 0.579129 29.3069 29.1328 2.9603 2.06253 0.70996 1.54854 1.38516 2.77708 0.82531 1.17633 0.408712 1.00343 1.5342 0.681043
internal_count=10341 805 710 623 209 180 414 87 60 95 52 402 54 348 92 57 9536 9522 330 128 40 114 87 316 55 86 51 75 306 72
is_linear=0
shrinkage=0.1


Tree=11
num_leaves=31
num_cat=0
split_feature=30 32 59 3 37 38 76 78 33 9 51 57 30 23 30 38 77 43 77 77 77 30 30 32 39 38 42 3 21 2
split_gain=6.48271 4.08814 3.72846 3.36794 2.37812 1.8574 1.76612 1.92485 1.33864 1.24619 0.987349 0.756852 0.764245 0.325947 0.684086 0.31556 0.302849 0.230054 0.165614 0.084725 0.0176034 0.00800045 0.00272766 0.00151184 0.000288755 0.000241309 3.98067e-05 3.61287e-05 3.38866e-05 4.47257e-05
threshold=79.500000000000014 108.50000000000001 125.50000000000001 78.700000000000003 0.41070000000000007 10.500000000000002 1110.528 21.050000000000004 150.50000000000003 9.9500000000000011 4.4650800000000013 0.056350000000000004 97.500000000000014 48.150000000000013 97.500000000000014 37.500000000000007 374.69881350000009 3.1338150000000007 422.66181350000005 312.47954199999998 374.69881350000009 97.90000000000002 98.300000000000026 64.500000000000014 24.500000000000004 25.500000000000004 91.359800000000021 48.150000000000013 16.200000000000006 16.500000000000004
decision_type=10 8 10 2 10 10 2 2 10 2 8 10 10 2 10 10 8 8 10 8 8 10 10 10 10 10 10 2 2 2
left_child=15 2 3 4 8 17 7 -4 11 -5 13 12 -2 14 -3 18 19 20 24 21 22 23 -6 25 28 -13 -26 -28 -1 -30
right_child=1 10 6 9 5 -7 -8 -9 -10 -11 -12 16 -14 -15 -16 -17 -18 -19 -20 -21 -22 -23 -24 -25 26 -27 27 -29 29 -31
leaf_value=-0.10027425249409089 -0.100750335558025 -0.13177959907634218 0.11505955322662774 0.15288200154912771 -0.1005482996634284 0.1115903352052488 0.13528430297203833 -0.11318857974678342 0.037966397609884052 -0.0043087751147712896 -0.28700227099944903 -0.10038204367821157 0.14787548810906923 -0.13508450056911889 0.10119332486387836 0.033923907285345799 -0.15692759085360694 0.05487053197622787 -0.14457325670671678 -0.03194634960232199 -0.14352054381214316 -0.11395163641690609 -0.11859776328043699 -0.10664926578353305 -0.10435940579801656 -0.10476269089504653 -0.10297098891812657 -0.10110938580300595 -0.10026099423994286 -0.10322308575526494
leaf_weight=24.787673141770952 0.28402282646857369 0.3382650237763295 0.71303301048465006 1.1236594552174213 0.22827281500212859 1.1943849534727631 2.4371524659509305 0.76680956431664526 0.69816414226079349 0.91507868963526551 0.38084848597645793 0.93212453703745424 0.21893782913684845 1.571296044567134 0.20088867578306235 0.1724221752374423 1.6046852233703242 0.085947148676495888 0.87523384935047843 0.15622972277924363 0.21128377318382252 1.1683797563891856 0.13222324848175049 0.83120241129654449 0.10661783488467236 0.1453555878251791 0.25196623429656029 0.17782516520674108 0.11634197412058611 0.090727707371115685
leaf_count=9380 74 45 24 15 63 20 31 32 8 30 4 298 1 33 13 14 28 12 32 18 1 12 1 38 5 4 9 48 45 3
internal_value=0 -0.0208771 0.000340488 -0.03225 -0.0618517 0.0372766 0.0829604 -0.00321171 -0.0922531 0.0823276 -0.138807 -0.109275 0.00747602 -0.112064 -0.0449739 -0.10092 -0.121413 -0.0976719 -0.1018 -0.103787 -0.120601 -0.107434 -0.107169 -0.103445 -0.100334 -0.100973 -0.10263 -0.102201 -0.100285 -0.101559
internal_weight=0 16.3382 13.8469 9.92995 7.89121 1.85211 3.917 1.47984 6.0391 2.03874 2.4913 5.34094 0.502961 2.11045 0.539154 26.5788 4.83798 0.657727 26.4064 3.23329 0.57178 3.07706 0.360496 1.90868 25.5312 1.07748 0.536409 0.429791 24.9947 0.20707
internal_count=10341 805 710 623 578 97 87 56 481 45 95 473 75 91 58 9536 398 77 9522 370 65 352 64 340 9490 302 62 57 9428 48
is_linear=0
shrinkage=0.1


Tree=12
num_leaves=31
num_cat=0
split_feature=30 32 59 55 16 82 82 28 40 51 32 11 64 38 23 30 84 77 78 77 84 45 30 32 30 39 15 38 42 3
split_gain=6.16262 3.54047 3.16082 3.023 2.82076 2.70524 1.72968 1.5674 1.57235 0.707044 0.672081 0.393504 0.366508 0.297817 0.280656 0.605428 0.24446 0.208199 0.208268 0.118127 0.0901493 0.0715745 0.00957717 0.000906194 0.000761086 0.000213485 4.39099e-05 3.62047e-05 2.93091e-05 2.65106e-05
threshold=79.500000000000014 108.50000000000001 125.50000000000001 1.6348500000000004 254.50000000000003 10.745000000000003 19.205000000000002 2014.5000000000002 0.89040000000000019 4.4650800000000013 50.500000000000007 11.950000000000001 5.2065775000000007 37.500000000000007 48.150000000000013 97.500000000000014 0.046892227419727428 374.69881350000009 35.95000000000001 422.66181350000005 0.10107333039253295 4.2247250000000012 97.90000000000002 53.500000000000007 94.90000000000002 24.500000000000004 93.500000000000014 25.500000000000004 91.359800000000021 48.150000000000013
decision_type=10 8 10 8 2 2 2 2 8 8 10 2 10 10 2 10 10 8 2 10 8 8 10 10 10 10 2 10 10 2
left_child=13 2 3 6 5 10 11 8 -4 14 -5 12 26 19 15 -3 -9 18 22 25 21 24 23 27 -7 -1 -2 -13 -27 -30
right_child=1 9 7 4 -6 20 -8 16 -10 -11 -12 17 -14 -15 -16 -17 -18 -19 -20 -21 -22 -23 -24 -25 -26 28 -28 -29 29 -31
leaf_value=-0.10025773396447563 -0.10026485934734795 -0.12863247211432399 0.1048098571728581 -0.01360724231810731 0.12682389793739915 -0.10055508333371321 0.086630743762940235 0.15561885461010472 -0.11802887887613658 -0.25775964845158428 0.13785270687639811 -0.10031084872691286 0.10461782324444467 0.030786894970727393 -0.13102813082325379 0.099947839091170915 0.093145689151124825 -0.14992242684760873 0.0067545118867336999 -0.13886085845801843 -0.14081921798122476 -0.032028144765166383 -0.11568138994818843 -0.10589836664803852 -0.10771561210397861 -0.10393178648010078 -0.10339051004708551 -0.10263081421797107 -0.10268030336242072 -0.10100528443186665
leaf_weight=22.621992708098343 0.11287892307154201 0.31317880318965841 0.59877345175482433 0.47673921147361509 1.7419842913586761 0.19222787348553561 0.50855075736762945 1.2102499993052336 0.67201343353372078 0.3815707387402657 0.76004392676986754 0.65777442906983485 0.15971577010350302 0.17106799446628329 1.4635032211081123 0.18392407626379281 1.2982551456952931 1.3266579290211646 0.16751588112674642 0.822814476036 0.73276407577213809 0.15438452514354117 1.062247537076473 0.55739820354210678 0.65159980510361493 0.096848494838922217 0.074680669466033578 0.074929572641849518 0.22860102728009224 0.16106026583474886
leaf_count=9428 45 45 16 39 31 60 12 15 30 4 12 249 5 14 33 13 26 18 27 32 19 22 10 41 26 5 4 3 9 48
internal_value=0 -0.0199161 0.000200767 -0.0308174 0.025811 -0.0334804 -0.0875349 0.0774497 -0.013031 -0.133216 0.0794699 -0.108655 -0.00670922 -0.100688 -0.108978 -0.0440596 0.123286 -0.117859 -0.100978 -0.101628 -0.114183 -0.0946308 -0.10865 -0.10286 -0.106084 -0.100302 -0.101509 -0.100548 -0.102375 -0.101988
internal_weight=0 15.5336 13.1914 9.41209 4.70974 2.96776 4.70235 3.77929 1.27079 2.34218 1.23678 4.1938 0.347275 24.1024 1.96061 0.497103 2.50851 3.84652 2.51987 23.9313 1.73098 0.998212 2.35235 1.2901 0.843828 23.1085 0.18756 0.732704 0.48651 0.389661
internal_count=10341 805 710 623 209 178 414 87 46 95 51 402 54 9536 91 58 41 348 330 9522 127 108 303 293 86 9490 49 252 62 57
is_linear=0
shrinkage=0.1


Tree=13
num_leaves=31
num_cat=0
split_feature=30 32 37 72 16 40 59 57 30 59 51 55 35 38 23 23 30 56 77 48 37 34 30 57 69 39 30 57 39 42
split_gain=5.82518 3.07494 2.82734 2.5679 2.5556 2.16126 1.93115 0.916336 0.742731 0.511705 0.510698 0.426458 0.425436 0.282264 0.263901 0.243156 0.536351 0.0945054 0.0846674 0.0815634 0.0731425 0.0115433 0.00671554 0.000966164 0.000549906 0.000157859 0.000133257 0.000172763 0.000117822 2.15924e-05
threshold=79.500000000000014 108.50000000000001 0.39300000000000007 1.3090000000000004 260.50000000000006 0.84810000000000008 137.50000000000003 0.056350000000000004 97.500000000000014 125.50000000000001 4.4650800000000013 2.0845000000000007 112.50000000000001 37.500000000000007 14.350000000000003 48.150000000000013 97.500000000000014 1.3651500000000001 422.66181350000005 6.627390000000001 0.39955000000000007 56.500000000000007 97.90000000000002 0.52785000000000004 0.38879184834440539 24.500000000000004 95.90000000000002 0.78980000000000017 28.500000000000004 91.359800000000021
decision_type=10 8 10 10 2 8 10 10 10 10 8 10 10 10 2 2 10 10 10 8 10 10 10 10 10 10 10 10 10 10
left_child=13 2 4 5 6 -4 7 8 -2 11 15 -5 14 18 -9 16 -3 19 25 22 -7 23 24 -22 28 -1 27 -26 -16 -27
right_child=1 10 3 9 -6 20 -8 12 -10 -11 -12 -13 -14 -15 17 -17 -18 -19 -20 -21 21 -23 -24 -25 26 29 -28 -29 -30 -31
leaf_value=-0.10023320531977863 -0.10067283425558887 -0.12576942571515548 0.11051236265703146 0.0054360969019506579 0.077875460314423106 -0.17909253579065013 0.12202290005625466 0.029367870330825559 0.13009068755470365 0.14470222399299862 -0.23387303921714106 0.12034566056040433 -0.03071359290023162 0.027896253527411499 -0.10038853027088686 -0.12743879855886908 0.098604502023245888 -0.053447308618046196 -0.13404065236240323 -0.13715506070631925 -0.10055206233197163 -0.12988374024065066 -0.11315199978330248 -0.11031499117454353 -0.10049814737346233 -0.10354722028633566 -0.10574505807732107 -0.10564445549990574 -0.10348265102182259 -0.1017960369023073
leaf_weight=20.473980023101841 0.23447059886529675 0.2894954275107019 0.57784522458678078 0.64185478002764307 1.5407861529529325 0.24898766237311065 0.50163950654678036 0.13371456903405476 0.34425748884677887 1.9146355866978408 0.37861855147639323 0.65008241165196523 0.83120224310550828 0.16997628600802173 0.71181874629110298 1.3596025878505313 0.168576110212598 0.24748169677332033 0.76988794503267755 1.3401156919135231 0.21491745265666395 0.35231273421959486 0.98691286146640766 0.19185282895341516 0.13969867874402553 0.08794101350940664 0.44377727387472987 0.12237401213496923 0.14879522728733718 0.35321091069090471
leaf_count=9428 74 45 33 25 29 2 11 22 2 15 4 15 28 14 254 33 13 23 32 21 64 4 10 8 42 5 14 5 9 57
internal_value=0 -0.0190793 6.66279e-05 0.0604088 -0.037359 -0.0436764 -0.06606 -0.0826573 0.0365973 0.111888 -0.128217 0.0632568 -0.0961743 -0.100466 -0.108903 -0.106209 -0.043197 -0.113368 -0.101472 -0.117177 -0.13206 -0.116633 -0.106691 -0.105157 -0.10262 -0.100274 -0.104689 -0.102901 -0.100923 -0.102145
internal_weight=0 14.7158 12.5195 4.79249 7.72704 1.58592 6.18626 5.68462 0.578728 3.20657 2.19629 1.29194 5.10589 21.855 4.27469 1.81767 0.458072 4.14097 21.685 3.89349 1.00807 0.759083 2.55338 0.40677 1.56646 20.9151 0.70585 0.262073 0.860614 0.441152
internal_count=10341 805 710 166 544 111 515 504 76 55 95 40 428 9536 400 91 58 378 9522 355 78 76 334 72 324 9490 61 47 263 62
is_linear=0
shrinkage=0.1


Tree=14
num_leaves=31
num_cat=0
split_feature=30 32 37 72 16 40 59 21 30 59 33 34 55 38 23 23 30 56 48 77 16 77 34 30 57 30 76 25 39 32
split_gain=5.50644 2.6807 2.42417 2.18976 2.18818 1.85959 1.66311 0.798575 0.81221 0.472315 0.408021 0.378401 0.377945 0.268611 0.23599 0.193314 0.47559 0.0925668 0.0657223 0.0609372 0.0481952 0.028594 0.00814061 0.00525701 0.000711487 0.000332632 0.000163093 0.000157248 0.000116854 0.000111293
threshold=79.500000000000014 108.50000000000001 0.39300000000000007 1.3090000000000004 260.50000000000006 0.84810000000000008 137.50000000000003 0.25000000000000006 97.500000000000014 125.50000000000001 147.50000000000003 43.500000000000007 2.0845000000000007 37.500000000000007 14.350000000000003 48.150000000000013 97.500000000000014 1.3651500000000001 6.627390000000001 422.66181350000005 298.50000000000006 422.66181350000005 56.500000000000007 97.90000000000002 0.52785000000000004 94.700000000000003 1583.5850000000003 4.2147250000000005 24.500000000000004 69.500000000000014
decision_type=10 8 10 10 2 8 10 2 10 10 8 10 10 10 2 2 10 10 8 10 2 8 10 10 10 10 2 2 10 10
left_child=13 2 4 5 6 -4 7 8 27 12 -3 14 -5 19 -9 16 -12 18 21 28 22 23 24 25 -7 26 -16 -2 -1 -27
right_child=1 10 3 9 -6 20 -8 11 -10 -11 15 -13 -14 -15 17 -17 -18 -19 -20 -21 -22 -23 -24 -25 -26 29 -28 -29 -30 -31
leaf_value=-0.10021101999702989 -0.10066814041916557 -0.20955760968817688 0.10098909852468015 0.0048873978884205679 0.071029651018228307 -0.10049669741355045 0.1125434659245937 0.024465955998926685 0.12245058601504136 0.13833322088124356 -0.12317849100486414 -0.020232940684316802 0.11447700258141225 0.02524408709699006 -0.1005054526038647 -0.12110452743036271 0.097135751679066865 -0.051109821909203469 -0.1324915416296289 -0.12993795261607402 -0.16669804514540018 -0.041296926960521077 -0.12625626570740353 -0.11169200686164518 -0.10926299783120215 -0.10244923881213511 -0.10585077981046076 -0.10558098908045735 -0.10193869495517344 -0.10542067097893287
leaf_weight=18.529516002769025 0.18649085494689277 0.43618749082088593 0.56955815367109575 0.64248755289008863 1.5214191746927097 0.19636057631578308 0.49011729634366918 0.13520273775793601 0.36563850566744804 1.8080225645971948 0.26717311685206357 0.59810711198952038 0.61681725888047367 0.16910013978485849 0.78235497709829649 1.1966976393305229 0.15472606307594106 0.25066320417681698 1.2545381434028957 0.71747353688988269 0.24002258479595184 0.069982779677956741 0.32746834283898352 0.99283955991268147 0.17518145032227039 0.22349298594053835 0.061572608072310686 0.10013127326965332 0.39993787527055147 0.28909759968519211
leaf_count=9428 61 2 33 25 29 65 11 23 5 15 45 15 15 14 286 35 13 26 22 32 1 4 4 11 8 41 2 2 62 6
internal_value=0 -0.0182432 -2.715e-05 0.0570704 -0.0357123 -0.0415696 -0.063711 -0.0799791 0.0236516 0.105584 -0.123717 -0.094491 0.0585652 -0.100252 -0.105431 -0.100585 -0.0423811 -0.109906 -0.113918 -0.101332 -0.128037 -0.104286 -0.114761 -0.106163 -0.10463 -0.102116 -0.100895 -0.102384 -0.100248 -0.104125
internal_weight=0 13.9524 11.8976 4.57592 7.32165 1.50859 5.80023 5.31011 0.652261 3.06733 2.05478 4.65785 1.2593 19.816 4.05974 1.6186 0.421899 3.92454 3.67388 19.6469 0.939033 2.41934 0.69901 2.34936 0.371542 1.35652 0.843928 0.286622 18.9295 0.512591
internal_count=10341 805 710 166 544 111 515 504 68 55 95 436 40 9536 421 93 58 398 372 9522 78 350 77 346 73 335 288 63 9490 47
is_linear=0
shrinkage=0.1


Tree=15
num_leaves=31
num_cat=0
split_feature=30 41 82 25 56 32 21 34 5 26 25 50 30 36 38 51 47 77 46 34 18 36 30 12 30 32 33 39 10 48
split_gain=5.19235 2.36378 2.03636 1.83237 1.69543 1.66181 1.26797 0.92312 0.690159 0.611009 0.565699 1.39373 0.455435 0.43617 0.256605 0.14048 0.110494 0.0440133 0.0220052 0.0110956 0.0100521 0.00283819 0.00109042 0.000815868 0.000345475 0.000331557 0.000180439 8.65835e-05 6.01171e-05 5.83499e-05
threshold=79.500000000000014 96.893200000000022 14.185000000000004 2.8273450000000007 0.88730000000000009 68.500000000000014 10.250000000000002 27.500000000000004 17.150000000000002 121.20250000000001 2.2824900000000006 -1.9409149999999997 97.90000000000002 0.69255000000000011 37.500000000000007 0.53806650000000011 -1.6725349999999997 422.66181350000005 -1.4314249999999997 56.500000000000007 33.500000000000007 0.75175000000000003 98.500000000000014 52.500000000000007 97.500000000000014 53.500000000000007 59.500000000000007 24.500000000000004 3.1500000000000008 5.829835000000001
decision_type=10 10 2 2 10 10 2 10 2 2 2 10 10 8 10 8 10 10 10 10 2 10 10 2 10 10 10 10 2 10
left_child=14 3 4 5 9 6 8 29 12 16 11 -4 -2 -5 17 -9 -3 27 -10 22 21 23 25 26 28 -18 -20 -1 -13 -6
right_child=1 2 10 13 7 -7 -8 15 18 -11 -12 24 -14 -15 -16 -17 19 -19 20 -21 -22 -23 -24 -25 -26 -27 -28 -29 -30 -31
leaf_value=-0.10019093925186669 -0.10071412955513287 -0.0038451399741880571 0.13050519299608529 -0.066705466019139417 -0.1016314976036701 0.098026418738190679 0.07434557781569183 0.13773721929907082 -0.081666080090447749 0.039123699052940879 0.13065276769617204 -0.10381802510088554 0.11900605276039725 -0.14396608590443469 0.022819472302707571 0.065782121287014023 -0.10045180523674842 -0.12641996563381724 -0.097008236174003448 -0.12180596301088689 -0.12862705472554889 -0.11650110493557753 -0.10923281796897036 -0.10845175627805236 -0.10778431819600209 -0.10427535650112454 -0.10332620658498132 -0.10175302297549581 -0.10064660705525158 -0.1046091162229645
leaf_weight=16.769388963806719 0.15343679551733602 0.10788413707632605 0.63071290869265795 1.1789319857780358 0.13096267718356092 1.0204484287241937 0.63792278463370156 0.60376517887925707 0.2314637230010711 0.37106223317095999 1.6164513909607192 0.10297496244311355 0.24492737650871277 1.9218732423614708 0.1684001671965224 0.49277384928427637 0.61934797151479892 0.66632459810352784 0.071537484880535684 0.44413560163229693 0.38971372676314775 0.45976423763204366 0.25171818037051708 0.60259908289299347 0.17584321647882462 0.35781214700546116 0.12279895169194788 0.36250548824500484 0.14246248106792336 0.13229029322974384
leaf_count=9428 55 28 16 25 37 24 21 15 39 20 32 4 3 25 14 27 252 32 34 4 13 9 4 23 3 32 15 62 40 5
internal_value=0 -0.0174653 0.0276583 -0.0571037 -0.022379 -0.0117984 -0.0502556 0.0650305 -0.0851755 -0.0776117 0.0935088 0.0364348 0.0343771 -0.114591 -0.100042 0.105401 -0.101934 -0.101205 -0.110537 -0.10826 -0.114596 -0.110244 -0.103364 -0.106635 -0.104401 -0.101852 -0.101 -0.100224 -0.101977 -0.103128
internal_weight=0 13.2156 6.1802 7.03542 3.51175 3.93461 2.91416 1.35979 2.27624 2.15196 2.66844 1.05199 0.398364 3.10081 17.9666 1.09654 1.7809 17.7982 1.87788 1.67301 1.64641 1.2567 1.22888 0.796936 0.421281 0.97716 0.194336 17.1319 0.245437 0.263253
internal_count=10341 805 519 286 424 236 212 84 191 340 95 63 58 50 9536 42 320 9522 133 292 94 81 288 72 47 284 49 9490 44 42
is_linear=0
shrinkage=0.1


Tree=16
num_leaves=31
num_cat=0
split_feature=30 37 38 32 7 42 78 38 17 59 48 78 49 38 74 21 43 32 77 51 77 16 2 21 40 48 30 34 30 53
split_gain=4.88154 2.0467 2.35208 2.1984 1.31906 1.19405 1.13468 1.06184 0.916698 0.745821 0.864251 0.666673 0.472922 0.246027 0.173176 0.138093 0.238958 0.130329 0.0421579 0.0426036 0.0318862 0.0193673 0.0120972 0.0138472 0.0119058 0.0034759 0.00196344 0.00138197 0.000712224 0.000364026
threshold=79.500000000000014 0.41070000000000007 28.500000000000004 67.500000000000014 61.475000000000001 94.667650000000023 21.050000000000004 20.500000000000004 0.49650000000000005 42.500000000000007 3.9555250000000002 20.350000000000005 7.9258500000000014 37.500000000000007 0.94402959399299224 0.65000000000000002 3.5768700000000004 75.500000000000014 374.69881350000009 4.8185850000000015 422.66181350000005 383.50000000000006 36.500000000000007 3.1500000000000008 0.93845000000000012 5.5673450000000004 97.90000000000002 62.000000000000007 98.500000000000014 3.8502000000000005
decision_type=10 10 8 10 2 8 2 10 2 8 10 2 10 10 8 2 10 10 10 8 10 2 2 2 8 10 10 10 10 10
left_child=13 2 3 6 7 17 11 8 -3 10 28 -2 -10 20 21 16 -11 -5 19 26 -1 24 23 -14 -4 27 -17 29 -8 -26
right_child=1 4 14 5 -6 -7 9 -9 12 15 -12 -13 22 -15 -16 18 -18 -19 -20 -21 -22 -23 -24 -25 25 -27 -28 -29 -30 -31
leaf_value=-0.10020270290157743 -0.10059294095889355 0.10211836571391719 -0.09094834888948973 0.13516964075907167 -0.09078378201308579 -0.056326632635072704 -0.10030586991443986 0.1256628027387319 0.081823602102617798 -0.100530838490207 0.11616940394292126 0.11888181167985148 -0.065768640328528402 0.020609497361725227 -0.1820397511872934 -0.10056164139427178 0.10301698407988764 0.081137933977060178 -0.12758704446426691 -0.02579846121207718 -0.12338405699685671 -0.13380295244022564 -0.12019466223015891 -0.10828778399503343 -0.099845747552166131 -0.11757967228492545 -0.10918702429411681 -0.11410457638751077 -0.10946665699640995 -0.1061116853809357
leaf_weight=15.504705293627929 0.19006544444709783 0.58208816789556272 0.30780860729282866 0.80869535345118471 0.58842885261401523 0.61162362387403879 0.19177700742147896 1.691441024886444 0.17390778812114149 0.19040941912680898 0.36759263112617191 0.50917601503897458 0.1244453524122946 0.16784355390700412 0.45013937656767655 0.46245817898306996 0.08273608423769474 0.99652120984683279 1.1531157455901846 0.071551530621945969 0.61698199624515915 0.37735803425312031 0.28488753305282444 0.19919498826493509 0.14085781353060156 0.70499009505147114 0.61471606197301298 0.19978091865777969 0.15224361419677734 0.27128749515395612
leaf_count=9490 70 30 23 13 24 31 81 17 11 72 10 18 35 14 4 200 3 28 18 3 32 2 6 13 56 16 9 2 2 8
internal_value=0 -0.0167565 -0.0427166 -0.0108208 0.0463194 0.0644296 -0.0564494 0.0727187 0.00709017 -0.0810597 0.00955724 0.0592249 -0.0636055 -0.0998359 -0.125995 -0.106102 -0.038876 0.105343 -0.11408 -0.100521 -0.10109 -0.113395 -0.105167 -0.0919384 -0.108655 -0.112793 -0.105484 -0.107279 -0.10436 -0.10397
internal_weight=0 12.4993 8.8549 6.40268 3.64439 2.41684 3.98584 3.05596 1.36452 3.2866 0.711613 0.699241 0.782436 16.2895 2.45222 2.57499 0.273146 1.80522 2.30184 1.14873 16.1217 2.00208 0.608528 0.32364 1.62472 1.31692 1.07717 0.611926 0.344021 0.412145
internal_count=10341 805 669 558 136 72 486 112 95 398 93 88 65 9536 111 305 75 41 230 212 9522 107 54 48 105 82 209 66 83 64
is_linear=0
shrinkage=0.1


Tree=17
num_leaves=31
num_cat=0
split_feature=30 41 82 56 25 32 80 34 26 30 23 25 50 36 38 57 5 69 77 18 34 36 12 56 33 30 76 30 38 30
split_gain=4.55615 1.80912 1.56351 1.3689 1.32026 1.19971 1.04273 0.636207 0.497718 0.480973 0.814727 0.416204 1.09085 0.366007 0.2406 0.166799 0.152164 0.100965 0.0231575 0.00607 0.00595925 0.00187974 0.0010313 0.000940703 0.000702625 0.000417263 0.000328849 0.000200677 0.00011568 9.7229e-05
threshold=79.500000000000014 96.893200000000022 14.185000000000004 0.88730000000000009 2.8273450000000007 68.500000000000014 12.050000000000002 48.500000000000007 121.20250000000001 96.90000000000002 23.850000000000005 2.2824900000000006 -1.9409149999999997 0.69255000000000011 61.500000000000007 3.3754500000000003 15.65 0.50521902881922898 422.66181350000005 33.500000000000007 56.500000000000007 0.7490500000000001 46.500000000000007 0.80280000000000007 58.500000000000007 98.500000000000014 1110.528 97.500000000000014 19.500000000000004 95.500000000000014
decision_type=10 10 2 10 2 10 2 10 2 10 2 2 10 8 10 10 2 8 10 2 10 10 2 10 10 10 2 10 10 10
left_child=14 4 3 8 5 6 7 16 17 10 -5 12 -4 -6 15 18 -2 20 -1 21 24 22 23 -18 26 28 -3 -14 -26 -12
right_child=1 2 11 9 13 -7 -8 -9 -10 -11 29 -13 27 -15 -16 -17 19 -19 -20 -21 -22 -23 -24 -25 25 -27 -28 -29 -30 -31
leaf_value=-0.10018699704541645 0.0033633394193922439 -0.10028288861760788 0.1201420401045642 0.13055776220598256 -0.058980893813488755 0.085092864390941464 0.097095162118871439 0.041967943444375058 0.033103889802500931 0.12121166738089738 -0.10042077193948325 0.11923798626125022 -0.10162708859082313 -0.13328346410898315 0.10522319877726434 0.10211405343403351 -0.10119507944296535 0.0021039117656191002 -0.12074968137416338 -0.12225497191456636 -0.11716435789264193 -0.11223073134794237 -0.10629814252065756 -0.083280041380223227 -0.10047704474444984 -0.10835900745486349 -0.089921955807157547 -0.10643684554742677 -0.10407221779125407 -0.10381567534635593
leaf_weight=14.101532431780466 0.12703705378225949 0.41387626930372767 0.56243228155653935 0.26167965307831742 1.0876559946336786 0.93374539620708663 0.4153701283794361 0.37364263698691491 0.34525177399336815 0.6327227222500369 0.1404161492100684 1.4760102039290357 0.20506085718079725 1.6978036865330066 0.057111633010209384 0.040548425167799773 0.16449129878310464 0.091245585470460466 0.56981851895398072 0.33773889171425242 0.37776452372781943 0.46217055758461356 0.59657077331212349 0.035665093921124935 0.1362451792228967 0.20898735150694847 0.033082330046454445 0.15034763142466545 0.2608529063872993 0.21132060419768095
leaf_count=9500 33 214 16 9 25 24 17 6 20 10 56 32 44 25 2 2 72 5 32 13 4 18 36 17 58 3 19 3 17 9
internal_value=0 -0.0161675 0.025592 -0.0211287 -0.0530716 -0.0116922 -0.0476588 -0.0763271 -0.0752965 0.0600403 -0.00305629 0.0863571 0.0334802 -0.10427 -0.0996306 -0.100426 -0.10197 -0.0998853 -0.100986 -0.110351 -0.106389 -0.107157 -0.104214 -0.0980029 -0.102524 -0.104742 -0.099516 -0.103662 -0.102839 -0.10246
internal_weight=0 11.7392 5.5073 3.11345 6.23189 3.44643 2.51269 2.09732 1.86731 1.24614 0.613416 2.39385 0.917841 2.78546 14.769 14.7119 1.72367 1.52205 14.6714 1.59664 1.43081 1.2589 0.796727 0.200156 1.05304 0.606085 0.446959 0.355408 0.397098 0.351737
internal_count=10341 805 519 424 286 236 212 195 340 84 74 95 63 50 9536 9534 189 320 9532 156 315 143 125 89 311 78 233 47 75 65
is_linear=0
shrinkage=0.1


Tree=18
num_leaves=31
num_cat=0
split_feature=30 37 38 32 7 42 78 38 17 59 48 78 10 38 57 33 21 43 9 4 50 30 52 77 58 64 17 82 23 48
split_gain=4.27345 1.60629 1.84374 1.66044 1.01478 0.94684 0.901183 0.81085 0.716954 0.636121 0.718811 0.531635 0.397508 0.217365 0.150769 0.112574 0.108506 0.202556 0.0956451 0.0353684 0.0568346 0.0198653 0.0195064 0.0168589 0.0132396 0.00874581 0.0066852 0.005195 0.00742094 0.00464525
threshold=79.500000000000014 0.41070000000000007 28.500000000000004 67.500000000000014 61.475000000000001 94.667650000000023 21.050000000000004 20.500000000000004 0.50450000000000006 42.500000000000007 3.9555250000000002 20.350000000000005 1.3500000000000003 61.500000000000007 3.3754500000000003 123.50000000000001 0.65000000000000002 3.5768700000000004 25.650000000000002 92.850000000000009 -0.64860549999999983 98.90000000000002 0.96825000000000017 422.66181350000005 15.265400000000001 7.204295000000001 0.49650000000000005 11.875000000000004 31.150000000000002 6.627390000000001
decision_type=10 10 8 10 2 8 2 10 2 8 10 2 2 10 10 8 2 10 2 2 10 8 10 10 10 10 2 2 2 10
left_child=13 2 3 6 7 15 11 8 22 10 -8 -2 -10 14 23 -5 17 -11 21 20 -18 25 -3 -1 26 -4 27 28 -21 -28
right_child=1 4 18 5 -6 -7 9 -9 12 16 -12 -13 -14 -15 -16 -17 19 -19 -20 24 -22 -23 -24 -25 -26 -27 29 -29 -30 -31
leaf_value=-0.10016928427567376 -0.10049218972098953 0.070792252854954718 -0.10984842991148175 0.12445131380309155 -0.083218619971254959 -0.054841264816476942 -0.10350381559599278 0.11617648273103612 0.071086291243055197 -0.10043867847592272 0.11249036547798204 0.10969823873063543 -0.1102612304269331 0.10432230080290504 0.10190883379706608 0.071976783205862191 -0.10021361972161164 0.10260887438111117 -0.1629693986307216 -0.1001912942387324 0.040697041892405486 -0.087070714215061559 0.10842670554549448 -0.1184527837687957 -0.13143993418916758 -0.12823555025481395 -0.10666720334277945 -0.10517578088013087 -0.039459891815511836 -0.12059453442767512
leaf_weight=12.761735751310876 0.16268404142465298 0.26807472488144479 1.049458282504929 0.73086058322223801 0.52993809815961856 0.56448492360141278 0.2882858712691817 1.5323993007186798 0.16094833693932742 0.15898739802651141 0.33095138096541632 0.46225010917987674 0.48541312100132927 0.052100504341070386 0.036759853363037887 0.92785501945763837 0.10879356251098216 0.07110263779759407 0.40869426727294911 0.056001533637754397 0.038843377144075819 0.3293279859062751 0.28323248238302767 0.52507511201838575 0.35237030684947956 0.34330973029136669 0.41534809581935406 0.41864651200012304 0.031402467750012875 0.56559171377739403
leaf_count=9500 70 32 90 14 24 31 83 17 6 72 10 18 49 2 2 27 62 3 2 33 9 17 8 32 2 2 48 53 16 7
internal_value=0 -0.01555 -0.0401465 -0.010409 0.0434154 0.0570275 -0.0537241 0.0679966 0.00635113 -0.0776754 0.0119343 0.0549811 -0.0651045 -0.0995351 -0.100332 0.095098 -0.102704 -0.0376927 -0.119479 -0.110232 -0.0631399 -0.109158 0.0901268 -0.100892 -0.114012 -0.114381 -0.109882 -0.100546 -0.0783717 -0.114697
internal_weight=0 11.0753 7.81525 5.68446 3.26001 2.2232 3.46126 2.73007 1.19767 2.83632 0.619237 0.624934 0.646361 13.3757 13.3236 1.65872 2.21709 0.23009 2.13079 1.987 0.147637 1.7221 0.551307 13.2868 1.83936 1.39277 1.48699 0.506051 0.087404 0.98094
internal_count=10341 805 669 558 136 72 486 112 95 398 93 88 55 9536 9534 41 305 75 111 230 71 109 40 9532 159 92 157 102 49 55
is_linear=0
shrinkage=0.1


Tree=19
num_leaves=31
num_cat=0
split_feature=30 3 25 39 37 15 41 46 36 69 28 69 38 57 56 77 48 3 46 30 30 84 16 39 38 30 32 40 21 2
split_gain=3.98512 1.42719 1.9167 2.03478 1.13794 1.09338 0.736415 0.533415 0.52356 0.520583 0.490202 0.422899 0.196398 0.136293 0.0224747 0.0122977 0.00287532 0.00269845 0.000928342 0.000469561 0.000460631 0.00032455 0.000203965 2.73751e-05 2.67497e-05 1.85375e-05 1.22568e-05 3.7903e-06 3.18804e-06 4.08788e-06
threshold=79.500000000000014 82.350000000000009 2.8273450000000007 12.500000000000002 0.39300000000000007 96.500000000000014 88.028900000000007 2.2118750000000005 0.69585000000000008 0.32212865523797873 2013.5000000000002 0.4590169631692167 61.500000000000007 3.3754500000000003 1.2957000000000003 422.66181350000005 6.8536400000000013 81.350000000000009 0.3769455000000001 92.90000000000002 97.90000000000002 -0.8645638613861385 254.50000000000003 24.500000000000004 31.500000000000004 96.100000000000009 57.500000000000007 0.86425000000000007 16.200000000000006 16.500000000000004
decision_type=10 2 2 10 10 2 10 10 8 10 2 10 10 10 8 10 10 2 10 10 10 8 2 10 10 10 10 10 2 2
left_child=12 2 3 7 5 6 -5 14 10 -9 -4 -12 13 15 17 23 20 18 21 -20 24 -2 26 28 -8 -23 -11 -25 -1 -30
right_child=1 -3 8 4 -6 -7 16 9 -10 22 11 -13 -14 -15 -16 -17 -18 -19 19 -21 -22 25 -24 27 -26 -27 -28 -29 29 -31
leaf_value=-0.10012309550591121 -0.090433145858715536 0.11282587115838952 -0.10810487991874307 0.088344114817105926 0.10614921909013103 0.081980895924497699 -0.10058794625134292 0.093107970144062524 -0.1217813170612822 -0.10023164803410906 0.067028770849847458 -0.061211692698821776 0.10343586863795862 0.101723888486877 -0.04673403364800495 -0.11644176227729662 -0.11755228569253856 -0.11812038292235492 -0.10021351127562333 -0.1064865681546474 -0.10695494110773845 -0.10026050250592528 -0.10736764293923561 -0.10142234633259622 -0.10282594097255338 -0.10180873722616941 -0.10219937282106327 -0.10071267327908535 -0.10011707773468503 -0.10144148430129636
leaf_weight=11.152221776811523 0.03383168566506356 0.80533410803036609 0.72503097477601874 0.2416439040098346 1.9169469831103922 0.88239651714684431 0.15061804982542526 0.32930084818508465 1.8038675869320284 0.12533825801801868 0.48606133932480566 0.54602323165454436 0.047526190173812988 0.0333190858364113 0.070965734426863603 0.48289037059294138 0.25094645810895599 0.12987263500690471 0.14778218232095242 0.61968969978624955 0.40675109997391701 0.43350183108122642 0.063911847770214081 0.16169014724437225 0.082749248947948217 0.094126943324226886 0.042352024698629975 0.1407889444481043 0.052336500957609 0.042014250531792641
leaf_count=9380 23 33 17 6 33 25 59 29 39 70 19 28 2 2 12 32 3 1 99 34 7 244 1 22 5 13 5 50 45 3
internal_value=0 -0.0150335 -0.0257777 0.00860965 0.0509931 -0.00147636 -0.0664908 -0.0711033 -0.0839374 0.0123145 -0.0450866 -0.000816708 -0.0994485 -0.100248 -0.101689 -0.100807 -0.10848 -0.104363 -0.103018 -0.105279 -0.104923 -0.0999279 -0.102561 -0.100153 -0.101382 -0.100537 -0.100729 -0.101092 -0.100128 -0.100707
internal_weight=0 10.389 9.58371 6.02273 3.93205 2.01511 1.13271 2.09067 3.56098 0.560903 1.75712 1.03208 12.1128 12.0653 1.52977 12.0319 0.891065 1.4588 1.32893 0.767472 0.640118 0.56146 0.231602 11.5491 0.233367 0.527629 0.16769 0.302479 11.2466 0.0943508
internal_count=10341 805 772 669 138 105 80 531 103 105 64 47 9536 9534 426 9532 74 414 413 133 71 280 76 9500 64 257 75 72 9428 48
is_linear=0
shrinkage=0.1


Tree=20
num_leaves=31
num_cat=0
split_feature=30 32 38 37 53 34 17 72 52 18 13 77 11 11 77 77 50 48 72 10 58 51 43 15 39 21 2 77 43 59
split_gain=3.72458 1.38759 0.898063 0.897968 1.00604 1.02264 0.750432 0.716896 0.903871 0.634683 0.413733 0.185505 0.131106 0.0391866 0.0133008 0.0155288 0.0402689 0.0027119 0.000589143 0.000171758 0.000151822 6.99557e-05 3.59611e-05 2.28443e-05 1.19516e-05 2.28465e-06 3.05625e-06 1.20023e-06 6.14922e-07 9.42163e-07
threshold=89.90000000000002 106.50000000000001 26.500000000000004 0.41070000000000007 3.5076000000000005 32.500000000000007 0.53850000000000009 1.4654500000000004 0.64405000000000012 1.5000000000000002 132.50000000000003 623.1615915000001 13.950000000000001 14.950000000000001 422.66181350000005 312.47954199999998 1.0472150000000002 6.8536400000000013 2.8258000000000005 2.4500000000000006 10.777700000000001 4.4650800000000013 3.8476650000000006 90.500000000000014 24.500000000000004 16.200000000000006 16.500000000000004 91.150763000000026 2.6155250000000003 137.50000000000003
decision_type=10 8 10 10 10 10 2 10 10 2 2 8 2 2 10 10 10 8 10 2 10 10 10 2 10 2 2 10 10 8
left_child=2 3 14 4 5 6 12 8 -5 19 -6 13 -2 -3 15 22 -17 20 -16 -4 21 23 24 -14 25 28 -27 -21 -1 -30
right_child=1 11 9 7 10 -7 -8 -9 -10 -11 -12 -13 17 -15 18 16 -18 -19 -20 27 -22 -23 -24 -25 -26 26 -28 -29 29 -31
leaf_value=-0.1001112659474559 0.021486898597124923 -0.14492266812865964 -0.10624740602915389 0.1022734407925279 -0.10777698547742982 0.095437553001295375 0.03621239602485718 0.11456281961568643 -0.10899857704657673 0.10185529577366115 -0.012895543154939499 -0.042889550052398279 -0.10030531088218769 -0.10466699178018168 -0.11094631127765596 0.03651656568860847 -0.10021466876110868 -0.1158464957632549 -0.116709239792123 -0.10118003687882181 -0.10525969781987887 -0.10422561344174262 -0.10232752360800348 -0.10260083163735126 -0.10101235436070249 -0.10012607779497432 -0.10130242690583309 -0.10061349576022692 -0.10018334056340968 -0.100673752477897
leaf_weight=10.218176299086725 0.088800837867890836 0.40777520643314413 0.097917426377535643 0.39291546656750176 1.1353512455825692 1.1911807296128243 0.9608221956223133 1.2273917012498712 0.41784613199706655 0.38566033059032634 0.77212074112321705 0.43569686473347236 0.19371265692461792 0.59415618363709655 0.34634629205538736 0.029956155805849316 0.076661439437884837 0.23829975468106523 0.3636432505591074 0.068269789684563875 0.17915335425641388 0.079480729531496763 0.075165012152866306 0.055852319579571486 0.15226065040496983 0.052611818420701506 0.038065593689680099 0.082681503394269384 0.3172224297732108 0.044693902309518307
leaf_count=9423 19 8 2 16 37 33 35 22 27 22 23 12 103 38 33 9 60 4 7 12 9 3 6 4 31 47 3 29 250 14
internal_value=0 -0.00795202 -0.094356 0.0105884 -0.0126349 0.023592 -0.0240557 0.0663609 -0.00661084 0.0215146 -0.0693702 -0.0973626 -0.0933804 -0.121051 -0.100632 -0.0997762 -0.0617975 -0.107045 -0.113898 -0.102986 -0.102917 -0.101642 -0.100148 -0.100819 -0.100133 -0.10012 -0.10062 -0.10087 -0.100116 -0.100244
internal_weight=0 8.37056 12.3493 6.93293 4.89477 2.9873 1.79612 2.03815 0.810762 0.634529 1.90747 1.43763 0.8353 1.00193 11.7148 11.0048 0.106618 0.746499 0.70999 0.248869 0.508199 0.329046 10.8982 0.249565 10.823 10.6708 0.0906774 0.150951 10.5801 0.361916
internal_count=10341 393 9948 335 270 210 177 65 43 65 60 58 142 46 9883 9843 69 123 40 43 119 110 9774 107 9768 9737 50 41 9687 264
is_linear=0
shrinkage=0.1


Tree=21
num_leaves=31
num_cat=0
split_feature=30 72 53 36 84 2 72 14 54 59 45 38 7 74 21 57 37 45 84 77 77 43 36 30 76 39 40 21 2 43
split_gain=3.48318 1.15545 0.99862 1.00417 0.793406 0.73202 0.6967 0.854257 0.593249 0.389199 0.251514 0.160872 0.139045 0.123757 0.207908 0.111375 0.0378754 0.0352073 0.0312342 0.00658536 0.00392832 0.00232607 0.000304042 0.000297924 3.03873e-05 1.49068e-05 2.15243e-06 1.74559e-06 2.23348e-06 1.43686e-06
threshold=79.500000000000014 2.5220000000000007 1.8591000000000002 0.72270000000000001 0.10499984375341449 28.500000000000004 1.8071000000000004 0.70050000000000001 2.5469500000000003 48.500000000000007 2.8433250000000005 61.500000000000007 54.135000000000012 0.70754017092814891 10.15 3.3754500000000003 0.36015000000000003 4.0301600000000013 0.03332049818258024 422.66181350000005 422.66181350000005 3.5768700000000004 0.75625000000000009 98.500000000000014 1540.1120000000003 24.500000000000004 0.86425000000000007 16.200000000000006 16.500000000000004 2.0174800000000004
decision_type=10 10 10 8 10 2 10 2 10 10 8 10 2 10 2 10 10 10 10 10 8 10 10 10 2 10 10 2 2 10
left_child=11 2 21 5 20 17 7 9 -9 -7 18 15 -10 14 -8 19 -14 -4 -11 25 22 23 -5 24 -2 27 -27 -1 -29 -28
right_child=1 -3 3 4 -6 6 13 8 12 10 -12 -13 16 -15 -16 -17 -18 -19 -20 -21 -22 -23 -24 -25 -26 26 29 28 -30 -31
leaf_value=-0.10010077784967049 -0.10026230478831888 -0.10339231353556935 -0.056523205530005921 -0.1020314821318308 0.029573626120191116 -0.029877564359721359 0.024447093509252282 0.092297008084022275 -0.0091408326821471146 0.088212653929419294 0.013075839712399701 0.10211027822642185 -0.068586815589035385 0.12485712772908442 0.11737318725630677 0.10140636143610826 -0.11161574161173866 -0.11272193698616138 0.12175117202633973 -0.11310825340694669 -0.11703242066336961 -0.11634736842235052 -0.10700079141284893 -0.10628444883317807 -0.10266726163908185 -0.10116216459201317 -0.10099575281687052 -0.10009582682551664 -0.10117695367487617 -0.1002870160737025
leaf_weight=9.1335960192136483 0.54995402670465221 1.2478599840542299 0.19616718526231114 0.2395248907705535 0.66436413541669015 0.38208012905670363 0.47832977755751904 0.25980862864525978 0.24426959567426798 0.49784635676769518 0.38268436235375691 0.039499331032858076 0.33749116503167897 0.77745124216016848 0.48477997211739421 0.02735239081084806 0.51939390076586278 0.25820574921090156 0.62789324560435489 0.40753024300647744 0.52227448893245298 0.12076322734355927 0.25335785927018151 0.10397980734705925 0.0580877426546067 0.1327080641640358 0.048272202955558896 0.042857273190748724 0.034483714029192924 0.070210362494435685
leaf_count=9380 361 34 33 31 25 27 37 17 38 40 35 2 32 16 6 2 28 10 9 32 9 1 10 2 4 22 9 45 3 41
internal_value=0 -0.0139248 0.000102995 0.0122125 -0.0553872 0.0330583 0.0441188 0.0167857 -0.0436259 0.0602757 0.0831113 -0.0992993 -0.0756958 0.0951787 0.0712213 -0.100103 -0.0946684 -0.0884592 0.106919 -0.100662 -0.110989 -0.103514 -0.104586 -0.101338 -0.100492 -0.100126 -0.100886 -0.100105 -0.100578 -0.100576
internal_weight=0 9.20657 7.95871 7.12592 1.67952 5.4464 4.99203 3.25147 1.36096 1.8905 1.50842 9.93651 1.10115 1.74056 0.96311 9.89701 0.856885 0.454373 1.12574 9.86966 1.01516 0.832785 0.492883 0.712022 0.608042 9.46213 0.251191 9.21094 0.077341 0.118483
internal_count=10341 805 771 403 75 328 285 226 115 111 84 9536 98 59 43 9534 60 43 49 9532 50 368 41 367 365 9500 72 9428 48 50
is_linear=0
shrinkage=0.1


Tree=22
num_leaves=31
num_cat=0
split_feature=30 3 25 39 37 76 41 46 36 58 17 38 57 56 26 77 48 30 77 30 23 43 43 30 30 39 30 71 40 21
split_gain=3.26731 1.0233 1.2865 1.44397 0.812833 0.829737 1.01409 0.445825 0.415094 0.468781 0.407385 0.145397 0.100706 0.0268556 0.0197177 0.00482566 0.00153786 0.00104115 0.000965523 0.000518202 0.000421163 0.000183753 6.83099e-05 5.20316e-05 2.20743e-05 1.10377e-05 9.204e-06 7.58482e-06 1.59209e-06 1.29192e-06
threshold=79.500000000000014 82.350000000000009 2.8273450000000007 12.500000000000002 0.39300000000000007 1242.2835000000002 86.744150000000019 2.2118750000000005 0.69585000000000008 12.815000000000001 0.43950000000000006 61.500000000000007 3.3754500000000003 1.3538500000000002 100.12600000000002 422.66181350000005 6.1960300000000013 98.700000000000003 422.66181350000005 97.90000000000002 25.750000000000004 4.087225000000001 3.8476650000000006 96.90000000000002 93.90000000000002 24.500000000000004 96.100000000000009 0.06502752999574278 0.86425000000000007 16.200000000000006
decision_type=10 2 2 10 10 2 10 10 8 10 2 10 10 10 2 10 8 10 8 10 2 8 8 10 10 10 10 10 10 2
left_child=11 2 3 7 5 6 -5 13 9 -4 -9 12 15 16 -8 25 18 23 19 21 -12 26 27 24 -16 29 -2 -22 -27 -1
right_child=1 -3 8 4 -6 -7 14 10 -10 -11 20 -13 -14 -15 17 -17 -18 -19 -20 -21 22 -23 -24 -25 -26 28 -28 -29 -30 -31
leaf_value=-0.10009118304941939 -0.10018927588582244 0.10417307882560517 0.043480015954424411 0.11980126173313216 0.096917573760644166 0.09760428087974922 -0.068914410650185012 0.090599881907132043 -0.11368792666612451 -0.076111027893112165 -0.089570446483971833 0.10124567610175779 0.10127073054904366 -0.035534623241595849 -0.10043209130790057 -0.11173208271198914 -0.070042865268091767 -0.11049608561250619 -0.11289987137976341 -0.10545026539347412 -0.10216410406818542 -0.10634828856255443 -0.10531259593375644 -0.10400080614813663 -0.10290757686200738 -0.10105075131237035 -0.10130770726495955 -0.10026085533578687 -0.10052077399382114 -0.10052254916048711
leaf_weight=8.2651715996889763 0.49330299691064339 0.68316599677928103 0.47483337888843413 0.27299839572515361 1.6020879233838057 0.56939361401600752 0.16766965558053926 0.28268116188701231 1.4513692606560651 1.0583182336849857 0.031779628072399646 0.0360304763598841 0.024780925363303008 0.061831620929296949 0.079676234876387753 0.37305732076856735 0.01384335593320285 0.38404569029808044 0.10120420902967309 0.40827111527323723 0.028842970088589936 0.056130085140465025 0.048680187901481986 0.21480485238134861 0.065745727857574821 0.12020488234702575 0.086478619574336335 0.076408867505961098 0.10726312482802314 0.07001756253885183
leaf_count=9380 380 33 25 4 33 13 32 25 39 39 22 2 2 12 38 32 3 5 1 9 4 1 3 7 6 22 20 51 50 48
internal_value=0 -0.0133189 -0.0233142 0.00746836 0.0454213 -0.00160588 -0.0492789 -0.0679324 -0.0753579 -0.0390724 0.0150092 -0.0992342 -0.10004 -0.0997484 -0.0998946 -0.100599 -0.103173 -0.106874 -0.103574 -0.10267 -0.100051 -0.100885 -0.102215 -0.103012 -0.101551 -0.100114 -0.100356 -0.100782 -0.100801 -0.100095
internal_weight=0 8.71356 8.0304 5.04588 3.35642 1.75433 1.18494 1.68945 2.98452 1.53315 0.468393 8.99653 8.9605 1.22106 0.911942 8.93571 1.15923 0.744273 1.14539 1.04418 0.185712 0.635912 0.153932 0.360227 0.145422 8.56266 0.579782 0.105252 0.227468 8.33519
internal_count=10341 805 772 669 138 105 92 531 103 64 105 9536 9534 426 88 9532 414 56 411 410 80 401 58 51 44 9500 400 55 72 9428
is_linear=0
shrinkage=0.1


Tree=23
num_leaves=31
num_cat=0
split_feature=30 32 38 37 54 35 17 70 72 54 55 23 28 41 13 11 77 48 82 58 51 43 32 56 39 43 21 2 56 30
split_gain=3.05373 0.951222 0.678625 0.620402 0.723648 0.997383 0.679546 0.498452 0.473381 0.455275 0.156877 0.15362 0.150025 0.028774 0.00799369 0.0616414 0.00503506 0.00170613 0.000133315 9.1375e-05 3.28459e-05 1.35377e-05 9.35499e-06 7.68416e-06 5.20305e-06 2.78331e-06 9.22044e-07 1.23712e-06 4.08174e-07 4.06186e-07
threshold=89.90000000000002 108.50000000000001 26.500000000000004 0.41070000000000007 5.4593000000000007 98.500000000000014 0.53850000000000009 0.19443602792050815 1.4654500000000004 2.7965500000000003 1.2535500000000004 14.350000000000003 2013.5000000000002 93.625200000000021 122.50000000000001 27.650000000000002 422.66181350000005 6.8536400000000013 11.825000000000005 10.777700000000001 4.4650800000000013 3.8476650000000006 69.500000000000014 0.31140000000000007 24.500000000000004 4.087225000000001 16.200000000000006 16.500000000000004 0.55720000000000003 79.90000000000002
decision_type=10 8 10 10 10 10 2 10 10 10 8 2 2 10 2 2 10 8 2 10 8 10 10 10 10 10 2 2 10 10
left_child=2 3 14 4 5 6 11 -4 9 -5 -3 -2 -6 -9 16 25 21 19 -15 20 22 24 -13 -20 26 -16 29 -28 -25 -1
right_child=1 10 7 8 12 -7 -8 13 -10 -11 -12 17 -14 18 15 -17 -18 -19 23 -21 -22 -23 -24 28 -26 -27 27 -29 -30 -31
leaf_value=-0.10008149562689506 0.056741586965673919 -0.11786681180210253 0.11197353938066155 0.085633694848097033 -0.10415655486458462 0.085659035681842882 0.031282909315694767 -0.022483492783362653 0.10397456976892677 -0.079422310289862602 -0.043150137765164957 -0.1002514810448028 -0.033634253655519079 -0.10681663670221381 -0.10012398633548558 0.064533509334908742 -0.10998776318762045 -0.1120379562380146 -0.10209469610593132 -0.1039161554623893 -0.10323561736976834 -0.10194615783691958 -0.1019523103385251 -0.10077938653263972 -0.10077794884806335 -0.10140314452510671 -0.10009335728349172 -0.10096197521725743 -0.10032836225971807 -0.10018224850325655
leaf_weight=7.3297936777594241 0.062399971706326385 0.71278272138442811 0.2688435507006951 0.30773383629275475 0.72158022495568708 1.2180771317362085 0.84584050687408308 0.057941050574299879 1.0226174920535411 0.36571164874476381 0.46390145127952576 0.15618244523648306 0.5183475375524722 0.059743735939264297 0.18394363937250169 0.025566868484020233 0.55165599220345019 0.30200674216030099 0.050392238888889551 0.2500534038990736 0.062448749318718244 0.039913997170515247 0.040783059317618608 0.035489168367348611 0.1115689388825557 0.018743690801784396 0.038972833892330416 0.028305093757808208 0.046168713364750147 0.42324364275555115
leaf_count=9204 12 32 6 22 29 39 35 13 23 21 23 107 23 1 209 7 34 8 4 13 3 5 3 10 28 2 47 3 31 344
internal_value=0 -0.00634459 -0.0936678 0.0100955 -0.0106121 0.0164263 -0.0326113 0.0174817 0.0611021 -0.00399925 -0.0884102 -0.0944558 -0.0746749 -0.0842402 -0.100254 -0.0817857 -0.100748 -0.106082 -0.102897 -0.102552 -0.101237 -0.100109 -0.100604 -0.101124 -0.1001 -0.100242 -0.10009 -0.100459 -0.100524 -0.100087
internal_weight=0 7.05047 9.27029 5.87378 4.17772 2.93779 1.71971 0.518578 1.69606 0.673445 1.17668 0.873874 1.23993 0.249735 8.75171 0.228254 8.52345 0.811474 0.191794 0.509468 0.259414 7.9718 0.196966 0.13205 7.93188 0.202687 7.82032 0.0672779 0.0816579 7.75304
internal_count=10341 393 9948 338 272 220 181 65 66 43 55 146 52 59 9883 218 9665 134 46 126 113 9631 110 45 9626 211 9598 50 41 9548
is_linear=0
shrinkage=0.1


Tree=24
num_leaves=31
num_cat=0
split_feature=30 32 38 37 38 32 78 20 72 40 18 35 78 21 13 41 77 25 26 35 10 30 21 43 39 43 21 2 80 30
split_gain=2.8507 0.819827 0.621035 0.573206 0.643925 0.617728 0.606441 0.544387 0.457473 0.593712 0.443952 0.36323 0.191744 0.098514 0.00768426 0.056101 0.00369818 0.00264948 0.000644024 0.0007349 8.97217e-05 7.63963e-05 4.30632e-05 1.00291e-05 3.85202e-06 2.06363e-06 6.82524e-07 9.15031e-07 3.49792e-07 3.01035e-07
threshold=89.90000000000002 106.50000000000001 26.500000000000004 0.41070000000000007 28.500000000000004 67.500000000000014 21.350000000000005 0.39450000000000007 1.4654500000000004 0.84810000000000008 1.5000000000000002 115.50000000000001 34.550000000000004 0.65000000000000002 122.50000000000001 94.865700000000018 422.66181350000005 3.4121100000000006 118.99000000000001 31.500000000000004 2.4500000000000006 98.500000000000014 6.0500000000000007 3.8476650000000006 24.500000000000004 4.087225000000001 16.200000000000006 16.500000000000004 6.6500000000000012 79.90000000000002
decision_type=10 8 10 10 8 10 2 2 10 8 2 10 2 2 2 8 10 2 2 10 2 10 2 10 10 10 2 2 2 10
left_child=2 3 14 4 5 6 -2 13 9 -5 20 -7 -3 -8 16 -16 23 18 19 -15 -4 22 -21 24 26 -17 29 -28 -22 -1
right_child=1 12 10 8 -6 11 7 -9 -10 -11 -12 -13 -14 17 15 25 -18 -19 -20 21 28 -23 -24 -25 -26 -27 27 -29 -30 -31
leaf_value=-0.10007373607072556 0.083167731558632302 -0.11355108714685298 -0.10503478129296986 0.086232286045959144 -0.10524720048329946 -0.00036430670462794882 -0.021113840012160844 0.041160748227181472 0.1057846472371413 -0.10598713503558631 0.094591183849303276 0.098615162161614145 -0.028330656807284652 -0.090625212853355008 0.060586281230756517 -0.10011100907406117 -0.10896207109638512 -0.11652233584672234 -0.10847114485343493 -0.10022025388789035 -0.10081747266722643 -0.10467713865792692 -0.10337274395793761 -0.10175951504155362 -0.10070349684500386 -0.10126823824466323 -0.10008446758432105 -0.10086959213455562 -0.10045599526078848 -0.10016491274312328
leaf_weight=6.6327598208936234 0.36995189520530569 0.73651959141716339 0.080681454390287288 0.34306275984272339 0.60646317596547294 0.66895270894747205 0.15348843256651867 0.39491187996463839 0.92980185736087151 0.30226538280840032 0.29064178431872278 0.83174239982326981 0.41154322284273803 0.049188423727173358 0.024605407459603046 0.16648728511290756 0.50361713020174637 0.23899228870868683 0.2501954876279342 0.07925172736577224 0.049967881524935365 0.2463193740695715 0.095600927132181823 0.036178549053147324 0.10102259140694503 0.016981437569484115 0.03526705055264745 0.025633771903812885 0.057661918748635799 0.38302959839347739
leaf_count=9204 30 36 2 13 20 25 33 27 22 30 22 20 22 34 7 209 34 2 7 62 14 6 4 5 28 2 47 3 27 344
internal_value=0 -0.00606831 -0.0934835 0.00981696 -0.0103691 0.00666167 -0.0315627 -0.05971 0.0608874 -0.00380141 0.0170949 0.0544939 -0.0830023 -0.0954996 -0.100166 -0.0812025 -0.100677 -0.107398 -0.104372 -0.102192 -0.102514 -0.103542 -0.101944 -0.100099 -0.10009 -0.100218 -0.100082 -0.100415 -0.100624 -0.100079
internal_weight=0 6.70825 8.40454 5.56019 3.98506 3.3786 1.8779 1.50795 1.57513 0.645328 0.478953 1.5007 1.14806 1.11304 7.92558 0.208074 7.71751 0.959548 0.720556 0.47036 0.188311 0.421172 0.174853 7.21389 7.17771 0.183469 7.07669 0.0609008 0.10763 7.01579
internal_count=10341 393 9948 335 270 250 205 175 65 43 65 45 58 148 9883 218 9665 115 113 106 43 72 66 9631 9626 211 9598 50 41 9548
is_linear=0
shrinkage=0.1


Tree=25
num_leaves=31
num_cat=0
split_feature=30 3 25 39 14 59 78 46 52 69 10 14 38 36 56 77 84 43 30 51 32 8 39 5 10 42 44 21 2 15
split_gain=2.64606 0.751704 0.844931 1.10786 0.612077 0.446114 0.766521 0.356765 0.345592 0.321686 0.251071 0.176842 0.112346 0.099058 0.0281432 0.0019133 0.00131107 0.000571066 0.000300997 0.000207925 3.15321e-05 8.35707e-06 4.44015e-06 4.15557e-06 6.78717e-07 6.29859e-07 6.85083e-07 5.25114e-07 6.69164e-07 1.40724e-07
threshold=79.500000000000014 82.350000000000009 2.8273450000000007 12.500000000000002 0.51250000000000007 125.50000000000001 31.350000000000005 2.2118750000000005 1.3381000000000001 0.32212865523797873 12.15 0.55950000000000022 37.500000000000007 0.69585000000000008 1.3819500000000002 422.66181350000005 -0.52558067725886681 4.087225000000001 97.90000000000002 2.7109950000000005 63.500000000000007 15.950000000000001 24.500000000000004 29.150000000000002 2.8500000000000001 92.086750000000009 120.89600000000002 16.200000000000006 16.500000000000004 101.50000000000001
decision_type=10 2 2 10 2 10 2 10 10 10 2 2 10 8 10 10 10 10 10 8 10 2 10 2 2 10 10 2 2 2
left_child=12 2 3 7 -5 6 11 14 10 -9 -4 -6 15 -10 16 22 -2 18 21 -13 -11 23 27 24 -18 -24 -27 -1 -29 -26
right_child=1 -3 8 4 5 -7 -8 9 13 20 -12 19 -14 -15 -16 -17 17 -19 -20 -21 -22 -23 25 -25 29 26 -28 28 -30 -31
leaf_value=-0.10006754918682699 -0.080403854018957388 0.097488406416222848 -0.069892942886759776 -0.10519376724336514 0.027723528310243419 0.10053410583982055 0.082370506851758313 0.087384905345722894 -0.059540573578071 -0.10019571963498952 0.057668262600176413 -0.10257599420793051 0.017569431400546589 -0.10621178606629483 -0.024574310647786566 -0.10845920371126166 -0.10050738037522451 -0.10895588710113935 -0.10436207690433819 -0.1070865490620465 -0.10319728966749458 -0.10220089078909389 -0.10104877870486882 -0.10160661924834942 -0.10012734086019362 -0.10071378304238279 -0.1001939833574139 -0.10006418584324495 -0.10078615856991849 -0.10036520126006193
leaf_weight=6.1254820881620162 0.02614033987629194 0.57872242089069903 0.28996718284906853 0.25486390449805219 0.13330871102516562 1.2321784009982364 0.75249726117181126 0.23558394794235937 0.74690935332910124 0.08844392052560579 0.32978106311929878 0.24530666286591407 0.081664116965839528 1.1627029474475421 0.048753034207038581 0.28499450049639552 0.061259204259840883 0.14161472767591476 0.32674349099397659 0.17518410956836339 0.057918597536627203 0.023756674607284367 0.029596621345262863 0.022177997976541519 0.31631869777629618 0.071514695009682328 0.039283243640056753 0.028723382507450768 0.023212620057165623 0.026995399093721062
leaf_count=9380 29 33 18 27 13 24 29 29 30 72 22 36 14 33 10 32 30 2 9 9 4 3 6 4 327 11 45 45 3 12
internal_value=0 -0.0118553 -0.0213023 0.00636149 0.0425379 0.0573702 0.0166554 -0.0670939 -0.0668995 0.0150485 -0.00201495 -0.0726376 -0.0990026 -0.0879572 -0.0986649 -0.100444 -0.102487 -0.103115 -0.102051 -0.104455 -0.101384 -0.100375 -0.100083 -0.100274 -0.100201 -0.100639 -0.100529 -0.10007 -0.100387 -0.100146
internal_weight=0 7.27713 6.69841 4.16905 2.79334 2.53848 1.3063 1.37571 2.52936 0.381946 0.619748 0.553799 6.68447 1.90961 0.99376 6.60281 0.945007 0.918866 0.777251 0.420491 0.146363 0.450508 6.31781 0.426751 0.404573 0.140395 0.110798 6.17742 0.051936 0.343314
internal_count=10341 805 772 669 138 111 87 531 103 105 40 58 9536 63 426 9522 416 387 385 45 76 376 9490 373 369 62 56 9428 48 339
is_linear=0
shrinkage=0.1


Tree=26
num_leaves=31
num_cat=0
split_feature=30 8 14 34 38 46 70 3 15 27 55 59 77 12 59 36 51 13 13 77 84 21 77 30 10 30 43 5 39 13
split_gain=2.4621 0.632153 0.782588 0.550682 0.520969 0.403564 0.375069 0.361024 0.510433 0.347045 0.659177 0.31752 0.206389 0.165232 0.0890911 0.0338555 0.0305095 0.00839467 0.0603443 0.00200375 0.000507853 0.000462666 0.000213559 6.8791e-05 4.92697e-05 4.85781e-05 6.96086e-06 2.47073e-06 2.10304e-06 1.11849e-06
threshold=89.90000000000002 3.2500000000000004 0.66600000000000015 14.500000000000002 26.500000000000004 2.4099750000000006 0.19443602792050815 62.050000000000004 96.500000000000014 4.8500000000000005 1.9682500000000003 113.50000000000001 188.45223150000004 113.50000000000001 125.50000000000001 0.67535000000000012 2.8812050000000005 122.50000000000001 123.50000000000001 422.66181350000005 0.097293856698343298 3.9500000000000006 281.69137000000006 98.500000000000014 2.4500000000000006 98.300000000000026 3.8476650000000006 22.050000000000004 24.500000000000004 232.50000000000003
decision_type=10 2 2 10 10 10 10 2 2 2 10 10 8 2 10 10 8 2 2 10 10 2 8 10 2 10 10 2 10 2
left_child=4 5 3 20 17 12 -6 8 14 10 11 -5 23 15 22 -9 24 19 -19 26 21 -3 25 -2 -8 27 28 -4 -1 -20
right_child=1 2 7 9 6 -7 16 13 -10 -11 -12 -13 -14 -15 -16 -17 -18 18 29 -21 -22 -23 -24 -25 -26 -27 -28 -29 -30 -31
leaf_value=-0.10006761855448926 -0.1002711057137412 -0.083697788702792264 -0.10051679228271548 -0.10542696470871055 0.10774002234205422 0.098480253370580612 -0.10408758844166666 -0.082300342754719411 0.10999900934579039 0.100463976346579 0.10622957464893674 0.01972832619038558 0.10272423908851912 -0.040862573988864601 -0.0023967695514699205 -0.11529000834826537 -0.009090980120020237 0.07961935036079007 -0.10009334211089622 -0.10722563538339824 -0.10401199356354635 -0.10045374589671317 -0.10905757727236601 -0.10426708429619258 -0.100527702913863 -0.10443977983157562 -0.10157045677166143 -0.10159101772929119 -0.10057519726653692 -0.10101905502443448
leaf_weight=5.8054583037639986 0.070693791538360307 0.025845258089248424 0.044967970490688791 0.40530056538409531 0.21385289099998761 0.81542917005572235 0.066639011725783348 0.56134365778416373 0.27721644281700719 0.67209735541837279 0.46784858806495322 0.40553445086698048 0.067013134714215994 0.73301650042412791 0.13078814104665071 0.69776086244382896 0.045355057809501886 0.021245031908620038 0.13938693262662127 0.42062794495359401 0.23579426013748161 0.045471607329091057 0.076816922337457072 0.11029504984617233 0.093326936890662182 0.081245310604572296 0.031280520139261969 0.040871003060601652 0.082792371627874561 0.01440054533577495
leaf_count=9598 54 22 36 27 6 35 2 28 7 21 16 17 3 33 11 15 10 5 210 34 27 25 5 3 47 2 5 6 28 3
internal_value=0 -0.00538394 -0.0205462 0.0226917 -0.0930077 0.0645071 0.0150533 -0.0574697 0.00712556 0.0422866 0.0117076 -0.0428313 -0.0471965 -0.078608 -0.0689861 -0.100582 -0.0814849 -0.0999601 -0.0783564 -0.100557 -0.101776 -0.0943814 -0.104694 -0.102706 -0.102011 -0.102687 -0.100083 -0.101028 -0.100075 -0.10018
internal_weight=0 5.96535 4.90192 2.25789 6.93437 1.06343 0.419174 2.64403 0.651906 1.95078 1.27868 0.810835 0.248002 1.99212 0.374689 1.2591 0.205321 6.51519 0.175033 6.34016 0.307111 0.0713169 0.243901 0.180989 0.159966 0.167084 5.91953 0.085839 5.88825 0.153787
internal_count=10341 393 298 155 9948 95 65 143 67 81 60 44 60 76 60 43 59 9883 218 9665 74 47 49 57 49 44 9631 42 9626 213
is_linear=0
shrinkage=0.1


Tree=27
num_leaves=31
num_cat=0
split_feature=30 3 25 40 25 50 38 16 18 37 16 40 9 77 13 13 77 80 77 30 30 10 4 43 39 30 13 59 21 2
split_gain=2.27655 0.584972 0.642862 0.693489 0.570208 0.615488 0.476763 0.376777 0.333359 0.110256 0.105822 0.0975382 0.155684 0.0931181 0.00787261 0.054492 0.00147526 0.0011216 0.00034439 0.000100265 4.18394e-05 3.61754e-05 8.67173e-06 5.1566e-06 1.55721e-06 1.13471e-06 8.27865e-07 6.0061e-07 2.75973e-07 3.71249e-07
threshold=89.90000000000002 82.350000000000009 2.8273450000000007 0.78020000000000012 1.8817050000000004 -1.2746249999999997 26.500000000000004 218.50000000000003 1.5000000000000002 0.39300000000000007 245.00000000000003 0.84295000000000009 27.050000000000004 211.87241300000002 122.50000000000001 123.50000000000001 422.66181350000005 5.3500000000000014 374.69881350000009 97.90000000000002 97.500000000000014 2.4500000000000006 109.65000000000002 3.8476650000000006 24.500000000000004 95.90000000000002 232.50000000000003 131.50000000000003 16.200000000000006 16.500000000000004
decision_type=10 2 2 10 2 10 10 2 2 10 2 10 2 8 2 2 10 2 10 10 10 2 2 10 10 10 2 8 2 2
left_child=6 2 3 17 5 11 14 -4 21 -6 -9 -5 -13 19 16 -16 23 18 20 22 25 -8 27 24 28 -2 -17 -7 -1 -30
right_child=1 -3 7 4 9 13 8 10 -10 -11 -12 12 -14 -15 15 26 -18 -19 -20 -21 -22 -23 -24 -25 -26 -27 -28 -29 29 -31
leaf_value=-0.10005904932631937 -0.10018054495573103 0.096965892173167756 0.017843428046049607 0.10920816699756508 0.04624697649512325 -0.10013968057828633 -0.10368618711275533 -0.11264400210610243 0.088731250468825976 0.1004438027864164 -0.060266001135958785 -0.10023525110990675 0.10864455368579545 -0.011499716990137836 0.076189528554220148 -0.10008446093145995 -0.10649865849203455 -0.093329576867223596 -0.10851620937680123 -0.10414733202468328 -0.10348170794984102 -0.10052170016751594 -0.10189097181255265 -0.10142004480069085 -0.10052023095135601 -0.10093278447894755 -0.10092135783649547 -0.10070328944305876 -0.10006256711900872 -0.10064310389488516
leaf_weight=5.2081418735535863 0.059453960042447185 0.5095695055570103 0.50120589125435833 0.2677547042258086 0.73734710171265738 0.050775555893778579 0.060518998652696498 0.64907867036527001 0.23645765852415934 0.76461678433406632 0.95068273079232313 0.069585365330567583 0.073236308991909027 0.14187818323262058 0.020045008976012357 0.12613313617816857 0.38306517998353218 0.11338533172965981 0.14462418764014728 0.355239387601614 0.090499032288789749 0.089621932682348415 0.066497133695520461 0.028343625483102985 0.074952517286874243 0.03025819722097367 0.013042124433923163 0.030125759658403695 0.026132042752578744 0.019042687024921179
leaf_count=9548 51 29 27 7 29 49 2 15 22 17 38 51 1 9 5 210 34 30 3 10 3 41 10 5 28 8 3 6 47 3
internal_value=0 -0.00519189 -0.0154066 0.0143392 0.0342586 -0.0220832 -0.0928445 -0.0578141 0.0147369 0.0738374 -0.0815176 0.0736107 0.00687444 -0.0830432 -0.0998951 -0.077961 -0.100504 -0.101893 -0.104882 -0.103238 -0.101965 -0.101797 -0.101045 -0.100075 -0.100068 -0.100434 -0.100163 -0.10035 -0.100061 -0.100307
internal_weight=0 5.60581 5.09624 2.99528 2.55706 1.05509 6.2855 2.10097 0.386599 1.50196 1.59976 0.410576 0.142822 0.644516 5.8989 0.15922 5.73968 0.438221 0.324835 0.502638 0.180211 0.150141 0.147398 5.35661 5.32827 0.0897122 0.139175 0.0809013 5.25332 0.0451747
internal_count=10341 393 364 284 189 143 9948 80 65 46 53 59 52 84 9883 218 9665 95 65 75 62 43 65 9631 9626 59 213 55 9598 50
is_linear=0
shrinkage=0.1


Tree=28
num_leaves=31
num_cat=0
split_feature=30 72 53 81 21 26 4 48 17 21 82 4 38 43 77 23 11 30 30 39 59 32 39 76 10 26 40 5 21 2
split_gain=2.11647 0.560004 0.575127 0.460061 0.524971 0.51784 0.719196 0.346811 0.33141 0.327104 0.173175 0.12761 0.094446 0.000764387 0.000763744 0.000198292 8.08327e-05 5.07808e-05 4.75626e-05 3.36103e-05 6.06938e-06 3.03593e-06 1.82898e-06 1.4584e-06 2.58669e-07 2.41752e-07 2.29415e-07 2.19619e-07 2.1361e-07 2.71582e-07
